svm_type epsilon_svr
kernel_type rbf
gamma 0.05
nr_class 2
total_sv 770
rho -155.845
probA 6.34795
SV
-1024 1:-0.597198 2:-0.143425 3:-0.250373 4:0.434151 5:-0.770629 6:-0.120473 7:-0.261166 8:0.437833 9:-0.749714 10:-0.204235 11:-0.170752 12:-0.101459 13:-0.597951 14:-0.584089 15:-0.168594 16:-0.110996 17:-0.594929 18:-0.593067 19:0.41183 20:0.210422 21:0.395286 22:0.165987 23:-0.339455 24:0.391707 25:0.373055 26:0.0738007 27:-0.299791 28:0.239653 29:0.50318 30:-0.356149 31:-0.0408499 32:-0.288528 33:0.533753 34:-0.386524 35:-0.0501816 36:-0.314717 
-1024 1:-0.750162 2:-0.467213 3:-0.516279 4:0.449112 5:-0.921984 6:-0.450775 7:-0.528675 8:0.11969 9:-0.864933 10:-0.64794 11:-0.434466 12:0.150394 13:-0.846166 14:-0.791906 15:-0.432509 16:0.129298 17:-0.843114 18:-0.800605 19:-0.0421003 20:-0.126157 21:-0.0164766 22:0.436398 23:-0.675814 24:0.0658424 25:0.0178726 26:-0.200528 27:-0.481642 28:-0.395445 29:0.118467 30:-0.0683621 31:-0.465541 32:-0.551679 33:0.141398 34:-0.234465 35:-0.431874 36:-0.600774 
1024 1:-0.754095 2:-0.57969 3:-0.545981 4:0.386669 5:-0.95345 6:-0.599779 7:-0.561229 8:0.148354 9:-0.909084 10:-0.719219 11:-0.426844 12:0.221294 13:-0.90574 14:-0.851418 15:-0.424881 16:0.263192 17:-0.90921 18:-0.848744 19:0.0128477 20:-0.273723 21:-0.0329473 22:0.412618 23:-0.750295 24:-0.151472 25:-0.110853 26:0.177895 27:-0.687629 28:-0.364115 29:0.141398 30:-0.229309 31:-0.580118 32:-0.730525 33:0.133754 34:-0.108961 35:-0.608392 36:-0.707541 
1024 1:-0.827579 2:-0.730515 3:-0.684592 4:0.30859 5:-0.987043 6:-0.754401 7:-0.657476 8:0.365962 9:-0.985231 10:-0.802138 11:-0.518305 12:0.473747 13:-0.97618 14:-0.902786 15:-0.520988 16:0.49167 17:-0.976604 18:-0.902236 19:-0.376186 20:-0.488749 21:-0.329417 22:0.329266 23:-0.839657 24:-0.445371 25:-0.392137 26:0.436789 27:-0.866552 28:-0.479491 29:-0.197454 30:-0.0526299 31:-0.741962 32:-0.820072 33:-0.20255 34:-0.0423801 35:-0.743262 36:-0.817102 
1024 1:-0.767757 2:-0.62048 3:-0.567197 4:0.367756 5:-0.963823 6:-0.646388 7:-0.549906 8:0.23761 9:-0.944241 10:-0.754318 11:-0.419222 12:0.339618 13:-0.936645 14:-0.865917 15:-0.418779 16:0.380955 17:-0.939338 18:-0.862834 19:-0.00213742 20:-0.305426 21:-0.0211825 22:0.520895 23:-0.807083 24:-0.171009 25:-0.108469 26:0.191881 27:-0.716547 28:-0.406812 29:0.133754 30:-0.162965 31:-0.626002 32:-0.745449 33:0.118467 34:-0.0535133 35:-0.648119 36:-0.723103 
1024 1:-0.80688 2:-0.577756 3:-0.649232 4:0.268326 5:-0.920659 6:-0.556767 7:-0.661722 8:0.0462289 9:-0.866098 10:-0.683699 11:-0.573181 12:-0.0651311 13:-0.840936 14:-0.856903 15:-0.582008 16:-0.0465824 17:-0.838542 18:-0.854912 19:-0.28439 20:-0.331716 21:-0.235299 22:0.265429 23:-0.719942 24:-0.243311 25:-0.287252 26:0.0841282 27:-0.653742 28:-0.399161 29:-0.057328 30:-0.400365 31:-0.535528 32:-0.770343 33:-0.0751625 34:-0.370103 35:-0.535209 36:-0.758974 
-1024 1:-0.733396 2:-0.252835 3:-0.490819 4:0.389673 5:-0.80005 6:-0.174505 7:-0.498952 8:-0.056824 9:-0.655384 10:-0.405482 11:-0.414649 12:-0.117863 13:-0.659958 14:-0.670002 15:-0.414202 16:-0.194532 17:-0.63791 18:-0.686694 19:0.0665449 20:0.139822 21:0.0988159 22:0.145322 23:-0.358059 24:0.330798 25:0.115606 26:-0.316136 27:-0.163024 28:-0.0445953 29:0.235666 30:-0.212578 31:-0.162703 32:-0.331073 33:0.248405 34:-0.262375 35:-0.146177 36:-0.345406 
-1024 1:-0.806466 2:-0.536068 3:-0.647817 4:0.119674 5:-0.890573 6:-0.601368 7:-0.643322 8:0.319161 9:-0.899704 10:-0.570371 11:-0.571656 12:0.138569 13:-0.860178 14:-0.813805 15:-0.575906 16:0.173889 17:-0.862989 18:-0.810866 19:-0.271901 20:-0.166852 21:-0.195299 22:0.0530176 23:-0.565781 24:-0.197588 25:-0.201435 26:0.230437 27:-0.589918 28:-0.106301 29:-0.100641 30:-0.179108 31:-0.439731 32:-0.593424 33:-0.105736 34:-0.146424 35:-0.44865 36:-0.585002 
-1024 1:-0.816195 2:-0.681926 3:-0.714293 4:0.0499216 5:-0.930058 6:-0.733805 7:-0.697106 8:0.186659 9:-0.943557 10:-0.758924 11:-0.66007 12:-0.00271959 13:-0.893449 14:-0.89908 15:-0.658285 16:0.221992 17:-0.922859 18:-0.876669 19:-0.406784 20:-0.449934 21:-0.46118 22:0.185869 23:-0.751298 24:-0.39387 25:-0.382602 26:0.104513 27:-0.742664 28:-0.541231 29:-0.273888 30:-0.201123 31:-0.660823 32:-0.807371 33:-0.304459 34:-0.106083 35:-0.674502 36:-0.783354 
-1024 1:-0.750162 2:-0.44733 3:-0.554468 4:0.0323952 5:-0.814088 6:-0.525189 7:-0.552737 8:0.412513 9:-0.862639 10:-0.428555 11:-0.414649 12:-0.277997 13:-0.751988 14:-0.824795 15:-0.414202 16:-0.0962064 17:-0.782675 18:-0.804619 19:0.0553058 20:-0.142664 21:-0.0117707 22:-0.0164067 23:-0.480999 24:-0.127488 25:-0.0774796 26:0.303814 27:-0.531896 28:0.103466 29:0.299358 30:-0.903045 31:-0.258641 32:-0.742719 33:0.256048 34:-0.640023 35:-0.317343 36:-0.68181 
-427.0784594459771 1:-0.799428 2:-0.547487 3:-0.642159 4:0.177161 5:-0.91301 6:-0.612435 7:-0.636245 8:0.183091 9:-0.873817 10:-0.609977 11:-0.568607 12:0.173332 13:-0.869457 14:-0.814237 15:-0.575906 16:-0.00903964 17:-0.830472 18:-0.833693 19:-0.183853 20:-0.210562 21:-0.127065 22:-0.0726811 23:-0.561614 24:-0.339713 25:-0.184748 26:0.145947 27:-0.570966 28:-0.174362 29:-0.0293022 30:-0.287888 31:-0.455066 32:-0.655692 33:-0.0675192 34:-0.151269 35:-0.478462 36:-0.613272 
-411.5410311984782 1:-0.646044 2:-0.280814 3:-0.32958 4:0.261539 5:-0.815427 6:-0.369665 7:-0.344675 8:0.265171 9:-0.785062 10:-0.405276 11:-0.344528 12:0.0234771 13:-0.661527 14:-0.608231 15:-0.330298 16:0.00636535 17:-0.670683 18:-0.634358 19:0.255734 20:0.0483862 21:0.221167 22:-0.0654165 23:-0.362803 24:0.0253642 25:0.218107 26:-0.188661 27:-0.307204 28:-0.103013 29:0.26624 30:0.136422 31:-0.292648 32:-0.247005 33:0.322289 34:-0.263028 35:-0.203382 36:-0.395982 
1024 1:-0.793218 2:-0.464121 3:-0.598313 4:0.455156 5:-0.915576 6:-0.39247 7:-0.613598 8:-0.102528 9:-0.776896 10:-0.631424 11:-0.5305 12:-0.0161003 13:-0.794206 14:-0.786841 15:-0.530142 16:-0.0900461 17:-0.774245 18:-0.797865 19:-0.0808169 20:-0.0698727 21:-0.0800064 22:0.369057 23:-0.591043 24:0.181274 25:-0.0560254 26:-0.306348 27:-0.31359 28:-0.269808 29:0.0547751 30:-0.218015 31:-0.356328 32:-0.527599 33:0.0598707 34:-0.239568 35:-0.349962 36:-0.532869 
1024 1:-0.802119 2:-0.561077 3:-0.635087 4:-0.0299323 5:-0.869102 6:-0.671591 7:-0.634829 8:0.397416 9:-0.922555 10:-0.576765 11:-0.591473 12:-0.0846808 13:-0.817238 14:-0.838262 15:-0.592687 16:0.118327 17:-0.850385 18:-0.814091 19:-0.37244 20:-0.33491 21:-0.310594 22:0.00927521 23:-0.639968 24:-0.389091 25:-0.308706 26:0.273034 27:-0.724018 28:-0.327833 29:-0.217837 30:-0.255932 31:-0.524886 32:-0.713183 33:-0.228028 34:-0.192585 35:-0.538847 36:-0.696697 
-1024 1:-0.718078 2:-0.162085 3:-0.355038 4:0.842688 5:-0.849902 6:0.120661 7:-0.317782 8:-0.450263 9:-0.543909 10:-0.526596 11:-0.315566 12:-0.492019 13:-0.465173 14:-0.623233 15:-0.31657 16:-0.371992 17:-0.489195 18:-0.60418 19:-0.136394 20:0.0705487 21:0.0799922 22:0.610825 23:-0.583153 24:0.55625 25:0.125141 26:-0.876925 27:-0.0204984 28:-0.461932 29:0.187258 30:-0.707114 31:-0.00254089 32:-0.479617 33:0.187258 34:-0.578537 35:-0.0567139 36:-0.452994 
-1024 1:-0.7572 2:-0.531582 3:-0.560125 4:0.19147 5:-0.912392 6:-0.618225 7:-0.556983 8:0.3802 9:-0.923511 10:-0.611689 11:-0.463427 12:0.152749 13:-0.869271 14:-0.82163 15:-0.464544 16:0.165832 17:-0.869421 18:-0.822846 19:-0.0539651 20:-0.237854 21:-0.0800064 22:0.114788 23:-0.66631 24:-0.316994 25:-0.0941662 26:0.144154 27:-0.659981 28:-0.346327 29:0.00891474 30:-0.0571892 31:-0.550359 32:-0.633482 33:-0.00891984 34:-0.112242 35:-0.530137 36:-0.640329 
-1024 1:-0.793011 2:-0.474152 3:-0.625187 4:0.0617193 5:-0.843727 6:-0.5499 7:-0.617844 8:0.25398 9:-0.851701 10:-0.512061 11:-0.55489 12:0.00482227 13:-0.796794 14:-0.782876 15:-0.562176 16:0.0563141 17:-0.802202 18:-0.7769 19:-0.203835 20:-0.105843 21:-0.117654 22:0.0180045 23:-0.524351 24:-0.164563 25:-0.134691 26:0.156802 27:-0.520642 28:-0.0653464 29:-0.0420412 30:-0.158776 31:-0.388073 32:-0.531024 33:-0.0471368 34:-0.118587 35:-0.39637 36:-0.51736 
1024 1:-0.663845 2:-0.253597 3:-0.323922 4:0.936985 5:-0.908008 6:-0.00279026 7:-0.302213 8:-0.508275 9:-0.608938 10:-0.640934 11:-0.236299 12:-0.770747 13:-0.530742 14:-0.778675 15:-0.235716 16:-0.491208 17:-0.582456 18:-0.735793 19:0.209529 20:-0.0648295 21:0.242344 22:0.868965 23:-0.762672 24:0.399853 25:0.258632 26:-0.628954 27:-0.313947 28:-0.541719 29:0.439487 30:-0.898035 31:-0.219973 32:-0.705845 33:0.434392 34:-0.788857 35:-0.245884 36:-0.680229 
-1024 1:-0.828821 2:-0.702025 3:-0.701563 4:0.130718 5:-0.96519 6:-0.777706 7:-0.714091 8:0.414503 9:-0.977258 10:-0.723717 11:-0.594522 12:0.343719 13:-0.957107 14:-0.89426 15:-0.600315 16:0.359296 17:-0.956958 18:-0.893383 19:-0.40616 20:-0.393829 21:-0.383533 22:0.0341689 23:-0.700991 24:-0.47312 25:-0.437429 26:0.396716 27:-0.776394 28:-0.287586 29:-0.284079 30:-0.216887 31:-0.615873 32:-0.777137 33:-0.286627 34:-0.139055 35:-0.637843 36:-0.763572 
1024 1:-0.835859 2:-0.843068 3:-0.728437 4:0.131478 5:-0.995819 6:-0.891274 7:-0.728245 8:0.232275 9:-0.994701 10:-0.895779 11:-0.641777 12:0.458785 13:-0.991702 14:-0.939673 15:-0.644555 16:0.47265 17:-0.991805 18:-0.93966 19:-0.306871 20:-0.596819 21:-0.308241 22:0.426359 23:-0.937443 24:-0.630877 25:-0.332544 26:0.444858 27:-0.929431 28:-0.657668 29:-0.174524 30:0.35714 31:-0.892635 32:-0.841947 33:-0.174524 34:0.341911 35:-0.890638 36:-0.843604 
1024 1:-0.802119 2:-0.59002 3:-0.643574 4:-0.0825782 5:-0.867018 6:-0.704044 7:-0.624921 8:0.676035 9:-0.97314 10:-0.559346 11:-0.522878 12:0.0121643 13:-0.872589 14:-0.868388 15:-0.520988 16:0.123966 17:-0.886095 18:-0.857503 19:-0.159499 20:-0.281325 21:-0.150593 22:-0.059739 23:-0.568992 24:-0.338564 25:-0.218122 26:0.488505 27:-0.71516 28:-0.0521416 29:0.092992 30:-0.681965 31:-0.428769 32:-0.787667 33:0.0777053 34:-0.417803 35:-0.498441 36:-0.739911 
1024 1:-0.810192 2:-0.668037 3:-0.613871 4:0.156041 5:-0.962099 6:-0.769391 7:-0.650399 8:0.639437 9:-0.990493 10:-0.674078 11:-0.503061 12:0.510944 13:-0.963245 14:-0.865039 15:-0.505733 16:0.505195 17:-0.962098 18:-0.867358 19:-0.215076 20:-0.282302 21:-0.225887 22:0.0230908 23:-0.619503 24:-0.334106 25:-0.249111 26:0.707337 27:-0.811463 28:-0.0223151 29:-0.0293022 30:-0.112288 31:-0.591812 32:-0.699367 33:-0.0216588 34:-0.195535 35:-0.573772 36:-0.717595 
943.3646940970501 1:-0.812262 2:-0.434076 3:-0.602556 4:0.850041 5:-0.957628 6:-0.155058 7:-0.589536 8:-0.633411 9:-0.635276 10:-0.7711 11:-0.545743 12:-0.467752 13:-0.664857 14:-0.818454 15:-0.553025 16:-0.50833 17:-0.648009 18:-0.827588 19:-0.353081 20:-0.204011 21:-0.178828 22:0.778524 23:-0.80824 24:0.220693 25:-0.168062 26:-0.821186 27:-0.25761 28:-0.69896 29:-0.0726148 30:-0.68323 31:-0.300043 32:-0.71512 33:-0.0828059 34:-0.714795 35:-0.285222 36:-0.718875 
1024 1:-0.835652 2:-0.813601 3:-0.741167 4:0.234848 5:-0.996914 6:-0.84419 7:-0.702767 8:0.248381 9:-0.992788 10:-0.883457 11:-0.614339 12:0.523812 13:-0.991364 14:-0.926135 15:-0.61557 16:0.524291 17:-0.9909 18:-0.92718 19:-0.366195 20:-0.534926 21:-0.334121 22:0.535648 23:-0.924937 24:-0.474284 25:-0.377834 26:0.270691 27:-0.869732 28:-0.645708 29:-0.238219 30:0.259388 31:-0.843803 32:-0.814409 33:-0.235671 34:0.22642 35:-0.841082 36:-0.822276 
1024 1:-0.758235 2:-0.452418 3:-0.565783 4:0.0157567 5:-0.81035 6:-0.530048 7:-0.56406 8:0.42761 9:-0.868833 10:-0.428876 11:-0.428368 12:-0.271463 13:-0.755565 14:-0.826935 15:-0.427932 16:-0.0954375 17:-0.785189 18:-0.80754 19:0.0259594 20:-0.146023 21:-0.0211825 22:-0.0392872 23:-0.467473 24:-0.132679 25:-0.0917824 26:0.287693 27:-0.524624 28:0.0976285 29:0.284074 30:-0.916393 31:-0.255876 32:-0.747064 33:0.240762 34:-0.646359 35:-0.31625 36:-0.684659 
-1024 1:-0.549595 2:-0.0927019 3:-0.166925 4:0.483957 5:-0.764041 6:-0.0720085 7:-0.170581 8:0.510928 9:-0.746286 10:-0.148869 11:-0.111302 12:-0.0831255 13:-0.557791 14:-0.527611 15:-0.113675 16:-0.0908151 17:-0.554598 18:-0.536008 19:0.484883 20:0.248915 21:0.442343 22:0.141216 23:-0.293771 24:0.444804 25:0.439799 26:0.0274228 27:-0.25333 28:0.263233 29:0.564327 30:-0.370431 31:0.00666342 32:-0.24978 33:0.589805 34:-0.398254 35:-0.000332883 36:-0.273091 
-1024 1:-0.835031 2:-0.497447 3:-0.670448 4:0.792408 5:-0.969594 6:-0.227144 7:-0.667384 8:-0.683997 9:-0.642727 10:-0.819249 11:-0.623485 12:-0.455457 13:-0.696291 14:-0.849766 15:-0.630825 16:-0.492703 17:-0.68032 18:-0.858242 19:-0.401165 20:-0.255757 21:-0.223534 22:0.872863 23:-0.862044 24:0.184175 25:-0.234808 26:-0.816871 27:-0.286914 28:-0.734944 29:-0.131212 30:-0.636356 31:-0.361063 32:-0.74365 33:-0.136307 34:-0.670109 35:-0.346814 36:-0.747628 
1024 1:-0.844553 2:-0.82547 3:-0.806228 4:-0.011664 5:-0.972416 6:-0.863427 7:-0.784861 8:0.185095 9:-0.987091 10:-0.872646 11:-0.757628 12:0.191292 13:-0.964965 14:-0.940165 15:-0.737611 16:0.358194 17:-0.979425 18:-0.930281 19:-0.549786 20:-0.622245 21:-0.621179 22:0.23294 23:-0.869684 24:-0.592898 25:-0.587607 26:0.180851 27:-0.866693 28:-0.707359 29:-0.492996 30:0.109775 31:-0.841358 32:-0.866605 33:-0.505735 34:0.137008 35:-0.844253 36:-0.859514 
-1024 1:-0.778728 2:-0.487993 3:-0.595484 4:0.219852 5:-0.868436 6:-0.476405 7:-0.605106 8:0.0690168 9:-0.850812 10:-0.645437 11:-0.532024 12:-0.081353 13:-0.805785 14:-0.822407 15:-0.537769 16:-0.0790328 17:-0.802103 18:-0.824393 19:-0.148883 20:-0.200664 21:-0.155299 22:0.338832 23:-0.647976 24:0.0128201 25:-0.139459 26:-0.270134 27:-0.4388 28:-0.417452 29:0.0369405 30:-0.486413 31:-0.40429 32:-0.697966 33:0.0318449 34:-0.501991 35:-0.399541 36:-0.700902 
1024 1:-0.850142 2:-0.69463 3:-0.760968 4:0.128498 5:-0.954519 6:-0.731284 7:-0.770707 8:0.0289113 9:-0.900615 10:-0.74869 11:-0.704275 12:0.154686 13:-0.915115 14:-0.880687 15:-0.72083 16:0.0227529 17:-0.886098 18:-0.890736 19:-0.378059 20:-0.391214 21:-0.369415 22:-0.00317163 23:-0.684469 24:-0.484133 25:-0.399288 26:0.135788 27:-0.67645 28:-0.384925 29:-0.266245 30:-0.0897008 31:-0.645257 32:-0.749238 33:-0.291723 34:-0.034391 35:-0.64882 36:-0.729146 
1024 1:-0.679162 2:-0.309982 3:-0.408785 4:0.191677 5:-0.810516 6:-0.405883 7:-0.38572 8:0.792222 9:-0.897782 10:-0.267411 11:-0.250018 12:0.159743 13:-0.777168 14:-0.698105 15:-0.255548 16:0.0918917 17:-0.764547 18:-0.71368 19:0.210153 20:0.108241 21:0.225873 22:-0.0262385 23:-0.363415 24:0.0761026 25:0.163282 26:0.379494 27:-0.458151 28:0.350073 29:0.380888 30:-0.311586 31:-0.175479 32:-0.393923 33:0.385984 34:-0.466738 35:-0.130797 36:-0.439967 
1024 1:-0.855731 2:-0.770504 3:-0.796328 4:0.127422 5:-0.977234 6:-0.795495 7:-0.796184 8:0.133196 9:-0.962147 10:-0.819254 11:-0.733238 12:0.269152 13:-0.960008 14:-0.913618 15:-0.733035 16:0.257442 17:-0.958133 18:-0.917862 19:-0.593498 20:-0.537209 21:-0.595296 22:0.08949 23:-0.788701 24:-0.577859 25:-0.616212 26:0.0177078 27:-0.725067 28:-0.604365 29:-0.549045 30:0.0440187 31:-0.740143 32:-0.794836 33:-0.543949 34:-0.0508287 35:-0.719922 36:-0.814728 
-665.7197624629371 1:-0.849728 2:-0.709512 3:-0.775112 4:0.382929 5:-0.981961 6:-0.628472 7:-0.74806 8:-0.0245649 9:-0.93393 10:-0.845918 11:-0.687507 12:0.17567 13:-0.93652 14:-0.904239 15:-0.67354 16:0.258886 17:-0.945376 18:-0.89915 19:-0.537297 20:-0.424537 21:-0.458827 22:0.723325 23:-0.892527 24:-0.0647632 25:-0.523246 26:-0.361137 27:-0.530286 28:-0.681083 29:-0.393632 30:-0.495193 31:-0.524799 32:-0.827065 33:-0.391084 34:-0.374101 35:-0.566079 36:-0.80849 
-1024 1:-0.802947 2:-0.584108 3:-0.595484 4:0.500499 5:-0.97446 6:-0.58334 7:-0.602275 8:0.513941 9:-0.964038 10:-0.64194 11:-0.43599 12:0.573303 13:-0.952616 14:-0.827614 15:-0.443186 16:0.567678 17:-0.95049 18:-0.827607 19:-0.283766 20:-0.176293 21:-0.174122 22:0.409811 23:-0.650711 24:0.111958 25:-0.208586 26:0.260605 27:-0.624843 28:-0.139579 29:-0.0293022 30:-0.341037 31:-0.418371 32:-0.64912 33:-0.0165632 34:-0.297427 35:-0.434666 36:-0.641464 
1024 1:-0.835652 2:-0.741314 3:-0.704392 4:0.272382 5:-0.984962 6:-0.761259 7:-0.675876 8:0.336506 9:-0.984743 10:-0.811139 11:-0.551841 12:0.443032 13:-0.975004 14:-0.906045 15:-0.556076 16:0.455819 17:-0.975094 18:-0.906043 19:-0.397418 20:-0.503647 21:-0.362356 22:0.32762 23:-0.84326 24:-0.452645 25:-0.423126 26:0.392417 27:-0.860387 28:-0.505028 29:-0.233123 30:-0.0504308 31:-0.748311 32:-0.826231 33:-0.235671 34:-0.0379865 35:-0.750785 36:-0.823471 
1024 1:-0.818679 2:-0.732314 3:-0.646403 4:0.208224 5:-0.982511 6:-0.803959 7:-0.667384 8:0.380166 9:-0.981595 10:-0.776399 11:-0.542695 12:0.42721 13:-0.97083 14:-0.901412 15:-0.545397 16:0.423847 17:-0.969805 18:-0.90328 19:-0.255041 20:-0.434113 21:-0.287064 22:0.256231 23:-0.803975 24:-0.442937 25:-0.284868 26:0.448246 27:-0.827897 28:-0.378465 29:-0.0802581 30:-0.00502253 31:-0.728022 32:-0.786574 33:-0.0726148 34:-0.0671697 35:-0.715786 36:-0.796878 
-1024 1:-0.827579 2:-0.713541 3:-0.702978 4:0.148329 5:-0.970534 6:-0.783569 7:-0.715506 8:0.39464 9:-0.978512 10:-0.741089 11:-0.596046 12:0.355102 13:-0.960681 14:-0.897672 15:-0.603366 16:0.37013 17:-0.960441 18:-0.896665 19:-0.398042 20:-0.406321 21:-0.385886 22:0.0910771 23:-0.73301 24:-0.470359 25:-0.432662 26:0.398222 27:-0.786594 28:-0.311495 29:-0.278984 30:-0.204893 31:-0.632476 32:-0.785786 33:-0.284079 34:-0.119296 35:-0.656247 36:-0.771518 
1024 1:-0.82613 2:-0.740492 3:-0.663376 4:0.196591 5:-0.98243 6:-0.806805 7:-0.684368 8:0.363498 9:-0.982078 10:-0.783435 11:-0.564034 12:0.410232 13:-0.97097 14:-0.90496 15:-0.568278 16:0.407049 17:-0.969921 18:-0.906756 19:-0.310618 20:-0.454475 21:-0.343533 22:0.240002 23:-0.805907 24:-0.461003 25:-0.346845 26:0.409139 27:-0.826074 28:-0.4088 29:-0.146498 30:-0.0280771 31:-0.732905 32:-0.801408 33:-0.138855 34:-0.102343 35:-0.717745 36:-0.813193 
-1024 1:-0.859043 2:-0.653528 3:-0.751067 4:0.273465 5:-0.955702 6:-0.623118 7:-0.749476 8:-0.331029 9:-0.814465 10:-0.827972 11:-0.762201 12:0.322067 13:-0.90005 14:-0.794917 15:-0.754392 16:-0.417584 17:-0.761885 18:-0.914051 19:-0.54479 20:-0.483803 21:-0.522355 22:0.190897 23:-0.790856 24:-0.469265 25:-0.544698 26:-0.441436 27:-0.523331 28:-0.744846 29:-0.521019 30:0.0355444 31:-0.672193 32:-0.731178 33:-0.480257 34:-0.296596 35:-0.60376 36:-0.814619 
-1024 1:-0.827786 2:-0.468447 3:-0.681763 4:0.0649242 5:-0.800819 6:-0.445481 7:-0.681538 8:0.0577109 9:-0.771827 10:-0.496799 11:-0.594522 12:-0.301249 13:-0.707966 14:-0.804025 15:-0.594212 16:-0.42336 17:-0.676575 18:-0.827378 19:-0.347461 20:-0.207184 21:-0.223534 22:-0.0466796 23:-0.497561 24:-0.202798 25:-0.289636 26:-0.106845 27:-0.432636 28:-0.2445 29:-0.151594 30:-0.499237 31:-0.307066 32:-0.644921 33:-0.138855 34:-0.628729 35:-0.277426 36:-0.681828 
1024 1:-0.824681 2:-0.654816 3:-0.729851 4:0.0571401 5:-0.912998 6:-0.684602 7:-0.718337 8:0.170221 9:-0.931944 10:-0.735915 11:-0.644826 12:0.0645663 13:-0.897861 14:-0.885166 15:-0.650657 16:0.0556647 17:-0.893488 18:-0.887789 19:-0.334347 20:-0.391163 21:-0.376474 22:0.221596 23:-0.728014 24:-0.304922 25:-0.401672 26:-0.0561688 27:-0.638445 28:-0.523578 29:-0.263697 30:-0.271624 31:-0.5935 32:-0.779398 33:-0.266245 34:-0.297935 35:-0.586599 36:-0.783732 
-1024 1:-0.909548 2:-0.851166 3:-0.865633 4:-0.0568482 5:-0.975221 6:-0.886086 7:-0.862707 8:0.0192099 9:-0.976958 10:-0.9054 11:-0.824699 12:0.140332 13:-0.966193 14:-0.9526 15:-0.829142 16:0.169643 17:-0.96784 18:-0.952166 19:-0.71901 20:-0.725282 21:-0.738824 22:0.141972 23:-0.898311 24:-0.743111 25:-0.771157 26:0.176822 27:-0.90783 28:-0.789401 29:-0.696817 30:0.0988678 31:-0.870318 32:-0.904095 33:-0.694269 34:0.0850908 35:-0.870922 36:-0.907903 
-1024 1:-0.846002 2:-0.744333 3:-0.785013 4:0.0899306 5:-0.956679 6:-0.758537 7:-0.766461 8:0.0712779 9:-0.947711 10:-0.822999 11:-0.71647 12:0.114892 13:-0.934221 14:-0.917053 15:-0.710152 16:0.156921 17:-0.938934 18:-0.916803 19:-0.582258 20:-0.555479 21:-0.581179 22:0.405928 23:-0.88657 24:-0.441682 25:-0.597142 26:0.0624057 27:-0.768694 28:-0.632782 29:-0.482805 30:-0.117162 31:-0.736152 32:-0.85093 33:-0.50828 34:-0.131736 35:-0.72464 36:-0.847521 
-1024 1:-0.846623 2:-0.827018 3:-0.756725 4:0.113794 5:-0.990346 6:-0.866469 7:-0.736737 8:0.193497 9:-0.988502 10:-0.882712 11:-0.678362 12:0.399449 13:-0.98366 14:-0.929619 15:-0.687269 16:0.373881 17:-0.981309 18:-0.933044 19:-0.58538 20:-0.66472 21:-0.529414 22:0.417406 23:-0.953005 24:-0.660809 25:-0.556617 26:0.343899 27:-0.926207 28:-0.70962 29:-0.50828 30:0.387678 31:-0.897553 32:-0.832138 33:-0.513376 34:0.242882 35:-0.874839 36:-0.85574 
1024 1:-0.832547 2:-0.457807 3:-0.619529 4:-0.146396 5:-0.793083 6:-0.622951 7:-0.623506 8:-0.0884737 9:-0.790779 10:-0.643956 11:-0.605192 12:-0.228445 13:-0.706307 14:-0.77631 15:-0.607942 16:-0.262833 17:-0.696038 18:-0.788152 19:-0.551659 20:-0.386582 21:-0.440004 22:-0.0928933 23:-0.65788 24:-0.539896 25:-0.466035 26:-0.146649 27:-0.634039 28:-0.610407 29:-0.411467 30:-0.136188 31:-0.578379 32:-0.718955 33:-0.416562 34:-0.169875 35:-0.574579 36:-0.730966 
-1024 1:-0.589333 2:-0.262924 3:-0.282905 4:-0.0511743 5:-0.725994 6:-0.451403 7:-0.227198 8:-0.116177 9:-0.717011 10:-0.550529 11:-0.161606 12:-0.170569 13:-0.674421 14:-0.697981 15:-0.168594 16:-0.167447 17:-0.673057 18:-0.703149 19:0.145841 20:-0.212314 21:0.00705298 22:0.240391 23:-0.690481 24:-0.223921 25:0.0583949 26:-0.0559384 27:-0.605492 28:-0.446322 29:0.243309 30:-0.150213 31:-0.553644 32:-0.670743 33:0.220379 34:-0.178759 35:-0.542652 36:-0.673272 
-1024 1:-0.762582 2:-0.567395 3:-0.512036 4:0.559402 5:-0.98086 6:-0.601838 7:-0.507444 8:0.655576 9:-0.979315 10:-0.645659 11:-0.260689 12:0.710307 13:-0.966004 14:-0.828324 15:-0.264702 16:0.726265 17:-0.966647 18:-0.827419 19:0.0702909 20:-0.147635 21:0.0776393 22:0.421635 23:-0.683365 24:0.0160728 25:0.044092 26:0.626184 27:-0.749454 28:-0.00343194 29:0.278979 30:-0.0609511 31:-0.532672 32:-0.609974 33:0.28917 34:-0.0528361 35:-0.538284 36:-0.611509 
-1024 1:-0.843104 2:-0.803164 3:-0.736923 4:0.0970639 5:-0.984755 6:-0.85615 7:-0.728245 8:0.160425 9:-0.980759 10:-0.871264 11:-0.690556 12:0.33073 13:-0.971991 14:-0.920931 15:-0.699473 16:0.250299 17:-0.963933 18:-0.929823 19:-0.57414 20:-0.644435 21:-0.541178 22:0.297789 23:-0.917728 24:-0.661035 25:-0.547082 26:0.264723 27:-0.897463 28:-0.704838 29:-0.526115 30:0.308477 31:-0.859763 32:-0.813395 33:-0.523567 34:0.136758 35:-0.828413 36:-0.843627 
-1024 1:-0.724495 2:-0.41189 3:-0.516279 4:-0.0508824 5:-0.774588 6:-0.522702 7:-0.486213 8:-0.108906 9:-0.761992 10:-0.614176 11:-0.416173 12:-0.127716 13:-0.751368 14:-0.774733 15:-0.418779 16:-0.129665 17:-0.749481 18:-0.780553 19:-0.107044 20:-0.292273 21:-0.176475 22:0.277423 23:-0.734765 24:-0.267084 25:-0.144226 26:-0.018663 27:-0.6447 28:-0.483167 29:0.00636694 30:-0.173219 31:-0.588575 32:-0.720716 33:-0.0165632 34:-0.197341 35:-0.579536 36:-0.723181 
1024 1:-0.808329 2:-0.718603 3:-0.635087 4:0.308998 5:-0.984808 6:-0.756944 7:-0.606521 8:0.33962 9:-0.982319 10:-0.812586 11:-0.486293 12:0.499353 13:-0.97489 14:-0.895048 15:-0.493529 16:0.505656 17:-0.974229 18:-0.89457 19:-0.175735 20:-0.41908 21:-0.18824 22:0.458038 23:-0.847615 24:-0.33896 25:-0.263414 26:0.287598 27:-0.80112 28:-0.482619 29:-0.0216588 30:-0.0134565 31:-0.729158 32:-0.789334 33:-0.0165632 34:0.0409855 35:-0.741844 36:-0.781231 
-1024 1:-0.868978 2:-0.690065 3:-0.794914 4:0.247783 5:-0.963404 6:-0.651149 7:-0.793353 8:-0.321964 9:-0.82533 10:-0.841064 11:-0.780494 12:0.201319 13:-0.90473 14:-0.848936 15:-0.778801 16:-0.284774 17:-0.816051 18:-0.919991 19:-0.593498 20:-0.525085 21:-0.585885 22:0.222704 23:-0.824476 24:-0.50119 25:-0.606677 26:-0.393226 27:-0.556323 28:-0.755515 29:-0.582166 30:0.0224463 31:-0.699203 32:-0.767084 33:-0.559236 34:-0.255998 35:-0.637386 36:-0.831746 
-1024 1:-0.736708 2:-0.280893 3:-0.444145 4:0.786631 5:-0.896371 6:-0.0614542 7:-0.406951 8:-0.514787 9:-0.607819 10:-0.651869 11:-0.394832 12:-0.398815 13:-0.581911 14:-0.703181 15:-0.405049 16:-0.454938 17:-0.563477 18:-0.718685 19:-0.148258 20:-0.0874333 21:-0.0094177 22:0.650508 23:-0.71399 24:0.274704 25:0.0226402 26:-0.815393 27:-0.218599 28:-0.623677 29:0.11592 30:-0.563422 31:-0.247798 32:-0.604911 33:0.0980851 34:-0.607147 35:-0.232508 36:-0.615201 
1024 1:-0.831305 2:-0.629144 3:-0.693077 4:0.485946 5:-0.980528 6:-0.581097 7:-0.682953 8:0.0802008 9:-0.9147 10:-0.756912 11:-0.591473 12:0.309824 13:-0.928207 14:-0.855288 15:-0.60184 16:0.277059 17:-0.921303 18:-0.858817 19:-0.271277 20:-0.251971 21:-0.249417 22:0.547621 23:-0.775877 24:-0.00364927 25:-0.234808 26:-0.213289 27:-0.483814 28:-0.434268 29:-0.143951 30:-0.206536 31:-0.506606 32:-0.669985 33:-0.136307 34:-0.278393 35:-0.4851 36:-0.683465 
1024 1:-0.877672 2:-0.675823 3:-0.763797 4:0.341521 5:-0.973691 6:-0.63004 7:-0.742399 8:0.0544003 9:-0.932928 10:-0.802909 11:-0.689031 12:0.159387 13:-0.920669 14:-0.886957 15:-0.69032 16:0.260082 17:-0.931936 18:-0.877615 19:-0.599118 20:-0.459541 21:-0.510592 22:0.498904 23:-0.857641 24:-0.247944 25:-0.511327 26:-0.182464 27:-0.647274 28:-0.666818 29:-0.459875 30:-0.250309 31:-0.596185 32:-0.788978 33:-0.477709 34:-0.0676212 35:-0.643729 36:-0.749501 
925.2770589880586 1:-0.797979 2:-0.423487 3:-0.586998 4:0.0478721 5:-0.815654 6:-0.510571 7:-0.58529 8:0.0105781 9:-0.779305 10:-0.557411 11:-0.560986 12:-0.0701184 13:-0.721861 14:-0.726244 15:-0.560651 16:-0.193122 17:-0.69149 18:-0.752009 19:-0.320609 20:-0.211437 21:-0.183534 22:-0.177502 23:-0.522362 24:-0.396967 25:-0.184748 26:-0.257239 27:-0.449687 28:-0.424838 29:-0.151594 30:-0.103322 31:-0.448124 32:-0.564552 33:-0.151594 34:-0.217358 35:-0.418842 36:-0.597007 
1024 1:-0.684751 2:-0.339758 3:-0.415857 4:0.124035 5:-0.820437 6:-0.481994 7:-0.415444 8:0.34115 9:-0.84011 10:-0.458258 11:-0.399405 12:-0.0596658 13:-0.700811 14:-0.691767 15:-0.398947 16:-0.0904477 17:-0.692509 18:-0.702526 19:0.0684176 20:-0.121243 21:0.042345 22:-0.0156025 23:-0.558789 24:-0.264183 25:0.0655463 26:-0.00506539 27:-0.556597 28:-0.314374 29:0.11592 30:-0.053371 31:-0.444861 32:-0.523371 33:0.113372 34:-0.0751991 35:-0.440812 36:-0.530933 
1024 1:-0.722218 2:-0.401009 3:-0.483747 4:0.205238 5:-0.849633 6:-0.469529 7:-0.489044 8:0.273322 9:-0.843968 10:-0.504806 11:-0.414649 12:0.106802 13:-0.785949 14:-0.729454 15:-0.400473 16:0.0580913 17:-0.784091 18:-0.751776 19:0.131481 20:-0.0440445 21:0.0988159 22:0.0511215 23:-0.476786 24:-0.0316236 25:0.0726977 26:-0.0481226 27:-0.43275 28:-0.151937 29:0.143945 30:0.143535 31:-0.39933 32:-0.363192 33:0.210188 34:-0.27716 35:-0.305646 36:-0.504041 
1024 1:-0.818472 2:-0.79188 3:-0.686006 4:0.120161 5:-0.985024 6:-0.854017 7:-0.690029 8:0.268434 9:-0.987253 10:-0.852064 11:-0.5869 12:0.37446 13:-0.97898 14:-0.928894 15:-0.58811 16:0.397702 17:-0.979562 18:-0.928036 19:-0.355579 20:-0.556364 21:-0.378827 22:0.373871 23:-0.898523 24:-0.551602 25:-0.365915 26:0.38754 27:-0.894905 28:-0.606178 29:-0.200002 30:0.0843923 31:-0.824643 32:-0.852613 33:-0.189811 34:0.129728 35:-0.835302 36:-0.848128 
-1024 1:-0.801291 2:-0.474372 3:-0.635087 4:0.0293302 5:-0.840467 6:-0.568432 7:-0.633414 8:0.251015 9:-0.846287 10:-0.498618 11:-0.579278 12:-0.0820655 13:-0.780751 14:-0.797275 15:-0.580483 16:-0.0414815 17:-0.785557 18:-0.794838 19:-0.303125 20:-0.169117 21:-0.167063 22:-0.124162 23:-0.511209 24:-0.317411 25:-0.251495 26:0.196247 27:-0.559193 28:-0.0870388 29:-0.100641 30:-0.257672 31:-0.411127 32:-0.607401 33:-0.113377 34:-0.195189 35:-0.429684 36:-0.592955 
-1024 1:-0.790941 2:-0.567591 3:-0.612457 4:0.339027 5:-0.939038 6:-0.567163 7:-0.612183 8:0.169382 9:-0.910767 10:-0.704436 11:-0.518305 12:0.205898 13:-0.894744 14:-0.839159 15:-0.514886 16:0.206323 17:-0.895146 18:-0.844524 19:-0.200089 20:-0.22738 21:-0.183534 22:0.40849 23:-0.717501 24:-0.0548294 25:-0.163294 26:-0.145857 27:-0.541649 28:-0.444947 29:-0.0420412 30:-0.108309 31:-0.533003 32:-0.642856 33:-0.0420412 34:-0.228717 35:-0.504957 36:-0.67246 
-1024 1:-0.700897 2:-0.271843 3:-0.418686 4:0.090563 5:-0.759343 6:-0.385488 7:-0.404121 8:0.21313 9:-0.748415 10:-0.364578 11:-0.365869 12:-0.190771 13:-0.625616 14:-0.66062 15:-0.391319 16:-0.124299 17:-0.620467 18:-0.6361 19:-0.0414759 20:-0.0157087 21:0.127051 22:-0.315285 23:-0.334864 24:-0.241359 25:0.0583949 26:-0.0375086 27:-0.374012 28:-0.0408296 29:0.194901 30:-0.343687 31:-0.242697 32:-0.483151 33:0.0980851 34:-0.0851391 35:-0.274879 36:-0.371539 
690.7693750794288 1:-0.866081 2:-0.777981 3:-0.824615 4:0.192054 5:-0.984727 6:-0.770096 7:-0.80326 8:-0.0498712 9:-0.94172 10:-0.869376 11:-0.750006 12:0.254077 13:-0.959779 14:-0.916629 15:-0.766596 16:0.087201 17:-0.939056 18:-0.934847 19:-0.622848 20:-0.617179 21:-0.665885 22:0.277934 23:-0.891224 24:-0.590695 25:-0.680575 26:-0.2099 27:-0.69168 28:-0.773676 29:-0.645861 30:0.090458 31:-0.792818 32:-0.830749 33:-0.633122 34:-0.161298 35:-0.738908 36:-0.878847 
-1024 1:-0.868151 2:-0.81749 3:-0.823201 4:0.0227867 5:-0.978931 6:-0.85976 7:-0.825906 8:0.112162 9:-0.972675 10:-0.853917 11:-0.814028 12:0.216889 13:-0.959965 14:-0.924678 15:-0.816937 16:0.18216 17:-0.9553 18:-0.931577 19:-0.665934 20:-0.673151 21:-0.705883 22:0.0454067 23:-0.857752 24:-0.753647 25:-0.730632 26:0.152363 27:-0.854595 28:-0.705197 29:-0.689174 30:0.0981912 31:-0.819315 32:-0.855328 33:-0.689174 34:-0.0589791 35:-0.778088 36:-0.877364 
-1024 1:-0.819093 2:-0.658113 3:-0.649232 4:0.400704 5:-0.980029 6:-0.666531 7:-0.650399 8:0.432024 9:-0.974546 10:-0.7215 11:-0.510683 12:0.535585 13:-0.965186 14:-0.861851 15:-0.514886 16:0.554409 17:-0.965419 18:-0.859849 19:-0.380557 20:-0.286146 21:-0.343533 22:0.34616 23:-0.684477 24:-0.0374565 25:-0.384986 26:0.218666 27:-0.65577 28:-0.246298 29:-0.174524 30:-0.355891 31:-0.500269 32:-0.733236 33:-0.164333 34:-0.274886 35:-0.530243 36:-0.721695 
1024 1:-0.848693 2:-0.695008 3:-0.770869 4:0.343473 5:-0.970116 6:-0.60791 7:-0.743814 8:-0.0241994 9:-0.927562 10:-0.834011 11:-0.69208 12:0.115274 13:-0.921376 14:-0.900458 15:-0.679642 16:0.210244 17:-0.932865 18:-0.894123 19:-0.538545 20:-0.412517 21:-0.465886 22:0.708333 23:-0.880984 24:-0.03837 25:-0.520862 26:-0.403329 27:-0.499492 28:-0.682662 29:-0.39618 30:-0.526037 31:-0.500074 32:-0.822723 33:-0.391084 34:-0.406968 35:-0.543031 36:-0.804805 
-1024 1:-0.71932 2:-0.233648 3:-0.401713 4:0.497464 5:-0.812582 6:-0.124553 7:-0.387136 8:-0.207267 9:-0.632583 10:-0.484181 11:-0.315566 12:-0.399232 13:-0.575024 14:-0.690494 15:-0.324196 16:-0.355323 17:-0.578116 18:-0.685932 19:-0.120782 20:-0.0499932 21:-0.00706475 22:0.281497 23:-0.548397 24:0.142131 25:0.0178726 26:-0.417455 27:-0.27378 28:-0.325113 29:0.149041 30:-0.488144 31:-0.250518 32:-0.567801 33:0.143945 34:-0.545323 35:-0.227944 36:-0.578113 
-1024 1:-0.85304 2:-0.662333 3:-0.78077 4:-0.0325229 5:-0.880121 6:-0.673266 7:-0.757968 8:0.31229 9:-0.940168 10:-0.649058 11:-0.698177 12:-0.0334431 13:-0.868779 14:-0.882121 15:-0.708626 16:-0.118464 17:-0.848382 18:-0.893241 19:-0.494833 20:-0.400964 21:-0.470592 22:0.113718 23:-0.65855 24:-0.294577 25:-0.497024 26:0.00136819 27:-0.590652 28:-0.390474 29:-0.309555 30:-0.583963 31:-0.451598 32:-0.802929 33:-0.312103 34:-0.670423 35:-0.42906 36:-0.820326 
-724.0794067186615 1:-0.828821 2:-0.711378 3:-0.727022 4:0.0754448 5:-0.950841 6:-0.766609 7:-0.723998 8:0.0883857 9:-0.93867 10:-0.79895 11:-0.690556 12:0.183125 13:-0.926394 14:-0.887885 15:-0.691845 16:0.121309 17:-0.915753 18:-0.896488 19:-0.363072 20:-0.463768 21:-0.371768 22:0.186466 23:-0.803228 24:-0.511189 25:-0.380218 26:0.0709913 27:-0.746476 28:-0.579923 29:-0.312103 30:0.109517 31:-0.735106 32:-0.753846 33:-0.301914 34:0.0742962 35:-0.728567 36:-0.761 
-776.2168081652 1:-0.732154 2:-0.380047 3:-0.456875 4:0.890111 5:-0.942885 6:-0.137757 7:-0.455075 8:-0.612715 9:-0.642699 10:-0.749118 11:-0.37654 12:-0.697205 13:-0.625776 14:-0.841378 15:-0.374539 16:-0.490354 17:-0.664584 18:-0.817613 19:0.160203 20:-0.132128 21:0.190581 22:0.992112 23:-0.823836 24:0.380322 25:0.196656 26:-0.619115 27:-0.359985 28:-0.591634 29:0.408914 30:-0.935243 31:-0.27961 32:-0.760226 33:0.40127 34:-0.79783 35:-0.311052 36:-0.730734 
-1024 1:-0.862355 2:-0.853258 3:-0.831687 4:0.0213758 5:-0.988287 6:-0.890735 7:-0.830153 8:0.145579 9:-0.9872 10:-0.88267 11:-0.792689 12:0.27308 13:-0.978825 14:-0.943146 15:-0.797107 16:0.272428 17:-0.977974 18:-0.945269 19:-0.662812 20:-0.714645 21:-0.731765 22:0.0993856 23:-0.896763 24:-0.779583 25:-0.754471 26:0.186953 27:-0.888139 28:-0.740059 29:-0.707006 30:0.132692 31:-0.857941 32:-0.880819 33:-0.714649 34:0.00674761 35:-0.82582 36:-0.895176 
1024 1:-0.732775 2:-0.422537 3:-0.517693 4:0.0419854 5:-0.821611 6:-0.537064 7:-0.523013 8:0.412899 9:-0.864757 10:-0.441361 11:-0.419222 12:-0.0659044 13:-0.778268 14:-0.783079 15:-0.418779 16:-0.0458305 17:-0.780457 18:-0.785209 19:0.122115 20:-0.0655795 21:0.0705804 22:0.00391727 23:-0.450995 24:-0.045533 25:0.0583949 26:0.233573 27:-0.535652 28:-0.00211695 29:0.220379 30:-0.298319 31:-0.345599 32:-0.550391 33:0.256048 34:-0.362226 35:-0.340285 36:-0.575319 
1024 1:-0.853661 2:-0.759641 3:-0.785013 4:0.156928 5:-0.978375 6:-0.783539 7:-0.783446 8:0.145328 9:-0.961218 10:-0.812496 11:-0.719519 12:0.27997 13:-0.958579 14:-0.908849 15:-0.72083 16:0.259834 17:-0.955878 18:-0.914002 19:-0.577262 20:-0.52158 21:-0.571767 22:0.101915 23:-0.784524 24:-0.55626 25:-0.587607 26:-0.00077821 27:-0.711103 28:-0.598199 29:-0.526115 30:0.0262968 31:-0.722851 32:-0.784813 33:-0.518472 34:-0.0810035 35:-0.700647 36:-0.808557 
-1024 1:-0.865874 2:-0.769572 3:-0.799156 4:-0.006282 5:-0.960476 6:-0.829901 7:-0.794769 8:0.123475 9:-0.958189 10:-0.814606 11:-0.797262 12:0.18746 13:-0.936392 14:-0.898604 15:-0.797107 16:0.110133 17:-0.926034 18:-0.913266 19:-0.654694 20:-0.627696 21:-0.656473 22:0.0102286 23:-0.828712 24:-0.733122 25:-0.69011 26:0.143283 27:-0.829702 28:-0.66634 29:-0.653505 30:0.106182 31:-0.790133 32:-0.82177 33:-0.638218 34:-0.100085 35:-0.740799 36:-0.858552 
1024 1:-0.740848 2:-0.462809 3:-0.51345 4:0.0509858 5:-0.854935 6:-0.598044 7:-0.514521 8:-0.000626225 9:-0.823829 10:-0.647376 11:-0.51678 12:0.106246 13:-0.792082 14:-0.737748 15:-0.514886 16:-0.00370813 17:-0.769601 18:-0.760096 19:-0.138891 20:-0.284269 21:-0.145889 22:0.0997798 23:-0.695831 24:-0.390939 25:-0.144226 26:-0.0268946 27:-0.637417 28:-0.478977 29:-0.0929971 30:0.133143 31:-0.619784 32:-0.615562 33:-0.0879015 34:0.106253 35:-0.613589 36:-0.621791 
1024 1:-0.683509 2:-0.269403 3:-0.394641 4:0.394787 5:-0.823927 6:-0.257589 7:-0.36732 8:-0.112798 9:-0.709482 10:-0.535553 11:-0.349101 12:-0.278632 13:-0.626527 14:-0.696479 15:-0.360809 16:0.0188653 17:-0.677635 18:-0.637857 19:0.0272083 20:-0.097961 21:0.0305825 22:0.43266 23:-0.668528 24:0.0730155 25:0.0774653 26:-0.345843 27:-0.440514 28:-0.470345 29:0.149041 30:-0.259315 31:-0.383087 32:-0.568364 33:0.123563 34:-0.105285 35:-0.418713 36:-0.524538 
1024 1:-0.808122 2:-0.553471 3:-0.654889 4:0.0746056 5:-0.888969 6:-0.63183 7:-0.636245 8:0.436783 9:-0.931972 10:-0.575366 11:-0.565559 12:0.185644 13:-0.878576 14:-0.82255 15:-0.566753 16:0.222779 17:-0.882188 18:-0.820278 19:-0.263159 20:-0.181703 21:-0.192946 22:0.0628014 23:-0.581186 24:-0.214167 25:-0.194284 26:0.278501 27:-0.624199 28:-0.116601 29:-0.0955449 30:-0.148666 31:-0.464918 32:-0.601062 33:-0.103188 34:-0.130929 35:-0.469125 36:-0.596168 
-1024 1:-0.695929 2:-0.581016 3:-0.444145 4:-0.0724224 5:-0.902684 6:-0.775758 7:-0.432429 8:0.036514 9:-0.905637 10:-0.779091 11:-0.408551 12:0.0824999 13:-0.877187 14:-0.852916 15:-0.401998 16:0.024812 17:-0.871297 18:-0.866757 19:0.0072284 20:-0.468686 21:-0.108242 22:0.194401 23:-0.843321 24:-0.602079 25:-0.09655 26:0.170259 27:-0.825352 28:-0.641589 29:-0.0140154 30:0.303144 31:-0.798663 32:-0.744255 33:-0.0140154 34:0.14016 35:-0.772193 36:-0.775992 
-1024 1:-0.852419 2:-0.665839 3:-0.782184 4:-0.0357886 5:-0.880601 6:-0.676667 7:-0.759384 8:0.311092 9:-0.941105 10:-0.652212 11:-0.699702 12:-0.0352938 13:-0.869597 14:-0.883627 15:-0.710152 16:-0.118472 17:-0.849401 18:-0.894326 19:-0.49296 20:-0.404349 21:-0.472945 22:0.128231 23:-0.665815 24:-0.289597 25:-0.497024 26:0.0166065 27:-0.600501 28:-0.389119 29:-0.304459 30:-0.609539 31:-0.449769 32:-0.810796 33:-0.307007 34:-0.68728 35:-0.429738 36:-0.826182 
1024 1:-0.826544 2:-0.739001 3:-0.599727 4:0.128638 5:-0.982239 6:-0.851556 7:-0.709844 8:0.578446 9:-0.99708 10:-0.743456 11:-0.518305 12:0.570844 13:-0.983413 14:-0.897136 15:-0.520988 16:0.567396 17:-0.982757 18:-0.898782 19:-0.25067 20:-0.38864 21:-0.247064 22:-0.0741298 23:-0.673606 24:-0.534364 25:-0.249111 26:0.975058 27:-0.932268 28:-0.129627 29:-0.0853537 30:0.0139076 31:-0.697766 32:-0.749959 33:-0.0879015 34:-0.0412031 35:-0.686302 36:-0.76018 
1024 1:-0.807294 2:-0.598967 3:-0.669033 4:-0.0204636 5:-0.886422 6:-0.69513 7:-0.658891 8:0.399474 9:-0.939532 10:-0.618452 11:-0.591473 12:0.0280039 13:-0.869853 14:-0.861765 15:-0.589636 16:0.153896 17:-0.887192 18:-0.849671 19:-0.347461 20:-0.356593 21:-0.312947 22:0.0593342 23:-0.675269 24:-0.396184 25:-0.29202 26:0.294689 27:-0.751219 28:-0.363527 29:-0.194906 30:-0.234037 31:-0.575591 32:-0.744893 33:-0.20255 34:-0.173438 35:-0.58455 36:-0.726742 
-1024 1:-0.815988 2:-0.682249 3:-0.714293 4:0.0488087 5:-0.929943 6:-0.734314 7:-0.697106 8:0.187702 9:-0.94384 10:-0.759039 11:-0.66007 12:-0.00237204 13:-0.893612 14:-0.89917 15:-0.656759 16:0.224291 17:-0.923256 18:-0.876575 19:-0.40616 20:-0.450572 21:-0.463533 22:0.185113 23:-0.751449 24:-0.394959 25:-0.382602 26:0.106311 27:-0.74396 28:-0.541868 29:-0.273888 30:-0.201171 31:-0.661414 32:-0.807871 33:-0.304459 34:-0.106365 35:-0.675287 36:-0.784159 
-1024 1:-0.752646 2:-0.198274 3:-0.45829 4:0.168215 5:-0.693079 6:-0.172877 7:-0.469228 8:0.329174 9:-0.722941 10:-0.203503 11:-0.42532 12:-0.227698 13:-0.533484 14:-0.581349 15:-0.423356 16:-0.346941 17:-0.499738 18:-0.612766 19:-0.196342 20:0.0885277 21:-5.88239e-06 22:-0.0543491 23:-0.249828 24:0.231304 25:-0.0226521 26:-0.139356 27:-0.270222 28:-0.00228132 29:0.0649663 30:-0.386784 31:-0.0758224 32:-0.367939 33:0.0624185 34:-0.456604 35:-0.0401212 36:-0.379675 
-1024 1:-0.922381 2:-0.642742 3:-0.826029 4:-0.184185 5:-0.83523 6:-0.711244 7:-0.834399 8:-0.0347538 9:-0.865567 10:-0.718692 11:-0.795737 12:-0.198599 13:-0.797883 14:-0.873678 15:-0.801682 16:-0.207955 17:-0.790446 18:-0.878482 19:-0.791443 20:-0.533523 21:-0.670591 22:-0.168203 23:-0.640698 24:-0.624657 25:-0.7211 26:-0.0668277 27:-0.693514 28:-0.652696 29:-0.681531 30:-0.173775 31:-0.606907 32:-0.78915 33:-0.686626 34:-0.204387 35:-0.601483 36:-0.798649 
1024 1:-0.75306 2:-0.341606 3:-0.489405 4:0.365737 5:-0.845859 6:-0.315672 7:-0.470643 8:-0.152999 9:-0.727741 10:-0.589853 11:-0.458854 12:-0.292812 13:-0.647932 14:-0.73105 15:-0.473697 16:0.00985988 17:-0.701249 18:-0.672788 19:-0.217573 20:-0.161071 21:-0.127065 22:0.407611 23:-0.686303 24:0.0139797 25:-0.0893986 26:-0.342865 27:-0.456184 28:-0.505272 29:-0.0420412 30:-0.2658 31:-0.406558 32:-0.603518 33:-0.0675192 34:-0.102012 35:-0.443941 36:-0.55538 
1024 1:-0.825302 2:-0.75465 3:-0.673276 4:0.239476 5:-0.988332 6:-0.806489 7:-0.677291 8:0.38655 9:-0.990953 10:-0.815342 11:-0.548792 12:0.588187 13:-0.985721 14:-0.897485 15:-0.548448 16:0.559715 17:-0.983971 18:-0.902405 19:-0.258163 20:-0.433491 21:-0.261182 22:0.384145 23:-0.843469 24:-0.402072 25:-0.280101 26:0.376752 27:-0.832933 28:-0.466624 29:-0.110829 30:0.351404 31:-0.804198 32:-0.730705 33:-0.0904493 34:0.140104 35:-0.767957 36:-0.772229 
1024 1:-0.837101 2:-0.75517 3:-0.751067 4:0.0826938 5:-0.96717 6:-0.803113 7:-0.753722 8:0.105582 9:-0.956107 10:-0.826341 11:-0.701226 12:0.230383 13:-0.950345 14:-0.90954 15:-0.7071 16:0.198915 17:-0.944638 18:-0.913649 19:-0.396794 20:-0.509106 21:-0.416474 22:0.219449 23:-0.83563 24:-0.546045 25:-0.427894 26:0.135984 27:-0.794651 28:-0.60852 29:-0.352867 30:0.147498 31:-0.781301 32:-0.787689 33:-0.335033 34:0.0637919 35:-0.764596 36:-0.80221 
-1024 1:-0.855731 2:-0.655349 3:-0.775112 4:0.486925 5:-0.976996 6:-0.501829 7:-0.783446 8:-0.375055 9:-0.818971 10:-0.859703 11:-0.734762 12:-0.134224 13:-0.854508 14:-0.899527 15:-0.743713 16:-0.143541 17:-0.846974 18:-0.901924 19:-0.526681 20:-0.391232 21:-0.418827 22:0.801697 23:-0.903135 24:-0.00933149 25:-0.446965 26:-0.640871 27:-0.42028 28:-0.773238 29:-0.347772 30:-0.523459 31:-0.490083 32:-0.809565 33:-0.355415 34:-0.561365 35:-0.476796 36:-0.815136 
1024 1:-0.859664 2:-0.891486 3:-0.827444 4:0.0943882 5:-0.99772 6:-0.901426 7:-0.721168 8:0.0772423 9:-0.995627 10:-0.952886 11:-0.696653 12:0.361027 13:-0.994348 14:-0.963473 15:-0.699473 16:0.373881 17:-0.994345 18:-0.963691 19:-0.52231 20:-0.725323 21:-0.498828 22:0.58853 23:-0.990445 24:-0.695093 25:-0.485105 26:0.11016 27:-0.927437 28:-0.875474 29:-0.352867 30:0.175507 31:-0.919532 32:-0.925384 33:-0.357963 34:0.176042 35:-0.920218 36:-0.925258 
-1024 1:-0.843518 2:-0.862674 3:-0.826029 4:0.0739063 5:-0.993603 6:-0.887466 7:-0.753722 8:0.115317 9:-0.991228 10:-0.921639 11:-0.682934 12:0.360454 13:-0.990447 14:-0.953862 15:-0.685743 16:0.347582 17:-0.9893 18:-0.956228 19:-0.576638 20:-0.710346 21:-0.658826 22:0.387367 23:-0.961562 24:-0.695896 25:-0.687726 26:0.0267429 27:-0.854164 28:-0.809754 29:-0.600001 30:0.160185 31:-0.887662 32:-0.899138 33:-0.61274 34:0.0379946 35:-0.865361 36:-0.91425 
1024 1:-0.807087 2:-0.694059 3:-0.644988 4:0.182239 5:-0.968119 6:-0.766908 7:-0.650399 8:0.409263 9:-0.976936 10:-0.74474 11:-0.535073 12:0.356726 13:-0.95587 14:-0.890843 15:-0.531667 16:0.419814 17:-0.96045 18:-0.886396 19:-0.331225 20:-0.437164 21:-0.329417 22:0.252774 23:-0.802998 24:-0.44119 25:-0.318241 26:0.371448 27:-0.822864 28:-0.443991 29:-0.174524 30:-0.129752 31:-0.688359 32:-0.799335 33:-0.192359 34:-0.0344797 35:-0.704802 36:-0.778246 
-1024 1:-0.685786 2:-0.344023 3:-0.415857 4:0.127173 5:-0.809791 6:-0.457185 7:-0.421106 8:0.519337 9:-0.860232 10:-0.370343 11:-0.355198 12:-0.0705094 13:-0.732458 14:-0.73105 15:-0.353181 16:-0.0401999 17:-0.736631 18:-0.731483 19:0.25386 20:0.0161015 21:0.192934 22:0.0126998 23:-0.404188 24:0.0534088 25:0.18712 26:0.244793 27:-0.494666 28:0.0907148 29:0.329932 30:-0.316694 31:-0.263277 32:-0.479951 33:0.365601 34:-0.377801 35:-0.258373 36:-0.505831 
-1024 1:-0.675229 2:-0.281051 3:-0.370596 4:0.51797 5:-0.85815 6:-0.239185 7:-0.371566 8:-0.00191929 9:-0.74159 10:-0.512977 11:-0.300323 12:-0.0420971 13:-0.69644 14:-0.677023 15:-0.299789 16:-0.0799897 17:-0.689516 18:-0.691631 19:0.0777834 20:0.00332132 21:0.110581 22:0.344584 23:-0.572823 24:0.168539 25:0.177585 26:-0.322182 27:-0.360839 28:-0.329561 29:0.243309 30:-0.0672262 31:-0.346626 32:-0.427665 33:0.26624 34:-0.260351 35:-0.303381 36:-0.490393 
-1024 1:-0.831719 2:-0.944507 3:-0.895335 4:-0.0584354 5:-0.99754 6:-0.954655 7:-0.848553 8:0.0236848 9:-0.997018 10:-0.964468 11:-0.794213 12:0.285722 13:-0.996621 14:-0.978547 15:-0.794056 16:0.30669 17:-0.9969 18:-0.978615 19:-0.721508 20:-0.87269 21:-0.891764 22:0.212052 23:-0.981441 24:-0.881416 25:-0.911799 26:0.157482 27:-0.957207 28:-0.902571 29:-0.898091 30:0.221084 31:-0.949304 32:-0.949866 33:-0.898091 34:0.199647 35:-0.946366 36:-0.951671 
-1024 1:-0.675643 2:-0.318062 3:-0.38474 4:0.259642 5:-0.830832 6:-0.397828 7:-0.398459 8:0.249207 9:-0.798958 10:-0.439362 11:-0.36282 12:0.0164392 13:-0.701001 14:-0.659678 15:-0.348604 16:-0.00431476 17:-0.707949 18:-0.683724 19:0.227636 20:0.0203743 21:0.195287 22:-0.00535528 23:-0.413647 24:0.0124537 25:0.179969 26:-0.124775 27:-0.357818 28:-0.111924 29:0.228023 30:0.160878 31:-0.332747 32:-0.276837 33:0.286622 34:-0.264519 35:-0.233524 36:-0.426779 
-1024 1:-0.833789 2:-0.737884 3:-0.765211 4:0.0351804 5:-0.947707 6:-0.777253 7:-0.740983 8:0.17863 9:-0.962526 10:-0.805947 11:-0.707324 12:0.0852021 13:-0.926409 14:-0.914905 15:-0.702524 16:0.279101 17:-0.948812 18:-0.897952 19:-0.478598 20:-0.506889 21:-0.543531 22:0.210736 23:-0.795071 24:-0.452831 25:-0.47557 26:0.0717049 27:-0.763788 28:-0.611877 29:-0.380893 30:-0.114624 31:-0.718975 32:-0.829832 33:-0.408919 34:-0.0257489 35:-0.732594 36:-0.808898 
-1024 1:-0.651011 2:-0.215336 3:-0.373425 4:0.130098 5:-0.735699 6:-0.309245 7:-0.370151 8:0.595465 9:-0.801449 10:-0.167628 11:-0.245445 12:-0.101137 13:-0.653709 14:-0.650089 15:-0.246395 16:-0.177726 17:-0.637968 18:-0.671759 19:0.281333 20:0.165719 21:0.291756 22:-0.106102 23:-0.294613 24:0.0924615 25:0.225259 26:0.292632 27:-0.384266 28:0.378291 29:0.434392 30:-0.309613 31:-0.114882 32:-0.333562 33:0.442035 34:-0.471954 35:-0.0687105 36:-0.38537 
-1024 1:-0.781419 2:-0.557812 3:-0.585583 4:0.222528 5:-0.922066 6:-0.615298 7:-0.58529 8:0.359457 9:-0.930109 10:-0.637694 11:-0.48172 12:0.344258 13:-0.90678 14:-0.813963 15:-0.479799 16:0.253725 17:-0.895755 18:-0.831034 19:-0.0570873 20:-0.191042 21:-0.101183 22:0.179265 23:-0.617372 24:-0.139239 25:-0.110853 26:0.105609 27:-0.591049 28:-0.259224 29:-0.00382424 30:0.165365 31:-0.562608 32:-0.534701 33:0.0598707 34:-0.189892 35:-0.487062 36:-0.633646 
1024 1:-0.850763 2:-0.906393 3:-0.8133 4:0.0567874 5:-0.998835 6:-0.929867 7:-0.800429 8:0.145904 9:-0.998578 10:-0.940316 11:-0.734762 12:0.441607 13:-0.998166 14:-0.961029 15:-0.736086 16:0.453315 17:-0.998131 18:-0.96115 19:-0.552908 20:-0.719989 21:-0.557649 22:0.39387 23:-0.963611 24:-0.717571 25:-0.532781 26:0.421956 27:-0.969469 28:-0.785073 29:-0.44204 30:0.438491 31:-0.948637 32:-0.891503 33:-0.454779 34:0.429694 35:-0.947434 36:-0.891121 
1024 1:-0.806259 2:-0.406384 3:-0.579926 4:0.731437 5:-0.922116 6:-0.139975 7:-0.588121 8:-0.47393 9:-0.667382 10:-0.716492 11:-0.538121 12:-0.468577 13:-0.651811 14:-0.806848 15:-0.54082 16:-0.30094 17:-0.685339 18:-0.785775 19:-0.315614 20:-0.121042 21:-0.129418 22:0.791759 23:-0.748187 24:0.427592 25:-0.139459 26:-0.792946 27:-0.17535 28:-0.594891 29:-0.0343978 30:-0.773305 31:-0.17654 32:-0.665234 33:-0.0293022 34:-0.690787 35:-0.211255 36:-0.650799 
-1024 1:-0.871876 2:-0.785587 3:-0.811885 4:0.235505 5:-0.989127 6:-0.766716 7:-0.753722 8:0.0655573 9:-0.972274 10:-0.885726 11:-0.702751 12:0.3182 13:-0.972431 14:-0.924303 15:-0.710152 16:0.354571 17:-0.973779 18:-0.921166 19:-0.60911 20:-0.571552 21:-0.567061 22:0.65625 23:-0.951144 24:-0.368431 25:-0.609061 26:-0.0381829 27:-0.768928 28:-0.725051 29:-0.526115 30:-0.0803163 31:-0.747332 32:-0.849586 33:-0.531211 34:0.0403647 35:-0.775923 36:-0.828728 
-1024 1:-0.836273 2:-0.856492 3:-0.74541 4:-0.00641579 5:-0.987748 6:-0.914207 7:-0.78203 8:0.246032 9:-0.996182 10:-0.888769 11:-0.675313 12:0.367335 13:-0.988946 14:-0.949168 15:-0.675066 16:0.386842 17:-0.989286 18:-0.949004 19:-0.562275 20:-0.685375 21:-0.583532 22:0.271447 23:-0.929159 24:-0.712616 25:-0.599526 26:0.517987 27:-0.96347 28:-0.672959 29:-0.480257 30:0.219175 31:-0.902619 32:-0.896047 33:-0.477709 34:0.266164 35:-0.911222 36:-0.89105 
-1024 1:-0.834824 2:-0.616542 3:-0.714293 4:0.0539717 5:-0.891845 6:-0.642103 7:-0.692859 8:0.0229672 9:-0.879722 10:-0.721243 11:-0.672265 12:-0.0405766 13:-0.836794 14:-0.848444 15:-0.67354 16:-0.0643199 17:-0.830629 18:-0.856238 19:-0.571018 20:-0.475033 21:-0.55059 22:0.270046 23:-0.797237 24:-0.382104 25:-0.55185 26:-0.0132745 27:-0.69077 28:-0.575276 29:-0.470066 30:-0.18233 31:-0.635196 32:-0.792714 33:-0.480257 34:-0.230072 35:-0.620247 36:-0.800406 
-1024 1:-0.705451 2:-0.391662 3:-0.413029 4:0.518907 5:-0.916028 6:-0.402571 7:-0.421106 8:0.652245 9:-0.921721 10:-0.44689 11:-0.221055 12:0.423986 13:-0.876789 14:-0.747468 15:-0.220461 16:0.433869 17:-0.877337 18:-0.749043 19:0.281958 20:0.0358968 21:0.28705 22:0.300644 23:-0.52393 24:0.203842 25:0.21334 26:0.508806 27:-0.598236 28:0.207769 29:0.406366 30:-0.237396 31:-0.295227 32:-0.464295 33:0.419105 34:-0.268453 35:-0.29105 36:-0.476614 
1024 1:-0.767343 2:-0.455241 3:-0.545981 4:0.762366 5:-0.950566 6:-0.254299 7:-0.562645 8:-0.617759 9:-0.668784 10:-0.791858 11:-0.48172 12:-0.573338 13:-0.690028 14:-0.864224 15:-0.476748 16:-0.422667 17:-0.718274 18:-0.84999 19:0.0727886 20:-0.179668 21:0.119992 22:1 23:-0.856246 24:0.282836 25:0.0893843 26:-0.620189 27:-0.379046 28:-0.625291 29:0.319741 30:-0.825045 31:-0.354739 32:-0.774677 33:0.314645 34:-0.692311 35:-0.38445 36:-0.74682 
1024 1:-0.844553 2:-0.851887 3:-0.786428 4:-0.0174291 5:-0.985277 6:-0.906494 7:-0.813168 8:0.217097 9:-0.992631 10:-0.875175 11:-0.717994 12:0.309407 13:-0.98405 14:-0.948335 15:-0.726932 16:0.317139 17:-0.983431 18:-0.948332 19:-0.52231 20:-0.642525 21:-0.578826 22:0.11768 23:-0.873465 24:-0.719664 25:-0.616212 26:0.458074 27:-0.928406 28:-0.601063 29:-0.475162 30:0.171817 31:-0.868702 32:-0.87377 33:-0.492996 34:0.177389 35:-0.86778 36:-0.870261 
-20.95379225139311 1:-0.820748 2:-0.72711 3:-0.686006 4:0.259186 5:-0.981579 6:-0.759683 7:-0.677291 8:0.214991 9:-0.969578 10:-0.818458 11:-0.582327 12:0.39553 13:-0.965573 14:-0.897034 15:-0.589636 16:0.378571 17:-0.963213 18:-0.900145 19:-0.271277 20:-0.410997 21:-0.289417 22:0.417954 23:-0.827288 24:-0.314404 25:-0.325393 26:0.0713509 27:-0.732621 28:-0.553992 29:-0.161785 30:0.0545712 31:-0.719238 32:-0.756899 33:-0.161785 34:-0.010456 35:-0.708086 36:-0.771079 
-295.9156696340036 1:-0.800256 2:-0.513743 3:-0.603971 4:-0.0848283 5:-0.829631 6:-0.640825 7:-0.610767 8:0.360655 9:-0.896029 10:-0.538622 11:-0.594522 12:-0.187617 13:-0.74686 14:-0.800774 15:-0.600315 16:0.102324 17:-0.799711 18:-0.756221 19:-0.418025 20:-0.315683 21:-0.3153 22:-0.0478886 23:-0.599549 24:-0.38481 25:-0.318241 26:0.220312 27:-0.690123 28:-0.317113 29:-0.238219 30:-0.255505 31:-0.486384 32:-0.681867 33:-0.233123 34:-0.220051 35:-0.500094 36:-0.675987 
-1024 1:-0.843104 2:-0.609919 3:-0.743995 4:0.00420219 5:-0.864305 6:-0.617546 7:-0.732491 8:0.258455 9:-0.904972 10:-0.603305 11:-0.661594 12:-0.0859668 13:-0.835371 14:-0.861217 15:-0.668964 16:-0.189226 17:-0.809987 18:-0.875467 19:-0.449248 20:-0.339333 21:-0.397651 22:0.0329865 23:-0.590773 24:-0.272229 25:-0.442197 26:-0.00529576 27:-0.548301 28:-0.323524 29:-0.261149 30:-0.545233 31:-0.412445 32:-0.755528 33:-0.258601 34:-0.666884 35:-0.380684 36:-0.782331 
-1024 1:-0.734431 2:-0.298753 3:-0.480919 4:0.0561549 5:-0.757709 6:-0.404511 7:-0.473474 8:0.249552 9:-0.764752 10:-0.358206 11:-0.449708 12:-0.106333 13:-0.651925 14:-0.657575 15:-0.449288 16:-0.081596 17:-0.652201 18:-0.655405 19:-0.0933061 20:0.0226345 21:0.0141118 22:-0.109873 23:-0.39174 24:-0.090529 25:0.00833736 26:0.00494739 27:-0.375862 28:0.00711294 29:0.080253 30:-0.152726 31:-0.25603 32:-0.393769 33:0.0700619 34:-0.0996501 35:-0.272467 36:-0.379113 
1024 1:-0.842069 2:-0.747752 3:-0.752482 4:0.0170581 5:-0.955772 6:-0.811903 7:-0.743814 8:0.376964 9:-0.985424 10:-0.773595 11:-0.676838 12:0.330999 13:-0.960486 14:-0.90018 15:-0.681168 16:0.354486 17:-0.961326 18:-0.899 19:-0.408658 20:-0.425287 21:-0.414121 22:0.169561 23:-0.762142 24:-0.439463 25:-0.404056 26:0.434165 27:-0.827149 28:-0.376064 29:-0.281532 30:0.0777627 31:-0.727798 32:-0.758957 33:-0.291723 34:0.080673 35:-0.727734 36:-0.757236 
-1024 1:-0.84269 2:-0.892999 3:-0.814714 4:0.00323526 5:-0.993769 6:-0.923825 7:-0.830153 8:0.155172 9:-0.996833 10:-0.921288 11:-0.719519 12:0.358603 13:-0.993821 14:-0.961554 15:-0.719305 16:0.377324 17:-0.994122 18:-0.961694 19:-0.595996 20:-0.738345 21:-0.67765 22:0.254718 23:-0.939805 24:-0.746403 25:-0.647202 26:0.301622 27:-0.948407 28:-0.795349 29:-0.543949 30:0.295605 31:-0.932962 32:-0.909597 33:-0.564332 34:0.295726 35:-0.931005 36:-0.906057 
1024 1:-0.843725 2:-0.927507 3:-0.817543 4:-0.0176784 5:-0.998031 6:-0.951801 7:-0.827322 8:0.106983 9:-0.998928 10:-0.95203 11:-0.748482 12:0.377249 13:-0.998073 14:-0.970959 15:-0.752866 16:0.388004 17:-0.997988 18:-0.97108 19:-0.565397 20:-0.767946 21:-0.611767 22:0.3415 23:-0.973576 24:-0.791701 25:-0.563769 26:0.432884 27:-0.981237 28:-0.82003 29:-0.492996 30:0.460958 31:-0.965307 32:-0.911133 33:-0.495544 34:0.442464 35:-0.963688 36:-0.912595 
1024 1:-0.830063 2:-0.664386 3:-0.681763 4:-0.0170581 5:-0.921945 6:-0.765105 7:-0.688613 8:0.590611 9:-0.982686 10:-0.64197 11:-0.585375 12:0.166286 13:-0.920625 14:-0.885895 15:-0.578957 16:0.251401 17:-0.929683 18:-0.879665 19:-0.301251 20:-0.357389 21:-0.289417 22:-0.0444907 23:-0.616763 24:-0.409165 25:-0.34208 26:0.471272 27:-0.754163 28:-0.153013 29:-0.0777103 30:-0.539232 31:-0.51538 32:-0.807882 33:-0.0828059 34:-0.366967 35:-0.559251 36:-0.776861 
-1024 1:-0.837308 2:-0.937012 3:-0.886849 4:-0.0476836 5:-0.997304 6:-0.950502 7:-0.852799 8:0.0437782 9:-0.996937 10:-0.95789 11:-0.786591 12:0.293915 13:-0.996126 14:-0.976201 15:-0.786428 16:0.315106 17:-0.996499 18:-0.976438 19:-0.706522 20:-0.854275 21:-0.858825 22:0.193464 23:-0.973584 24:-0.874449 25:-0.876045 26:0.167343 27:-0.951981 28:-0.885924 29:-0.862422 30:0.215075 31:-0.941287 32:-0.942561 33:-0.867517 34:0.176695 35:-0.934327 36:-0.945407 
-1024 1:-0.844553 2:-0.919701 3:-0.806228 4:0.008301 5:-0.998135 6:-0.944528 7:-0.799014 8:0.11378 9:-0.998101 10:-0.947733 11:-0.754579 12:0.423213 13:-0.99823 14:-0.963518 15:-0.751341 16:0.432297 17:-0.998223 18:-0.964562 19:-0.652821 20:-0.781903 21:-0.632944 22:0.453447 23:-0.99039 24:-0.779884 25:-0.642434 26:0.516993 27:-0.990215 28:-0.794362 29:-0.533758 30:0.642816 31:-0.982307 32:-0.891834 33:-0.543949 34:0.586219 35:-0.97829 36:-0.897823 
-1024 1:-0.810399 2:-0.623841 3:-0.674691 4:0.0577178 5:-0.913602 6:-0.6969 7:-0.678707 8:0.0230011 9:-0.889103 10:-0.74028 11:-0.66007 12:0.125023 13:-0.875677 14:-0.838435 15:-0.656759 16:0.0215482 17:-0.856217 18:-0.855288 19:-0.315614 20:-0.381862 21:-0.296476 22:0.120535 23:-0.738069 24:-0.449347 25:-0.306322 26:0.000188231 27:-0.676716 28:-0.524908 29:-0.253506 30:0.056569 31:-0.657044 32:-0.695288 33:-0.233123 34:0.0267969 35:-0.654034 36:-0.70468 
-1024 1:-0.73857 2:-0.472375 3:-0.506378 4:0.246263 5:-0.904108 6:-0.566082 7:-0.484797 8:0.873455 9:-0.970666 10:-0.457924 11:-0.307944 12:0.456691 13:-0.906963 14:-0.783988 15:-0.308942 16:0.445916 17:-0.905427 18:-0.78873 19:0.0627983 20:-0.0293817 21:0.0635216 22:0.102017 23:-0.504264 24:-0.017393 25:0.00833736 26:0.504142 27:-0.588094 28:0.247663 29:0.261144 30:-0.284093 31:-0.333023 32:-0.529852 33:0.271335 34:-0.438224 35:-0.296386 36:-0.573616 
-1024 1:-0.868564 2:-0.551206 3:-0.707221 4:0.347578 5:-0.929005 6:-0.486181 7:-0.714091 8:-0.139682 9:-0.817834 10:-0.718692 11:-0.663118 12:-0.208383 13:-0.777654 14:-0.843849 15:-0.675066 16:-0.00327239 17:-0.813096 18:-0.81557 19:-0.559777 20:-0.354572 21:-0.437651 22:0.356663 23:-0.75156 24:-0.170687 25:-0.423126 26:-0.28775 27:-0.542195 28:-0.611145 29:-0.375797 30:-0.354054 31:-0.473452 32:-0.729947 33:-0.401275 34:-0.115072 35:-0.538229 36:-0.670958 
1024 1:-0.697378 2:-0.383022 3:-0.482333 4:0.206552 5:-0.813972 6:-0.387454 7:-0.480551 8:0.0271917 9:-0.775762 10:-0.546591 11:-0.403978 12:-0.298381 13:-0.692991 14:-0.773783 15:-0.411151 16:-0.163653 17:-0.714552 18:-0.755414 19:0.0777834 20:-0.136419 21:-0.00471179 22:0.209133 23:-0.561786 24:0.0118513 25:0.0250216 26:-0.145694 27:-0.462269 28:-0.309697 29:0.179615 30:-0.464357 31:-0.354249 32:-0.639153 33:0.149041 34:-0.325352 35:-0.378941 36:-0.596864 
1024 1:-0.789492 2:-0.391342 3:-0.588412 4:0.204673 5:-0.811319 6:-0.357628 7:-0.602275 8:0.30074 9:-0.82106 10:-0.408987 11:-0.483244 12:-0.0695971 13:-0.752212 14:-0.757072 15:-0.484375 16:-0.0502734 17:-0.751635 18:-0.756364 19:-0.220696 20:-0.0124817 21:-0.0635357 22:0.0866352 23:-0.390702 24:0.181495 25:-0.101318 26:0.0297546 27:-0.411544 28:-0.0273659 29:0.00381915 30:-0.404578 31:-0.186518 32:-0.481179 33:0.0191059 34:-0.427348 35:-0.180582 36:-0.4876 
-1024 1:-0.821783 2:-0.755351 3:-0.687419 4:0.197485 5:-0.985114 6:-0.812433 7:-0.681538 8:0.3566 9:-0.9886 10:-0.817345 11:-0.568607 12:0.463225 13:-0.97838 14:-0.907945 15:-0.566753 16:0.482134 17:-0.979161 18:-0.908314 19:-0.276897 20:-0.474706 21:-0.34118 22:0.28546 23:-0.839329 24:-0.491186 25:-0.353996 26:0.291958 27:-0.826654 28:-0.530133 29:-0.177072 30:0.055699 31:-0.760361 32:-0.798036 33:-0.192359 34:0.0379946 35:-0.754735 36:-0.798672 
1024 1:-0.852005 2:-0.879295 3:-0.814714 4:0.0194845 5:-0.992283 6:-0.910412 7:-0.7976 8:0.153175 9:-0.99483 10:-0.916901 11:-0.742384 12:0.34093 13:-0.990159 14:-0.95447 15:-0.745239 16:0.341089 17:-0.989411 18:-0.955544 19:-0.534799 20:-0.692168 21:-0.555296 22:0.331599 23:-0.947755 24:-0.717646 25:-0.568536 26:0.277759 27:-0.925105 28:-0.759141 29:-0.482805 30:0.288194 31:-0.911935 32:-0.885975 33:-0.475162 34:0.227097 35:-0.902416 36:-0.89257 
1024 1:-0.719734 2:-0.460851 3:-0.502135 4:0.267152 5:-0.87592 6:-0.477639 7:-0.514521 8:0.075191 9:-0.830968 10:-0.611998 11:-0.416173 12:-0.140411 13:-0.778929 14:-0.808546 15:-0.417253 16:-0.0330058 17:-0.794675 18:-0.796847 19:0.0846521 20:-0.182402 21:0.00705298 22:0.29298 23:-0.635692 24:-0.0365429 25:-0.00834928 26:-0.0309458 27:-0.547609 28:-0.328625 29:0.159232 30:-0.366226 31:-0.438063 32:-0.66567 33:0.133754 34:-0.238867 35:-0.460988 36:-0.629414 
-1024 1:-0.633419 2:-0.220081 3:-0.318265 4:0.432114 5:-0.806581 6:-0.196438 7:-0.341844 8:0.453715 9:-0.795996 10:-0.281933 11:-0.198191 12:-0.00543049 13:-0.691899 14:-0.655112 15:-0.200631 16:-0.0113465 17:-0.688358 18:-0.660488 19:0.378737 20:0.165112 21:0.369403 22:0.234788 23:-0.402412 24:0.365148 25:0.306308 26:0.145739 27:-0.360121 28:0.222374 29:0.480252 30:-0.328785 31:-0.111119 32:-0.339034 33:0.50318 34:-0.369304 35:-0.111075 36:-0.362054 
1024 1:-0.844553 2:-0.934169 3:-0.766626 4:-0.0659702 5:-0.997234 6:-0.966594 7:-0.800429 8:0.0690168 9:-0.997806 10:-0.959186 11:-0.722567 12:0.349949 13:-0.997951 14:-0.975592 15:-0.726932 16:0.362867 17:-0.997913 18:-0.975642 19:-0.626594 20:-0.818131 21:-0.616473 22:0.344344 23:-0.990088 24:-0.861207 25:-0.687726 26:0.460091 27:-0.990827 28:-0.831068 29:-0.523567 30:0.515146 31:-0.98333 32:-0.930638 33:-0.528663 34:0.512891 35:-0.983337 36:-0.930265 
-1024 1:-0.918241 2:-0.694099 3:-0.830273 4:-0.120532 5:-0.891328 6:-0.757144 7:-0.835814 8:0.0498441 9:-0.918167 10:-0.759544 11:-0.786591 12:-0.0566074 13:-0.874338 14:-0.899516 15:-0.791005 16:-0.0585355 17:-0.871166 18:-0.903197 19:-0.772086 20:-0.562216 21:-0.675297 22:-0.0985228 23:-0.697769 24:-0.632764 25:-0.718716 26:-0.00562727 27:-0.74248 28:-0.664502 29:-0.678983 30:-0.121342 31:-0.660823 32:-0.80792 33:-0.684078 34:-0.16445 35:-0.651396 36:-0.818918 
-1024 1:-0.799428 2:-0.343558 3:-0.588412 4:-0.0190528 5:-0.71783 6:-0.384125 7:-0.583875 8:0.0169758 9:-0.700572 10:-0.415591 11:-0.542695 12:-0.283124 13:-0.602497 14:-0.68897 15:-0.542346 16:-0.469908 17:-0.551094 18:-0.729952 19:-0.201338 20:-0.116601 21:-0.0894182 22:-0.138649 23:-0.405541 24:-0.156612 25:-0.160913 26:-0.185672 27:-0.346247 28:-0.191437 29:-0.0420412 30:-0.434971 31:-0.247223 32:-0.553421 33:-0.0114676 34:-0.582938 35:-0.226786 36:-0.609157 
1024 1:-0.856766 2:-0.857132 3:-0.824615 4:0.190783 5:-0.998795 6:-0.860559 7:-0.716921 8:0.175563 9:-0.995994 10:-0.924955 11:-0.679885 12:0.507868 13:-0.99612 14:-0.942538 15:-0.682692 16:0.509236 17:-0.995742 18:-0.943159 19:-0.496082 20:-0.612875 21:-0.470592 22:0.717323 23:-0.97881 24:-0.48979 25:-0.499408 26:0.0686539 27:-0.849897 28:-0.765253 29:-0.393632 30:0.244662 31:-0.871643 32:-0.852203 33:-0.385989 34:0.252185 35:-0.874836 36:-0.852572 
-1024 1:-0.786801 2:-0.494393 3:-0.601142 4:0.285056 5:-0.884558 6:-0.457663 7:-0.622091 8:-0.0330207 9:-0.79831 10:-0.618721 11:-0.519829 12:-0.215047 13:-0.766562 14:-0.82493 15:-0.534718 16:-0.226581 17:-0.753496 18:-0.824048 19:-0.25067 20:-0.26894 21:-0.202358 22:0.216909 23:-0.653109 24:-0.160608 25:-0.225273 26:0.00586327 27:-0.582723 28:-0.357305 29:-0.0343978 30:-0.483078 31:-0.440379 32:-0.729327 33:-0.0343978 34:-0.449228 35:-0.442665 36:-0.716543 
1024 1:-0.860285 2:-0.93769 3:-0.830273 4:-0.0167784 5:-0.999169 6:-0.95733 7:-0.818829 8:0.0606558 9:-0.998 10:-0.960997 11:-0.782018 12:0.338897 13:-0.997543 14:-0.973704 15:-0.783377 16:0.352871 17:-0.99757 18:-0.973963 19:-0.527305 20:-0.778051 21:-0.475298 22:0.458757 23:-0.993106 24:-0.82098 25:-0.480338 26:0.49195 27:-0.990117 28:-0.83435 29:-0.329937 30:0.616233 31:-0.983937 32:-0.913299 33:-0.335033 34:0.599747 35:-0.983041 36:-0.914388 
1024 1:-0.776451 2:-0.561374 3:-0.557297 4:0.199832 5:-0.932796 6:-0.666984 7:-0.596613 8:0.433019 9:-0.9289 10:-0.580908 11:-0.442086 12:0.254807 13:-0.905391 14:-0.840886 15:-0.446237 16:0.22365 17:-0.899456 18:-0.846089 19:-0.0439736 20:-0.221697 21:-0.096477 22:0.110794 23:-0.614176 24:-0.218801 25:-0.110853 26:0.353619 27:-0.668872 28:-0.125737 29:0.0828008 30:-0.202017 31:-0.521193 32:-0.669354 33:0.105728 34:-0.288986 35:-0.505697 36:-0.691972 
1024 1:-0.835238 2:-0.927982 3:-0.831687 4:-0.075682 5:-0.994993 6:-0.956727 7:-0.861292 8:0.0839446 9:-0.99708 10:-0.944399 11:-0.766774 12:0.276494 13:-0.994388 14:-0.975033 15:-0.772698 16:0.289055 17:-0.994276 18:-0.975169 19:-0.637835 20:-0.812881 21:-0.741177 22:0.180948 23:-0.961194 24:-0.859435 25:-0.799763 26:0.357356 27:-0.972813 28:-0.808603 29:-0.701913 30:0.23883 31:-0.943215 32:-0.937214 33:-0.709554 34:0.231813 35:-0.942014 36:-0.936791 
1024 1:-0.857801 2:-0.875561 3:-0.807642 4:0.0221907 5:-0.991831 6:-0.908468 7:-0.779199 8:0.0882639 9:-0.989719 10:-0.923458 11:-0.731714 12:0.250306 13:-0.984929 14:-0.961059 15:-0.736086 16:0.270643 17:-0.985141 18:-0.960579 19:-0.485466 20:-0.692069 21:-0.515298 22:0.354069 23:-0.948968 24:-0.707165 25:-0.518479 26:0.237422 27:-0.915651 28:-0.769876 29:-0.37325 30:0.137123 31:-0.889539 32:-0.904549 33:-0.365606 34:0.146021 35:-0.892387 36:-0.904147 
-1024 1:-0.791148 2:-0.687732 3:-0.618115 4:0.229777 5:-0.97355 6:-0.762323 7:-0.610767 8:0.391925 9:-0.97771 10:-0.766739 11:-0.500012 12:0.415871 13:-0.960078 14:-0.884584 15:-0.493529 16:0.441969 17:-0.961802 18:-0.884729 19:-0.103298 20:-0.387423 21:-0.169416 22:0.316393 23:-0.816669 24:-0.417136 25:-0.168062 26:0.33093 27:-0.806379 28:-0.457325 29:-0.0293022 30:0.073292 31:-0.715642 32:-0.743072 33:-0.0394934 34:0.0521912 35:-0.70762 36:-0.742982 
-1024 1:-0.742089 2:-0.51637 3:-0.553053 4:-0.0416631 5:-0.846128 6:-0.643953 7:-0.537168 8:0.289489 9:-0.895173 10:-0.603074 11:-0.489342 12:-0.222024 13:-0.784395 14:-0.842887 15:-0.49658 16:0.102409 17:-0.834336 18:-0.798901 19:-0.21008 20:-0.306855 21:-0.272946 22:0.0797327 23:-0.636936 24:-0.299089 25:-0.213354 26:0.125831 27:-0.665126 28:-0.375058 29:-0.0598758 30:-0.270029 31:-0.55195 32:-0.732069 33:-0.0853537 34:-0.152647 35:-0.568842 36:-0.697764 
-1024 1:-0.844553 2:-0.668949 3:-0.752482 4:0.0881609 5:-0.92067 6:-0.672907 7:-0.738153 8:0.00572403 9:-0.899022 10:-0.76391 11:-0.702751 12:-0.0224084 13:-0.870834 14:-0.881187 15:-0.7071 16:-0.0253418 17:-0.86741 18:-0.884414 19:-0.594747 20:-0.510588 21:-0.578826 22:0.319077 23:-0.831373 24:-0.398599 25:-0.582839 26:0.0156344 27:-0.720297 28:-0.596416 29:-0.503187 30:-0.172534 31:-0.666011 32:-0.816505 33:-0.510828 34:-0.23008 35:-0.647933 36:-0.824684 
-1024 1:-0.814125 2:-0.594577 3:-0.674691 4:0.083983 5:-0.914203 6:-0.679188 7:-0.670214 8:0.372685 9:-0.93235 10:-0.612353 11:-0.5869 12:0.136501 13:-0.890128 14:-0.85376 15:-0.589636 16:0.159347 17:-0.891538 18:-0.853681 19:-0.33747 20:-0.271121 21:-0.265887 22:-0.0311863 23:-0.607041 24:-0.376171 25:-0.327777 26:0.318799 27:-0.670194 28:-0.154019 29:-0.17962 30:-0.274427 31:-0.497671 32:-0.69581 33:-0.197454 34:-0.200687 35:-0.515375 36:-0.677856 
-1024 1:-0.799221 2:-0.958868 3:-0.804813 4:-0.0990647 5:-0.997956 6:-0.97617 7:-0.776369 8:0.00611669 9:-0.998494 10:-0.978733 11:-0.734762 12:0.281195 13:-0.998166 14:-0.98496 15:-0.731509 16:0.296326 17:-0.998264 18:-0.985452 19:-0.650948 20:-0.878642 21:-0.755295 22:0.332776 23:-0.997424 24:-0.8963 25:-0.716332 26:0.346152 27:-0.994314 28:-0.916119 29:-0.617836 30:0.50614 31:-0.993677 32:-0.954902 33:-0.620383 34:0.465367 35:-0.991718 36:-0.95749 
1024 1:-0.768585 2:-0.267349 3:-0.51345 4:0.15238 5:-0.719897 6:-0.232169 7:-0.521598 8:0.305493 9:-0.752749 10:-0.276052 11:-0.449708 12:-0.22815 13:-0.606374 14:-0.661067 15:-0.452339 16:-0.302392 17:-0.581167 18:-0.676977 19:-0.203835 20:0.0515238 21:-0.0258884 22:-0.00109449 23:-0.302123 24:0.216346 25:-0.0417225 26:-0.0818862 27:-0.316087 28:-0.00485154 29:0.0522273 30:-0.419609 31:-0.107837 32:-0.417112 33:0.0547751 34:-0.457394 35:-0.0861458 36:-0.42062 
-1024 1:-0.812883 2:-0.918922 3:-0.772283 4:-0.0290383 5:-0.997068 6:-0.954723 7:-0.738153 8:0.0634857 9:-0.996387 10:-0.958566 11:-0.669216 12:0.340157 13:-0.996464 14:-0.97367 15:-0.668964 16:0.350299 17:-0.99645 18:-0.974358 19:-0.536672 20:-0.805233 21:-0.588238 22:0.335913 23:-0.987094 24:-0.855309 25:-0.616212 26:0.321974 27:-0.973225 28:-0.85683 29:-0.503187 30:0.388378 31:-0.968897 32:-0.935543 33:-0.500639 34:0.349795 35:-0.966654 36:-0.940419 
1024 1:-0.841862 2:-0.765125 3:-0.725608 4:0.234368 5:-0.987167 6:-0.789923 7:-0.704183 8:0.315756 9:-0.986457 10:-0.823012 11:-0.5869 12:0.434022 13:-0.9782 14:-0.913651 15:-0.591161 16:0.449692 17:-0.978412 18:-0.913289 19:-0.461113 20:-0.53661 21:-0.437651 22:0.313192 23:-0.855547 24:-0.491241 25:-0.494641 26:0.37578 27:-0.868822 28:-0.535059 29:-0.327389 30:-0.0262163 31:-0.768038 32:-0.838909 33:-0.329937 34:0.00568347 35:-0.775525 36:-0.833925 
-1024 1:-0.827786 2:-0.51996 3:-0.671862 4:0.0707136 5:-0.863603 6:-0.575333 7:-0.673045 8:0.0147281 9:-0.82094 10:-0.620647 11:-0.637204 12:-0.0323136 13:-0.791532 14:-0.793426 15:-0.638453 16:-0.141157 17:-0.767249 18:-0.815311 19:-0.437383 20:-0.285133 21:-0.298829 22:-0.102816 23:-0.587807 24:-0.426929 25:-0.306322 26:-0.190903 27:-0.507482 28:-0.453594 29:-0.268793 30:-0.113577 31:-0.492932 32:-0.619554 33:-0.263697 34:-0.227331 35:-0.465075 36:-0.651297 
1024 1:-0.836066 2:-0.666324 3:-0.727022 4:0.131186 5:-0.947819 6:-0.719534 7:-0.738153 8:0.058503 9:-0.894228 10:-0.721235 11:-0.672265 12:0.149942 13:-0.904506 14:-0.868177 15:-0.684217 16:-0.0134398 17:-0.869375 18:-0.881955 19:-0.283766 20:-0.34793 21:-0.280005 22:-0.0153522 23:-0.664271 24:-0.45897 25:-0.315858 26:0.173035 27:-0.666332 28:-0.324162 29:-0.166881 30:-0.120335 31:-0.61374 32:-0.728816 33:-0.194906 34:-0.0484747 35:-0.621694 36:-0.705553 
-1024 1:-0.85511 2:-0.891301 3:-0.852903 4:-0.00336297 5:-0.993553 6:-0.919792 7:-0.849968 8:0.0912359 9:-0.990987 10:-0.917496 11:-0.809455 12:0.254494 13:-0.985712 14:-0.959508 15:-0.807784 16:0.309151 17:-0.988557 18:-0.957444 19:-0.660939 20:-0.76575 21:-0.752942 22:0.151591 23:-0.935566 24:-0.817898 25:-0.775925 26:0.215143 27:-0.92391 28:-0.792236 29:-0.737579 30:0.19318 31:-0.902833 32:-0.9066 33:-0.742675 34:0.103536 35:-0.88307 36:-0.914984 
-1024 1:-0.767343 2:-0.394934 3:-0.540324 4:0.227149 5:-0.826508 6:-0.384176 7:-0.56406 8:-0.107233 9:-0.721202 10:-0.547524 11:-0.477147 12:-0.337941 13:-0.670329 14:-0.771245 15:-0.498105 16:-0.314328 17:-0.656445 18:-0.759551 19:-0.178857 20:-0.196129 21:-0.131771 22:0.0976227 23:-0.554553 24:-0.118634 25:-0.137075 26:-0.0970684 27:-0.494264 28:-0.318772 29:0.0394883 30:-0.47416 31:-0.37524 32:-0.669789 33:0.0292971 34:-0.423455 35:-0.3796 36:-0.650802 
-1024 1:-0.576087 2:-0.152201 3:-0.285733 4:0.269932 5:-0.698819 6:-0.113649 7:-0.285228 8:0.110733 9:-0.600018 10:-0.18536 11:-0.115875 12:-0.68683 13:-0.469771 14:-0.689124 15:-0.109099 16:-0.410261 17:-0.527849 18:-0.645332 19:0.42619 20:0.0707451 21:0.308227 22:0.0337535 23:-0.355737 24:0.17258 25:0.218107 26:0.114515 27:-0.290832 28:0.310245 29:0.650952 30:-0.988811 31:-0.0488768 32:-0.613297 33:0.628022 34:-0.769146 35:-0.102819 36:-0.554995 
1024 1:-0.815781 2:-0.744198 3:-0.676105 4:0.320662 5:-0.987678 6:-0.752615 7:-0.627752 8:0.0288436 9:-0.960295 10:-0.882332 11:-0.553365 12:0.224779 13:-0.956615 14:-0.923293 15:-0.551499 16:0.266789 17:-0.959216 18:-0.921496 19:-0.173237 20:-0.480953 21:-0.169416 22:0.631047 23:-0.907617 24:-0.336556 25:-0.196667 26:-0.0322718 27:-0.784081 28:-0.721629 29:0.0318449 30:-0.21352 31:-0.735183 32:-0.858475 33:0.0496795 34:-0.12689 35:-0.757626 36:-0.850168 
1024 1:-0.847451 2:-0.889186 3:-0.772283 4:0.0735718 5:-0.997417 6:-0.919292 7:-0.766461 8:0.196164 9:-0.998917 10:-0.930494 11:-0.710372 12:0.485016 13:-0.997808 14:-0.952626 15:-0.713203 16:0.495574 17:-0.997774 18:-0.952755 19:-0.572891 20:-0.684102 21:-0.496475 22:0.60993 23:-0.986045 24:-0.643762 25:-0.494641 26:0.559983 27:-0.98169 28:-0.740293 29:-0.327389 30:0.627632 31:-0.969298 32:-0.87638 33:-0.324842 34:0.62739 35:-0.969455 36:-0.876169 
1024 1:-0.890712 2:-0.848422 3:-0.88402 4:0.0214914 5:-0.986103 6:-0.869678 7:-0.906585 8:0.295128 9:-0.995321 10:-0.808075 11:-0.778969 12:0.32808 13:-0.986585 14:-0.947081 15:-0.783377 16:0.307433 17:-0.984508 18:-0.950371 19:-0.767715 20:-0.704872 21:-0.825884 22:-0.0131738 23:-0.79253 24:-0.706121 25:-0.864126 26:0.274528 27:-0.856764 28:-0.559665 29:-0.770701 30:-0.330202 31:-0.691253 32:-0.921997 33:-0.78344 34:-0.405074 35:-0.6579 36:-0.928153 
-1024 1:-0.908099 2:-0.78024 3:-0.840174 4:-0.0796349 5:-0.94302 6:-0.828632 7:-0.845722 8:0.0356068 9:-0.953493 10:-0.843889 11:-0.794213 12:0.061977 13:-0.933304 14:-0.930265 15:-0.801682 16:0.0713346 17:-0.931872 18:-0.931073 19:-0.726503 20:-0.632007 21:-0.710589 22:0.0334872 23:-0.79406 24:-0.650237 25:-0.742552 26:0.0817345 27:-0.818403 28:-0.705794 29:-0.661148 30:-0.0770135 31:-0.760573 32:-0.868847 33:-0.666244 34:-0.0966834 35:-0.75889 36:-0.873949 
-1024 1:-0.686821 2:-0.318088 3:-0.454046 4:0.19819 5:-0.77991 6:-0.325739 7:-0.439506 8:0.0329259 9:-0.740353 10:-0.482974 11:-0.375015 12:-0.390248 13:-0.629132 14:-0.743331 15:-0.388268 16:-0.233476 17:-0.652183 18:-0.715899 19:0.0740374 20:-0.0946474 21:0.0258766 22:0.119821 23:-0.492923 24:0.0291289 25:0.0726977 26:-0.195685 27:-0.409451 28:-0.278191 29:0.212736 30:-0.486936 31:-0.301259 32:-0.604397 33:0.174519 34:-0.353512 35:-0.321325 36:-0.559039 
-1024 1:-0.851591 2:-0.868526 3:-0.783599 4:0.0916941 5:-0.99597 6:-0.900529 7:-0.76363 8:0.185061 9:-0.995284 10:-0.911974 11:-0.701226 12:0.454979 13:-0.993949 14:-0.944153 15:-0.702524 16:0.451538 17:-0.993358 18:-0.945697 19:-0.605363 20:-0.705543 21:-0.55059 22:0.470154 23:-0.973851 24:-0.693411 25:-0.573304 26:0.411342 27:-0.954526 28:-0.736458 29:-0.498092 30:0.487001 31:-0.938358 32:-0.857333 33:-0.515924 34:0.381824 35:-0.924257 36:-0.870568 
-1024 1:-0.768171 2:-0.430184 3:-0.578511 4:0.0877534 5:-0.836339 6:-0.520942 7:-0.555568 8:0.238971 9:-0.829016 10:-0.486681 11:-0.500012 12:-0.0105395 13:-0.775579 14:-0.762298 15:-0.504207 16:-0.128366 17:-0.741432 18:-0.77541 19:-0.0845635 20:-0.114279 21:-5.88239e-06 22:-0.188394 23:-0.455151 24:-0.290019 25:-0.0512578 26:0.060647 27:-0.481312 28:-0.111521 29:0.0904442 30:-0.290973 31:-0.362612 32:-0.568965 33:0.0165581 34:-0.103157 35:-0.387853 36:-0.497597 
-1024 1:-0.847037 2:-0.424094 3:-0.626601 4:0.287057 5:-0.85981 6:-0.381617 7:-0.620675 8:-0.20353 9:-0.739385 10:-0.642526 11:-0.600619 12:-0.364538 13:-0.64696 14:-0.772041 15:-0.620147 16:-0.0546053 17:-0.707873 18:-0.715126 19:-0.518563 20:-0.268991 21:-0.362356 22:0.300458 23:-0.685213 24:-0.102752 25:-0.334928 26:-0.357266 27:-0.467508 28:-0.566798 29:-0.289175 30:-0.34322 31:-0.411675 32:-0.666334 33:-0.319746 34:-0.149286 35:-0.460405 36:-0.611333 
-1024 1:-0.735259 2:-0.302569 3:-0.46536 4:0.0645228 5:-0.77201 6:-0.427064 7:-0.463568 8:0.294864 9:-0.776323 10:-0.346688 11:-0.43599 12:-0.134085 13:-0.654373 14:-0.671643 15:-0.440137 16:-0.107656 17:-0.656651 18:-0.67144 19:-0.177608 20:-0.0463199 21:-0.0164766 22:-0.171089 23:-0.430414 24:-0.231716 25:-0.113237 26:0.123112 27:-0.457646 28:0.0101215 29:0.0394883 30:-0.239732 31:-0.311737 32:-0.498904 33:0.0242015 34:-0.175317 35:-0.329501 36:-0.48095 
1024 1:-0.859871 2:-0.818285 3:-0.831687 4:0.192334 5:-0.989865 6:-0.79273 7:-0.726829 8:0.161448 9:-0.990084 10:-0.903239 11:-0.667692 12:0.368804 13:-0.984722 14:-0.939362 15:-0.67354 16:0.404349 17:-0.98564 18:-0.936574 19:-0.635337 20:-0.615668 21:-0.609414 22:0.633343 23:-0.954975 24:-0.397891 25:-0.666272 26:-0.0880445 27:-0.773594 28:-0.778214 29:-0.584714 30:-0.196934 31:-0.737592 32:-0.886847 33:-0.569427 34:-0.0659766 35:-0.778802 36:-0.872264 
-1024 1:-0.752232 2:-0.249411 3:-0.430001 4:0.897773 5:-0.893395 6:0.066492 7:-0.421106 8:-0.523433 9:-0.569742 10:-0.613902 11:-0.379588 12:-0.55437 13:-0.530847 14:-0.715728 15:-0.383692 16:-0.415977 17:-0.554162 18:-0.692314 19:-0.209456 20:0.01152 21:0.0164648 22:0.720796 23:-0.653877 24:0.556426 25:0.0417082 26:-0.859636 27:-0.0688177 28:-0.510791 29:0.113372 30:-0.738023 31:-0.0543853 32:-0.543331 33:0.121015 34:-0.63704 35:-0.100198 36:-0.525452 
1024 1:-0.871669 2:-0.811017 3:-0.811885 4:0.131892 5:-0.990104 6:-0.84125 7:-0.807506 8:0.170208 9:-0.979752 10:-0.849004 11:-0.724092 12:0.353555 13:-0.979183 14:-0.928068 15:-0.739137 16:0.322787 17:-0.974775 18:-0.929681 19:-0.473602 20:-0.56066 21:-0.477651 22:0.114724 23:-0.833954 24:-0.644259 25:-0.508943 26:0.187785 27:-0.808738 28:-0.585706 29:-0.380893 30:0.125499 31:-0.809292 32:-0.826107 33:-0.414014 34:0.0699268 35:-0.786479 36:-0.823624 
-1024 1:-0.583952 2:-0.122859 3:-0.247544 4:0.216483 5:-0.719816 6:-0.21441 7:-0.254089 8:0.659428 9:-0.775437 10:-0.0730757 11:-0.147887 12:-0.104847 13:-0.582208 14:-0.566766 15:-0.150288 16:-0.241917 17:-0.553117 18:-0.603095 19:0.400591 20:0.227385 21:0.395286 22:-0.147463 23:-0.239283 24:0.135786 25:0.308692 26:0.214963 27:-0.303893 28:0.425929 29:0.510823 30:-0.303322 31:-0.0422968 32:-0.257437 33:0.533753 34:-0.487908 35:0.00259713 36:-0.326321 
-1024 1:-0.63673 2:-0.0202525 3:-0.312607 4:0.365165 5:-0.660575 6:0.0739698 7:-0.305044 8:0.0234073 9:-0.539053 10:-0.155032 11:-0.22258 12:-0.310832 13:-0.440642 14:-0.508163 15:-0.221987 16:-0.356494 17:-0.423917 18:-0.523236 19:0.285079 20:0.295855 21:0.319991 22:0.0390475 23:-0.221826 24:0.430046 25:0.3516 26:-0.394597 27:-0.0475048 28:0.0523209 29:0.444583 30:-0.235471 31:0.0121719 32:-0.164679 33:0.454774 34:-0.226605 35:0.00573619 36:-0.166226 
1024 1:-0.823854 2:-0.721581 3:-0.657718 4:0.348119 5:-0.990871 6:-0.759213 7:-0.646152 8:0.427894 9:-0.989242 10:-0.792179 11:-0.503061 12:0.62335 13:-0.984414 14:-0.887712 15:-0.505733 16:0.630972 17:-0.984395 18:-0.888105 19:-0.261286 20:-0.367174 21:-0.247064 22:0.377956 23:-0.790049 24:-0.270673 25:-0.284868 26:0.464221 27:-0.811548 28:-0.318045 29:-0.0675192 30:0.0878239 31:-0.7116 32:-0.733661 33:-0.0547802 34:0.0944181 35:-0.717938 36:-0.736867 
931.7235305137201 1:-0.848693 2:-0.844789 3:-0.850074 4:0.187031 5:-0.995928 6:-0.826474 7:-0.728245 8:0.111661 9:-0.990816 10:-0.923941 11:-0.669216 12:0.396617 13:-0.990238 14:-0.946886 15:-0.675066 16:0.406348 17:-0.990055 18:-0.947011 19:-0.652197 20:-0.657741 21:-0.689415 22:0.602521 23:-0.967275 24:-0.462559 25:-0.723481 26:-0.213811 27:-0.743622 28:-0.843635 29:-0.645861 30:-0.138766 31:-0.774377 32:-0.89951 33:-0.650957 34:-0.158178 35:-0.768848 36:-0.901043 
-1024 1:-0.907271 2:-0.903991 3:-0.874119 4:-0.0515574 5:-0.991205 6:-0.929338 7:-0.876861 8:0.00885177 9:-0.988819 10:-0.939593 11:-0.830796 12:0.208843 13:-0.985855 14:-0.967993 15:-0.835244 16:0.227914 17:-0.986122 18:-0.967953 19:-0.73587 20:-0.800318 21:-0.781178 22:0.187264 23:-0.949079 24:-0.819268 25:-0.809298 26:0.239557 27:-0.954702 28:-0.844422 29:-0.747771 30:0.163609 31:-0.919956 32:-0.933511 33:-0.750318 34:0.191763 35:-0.927033 36:-0.931774 
1024 1:-0.854696 2:-0.781441 3:-0.789256 4:0.126461 5:-0.979678 6:-0.807425 7:-0.783446 8:0.152159 9:-0.971039 10:-0.836416 11:-0.704275 12:0.2913 13:-0.967655 14:-0.922155 15:-0.7071 16:0.292772 17:-0.966441 18:-0.923388 19:-0.528555 20:-0.567545 21:-0.588238 22:0.20966 23:-0.83653 24:-0.544173 25:-0.609061 26:0.0708565 27:-0.776948 28:-0.639382 29:-0.510828 30:-0.0308884 31:-0.757871 32:-0.839472 33:-0.503187 34:-0.105197 35:-0.742014 36:-0.851749 
-819.6306267514054 1:-0.677713 2:-0.259964 3:-0.427173 4:0.209532 5:-0.732124 6:-0.218141 7:-0.442337 8:0.102488 9:-0.660764 10:-0.286996 11:-0.268311 12:-0.683789 13:-0.545435 14:-0.764397 15:-0.27538 16:-0.445514 17:-0.591776 18:-0.730406 19:0.266972 20:-0.0124868 21:0.169405 22:0.0388558 23:-0.397808 24:0.100177 25:0.0941519 26:0.167394 27:-0.373107 28:0.228615 29:0.50318 30:-1 31:-0.110423 32:-0.669673 33:0.485348 34:-0.762399 35:-0.170515 36:-0.611355 
1024 1:-0.86132 2:-0.920714 3:-0.814714 4:0.0302606 5:-0.9995 6:-0.945703 7:-0.806091 8:0.137245 9:-0.999383 10:-0.948683 11:-0.760677 12:0.447046 13:-0.999357 14:-0.964911 15:-0.760494 16:0.457433 17:-0.999382 18:-0.965666 19:-0.514816 20:-0.73195 21:-0.46118 22:0.541081 23:-0.992518 24:-0.758712 25:-0.466035 26:0.537333 27:-0.984146 28:-0.77408 29:-0.31465 30:0.687419 31:-0.979256 32:-0.882445 33:-0.294271 34:0.682613 35:-0.980651 36:-0.887642 
-1024 1:-0.85304 2:-0.857401 3:-0.840174 4:0.0949355 5:-0.993527 6:-0.87187 7:-0.790523 8:0.170519 9:-0.993172 10:-0.90332 11:-0.730189 12:0.388076 13:-0.989865 14:-0.944618 15:-0.733035 16:0.390422 17:-0.989434 18:-0.945926 19:-0.622223 20:-0.674498 21:-0.658826 22:0.27125 23:-0.922284 24:-0.683849 25:-0.680575 26:0.0531234 27:-0.838273 28:-0.762922 29:-0.605097 30:0.20155 31:-0.875583 32:-0.872587 33:-0.605097 34:0.184975 35:-0.874608 36:-0.876315 
1024 1:-0.845588 2:-0.904146 3:-0.811885 4:-0.02393 5:-0.993724 6:-0.93511 7:-0.804675 8:0.156966 9:-0.998567 10:-0.935895 11:-0.746957 12:0.347621 13:-0.994153 14:-0.963308 15:-0.746764 16:0.36215 17:-0.994235 18:-0.963631 19:-0.532301 20:-0.726257 21:-0.524708 22:0.387005 23:-0.971304 24:-0.758686 25:-0.561385 26:0.379382 27:-0.9606 28:-0.782393 29:-0.434397 30:0.420052 31:-0.951139 32:-0.900967 33:-0.439492 34:0.387725 35:-0.94688 36:-0.902822 
1024 1:-0.860699 2:-0.575905 3:-0.688833 4:-0.0307046 5:-0.861865 6:-0.651127 7:-0.674461 8:-0.029744 9:-0.835033 10:-0.676265 11:-0.59757 12:-0.0718388 13:-0.827606 14:-0.845519 15:-0.600315 16:-0.0706425 17:-0.825084 18:-0.848853 19:-0.383055 20:-0.255481 21:-0.216475 22:-0.0726918 23:-0.558532 24:-0.33887 25:-0.218122 26:-0.134928 27:-0.491927 28:-0.362391 29:-0.123568 30:-0.211361 31:-0.506551 32:-0.670946 33:-0.128664 34:-0.330012 35:-0.469363 36:-0.693054 
1024 1:-0.755751 2:-0.33579 3:-0.471018 4:0.203566 5:-0.786753 6:-0.332272 7:-0.476305 8:0.000646535 9:-0.729168 10:-0.485127 11:-0.373491 12:-0.317375 13:-0.65928 14:-0.745621 15:-0.379115 16:-0.291234 17:-0.656735 18:-0.742135 19:-0.0239912 20:-0.134105 21:0.042345 22:0.194748 23:-0.578838 24:-0.0448905 25:0.0297892 26:-0.0856902 27:-0.490764 28:-0.291177 29:0.197449 30:-0.475586 31:-0.359106 32:-0.647009 33:0.177067 34:-0.408315 35:-0.364812 36:-0.622251 
1024 1:-0.882639 2:-0.417028 3:-0.669033 4:-0.0920043 5:-0.711526 6:-0.432901 7:-0.658891 8:-0.163993 9:-0.685141 10:-0.534274 11:-0.564034 12:-0.422014 13:-0.648002 14:-0.790111 15:-0.565227 16:-0.390439 17:-0.648796 18:-0.788156 19:-0.419274 20:-0.201394 21:-0.155299 22:0.00528072 23:-0.493614 24:-0.125827 25:-0.184748 26:0.0289286 27:-0.527456 28:-0.234473 29:0.0777053 30:-0.649252 31:-0.363495 32:-0.731922 33:0.0726097 34:-0.614363 35:-0.36661 36:-0.720073 
-1024 1:-0.729049 2:-0.307481 3:-0.431416 4:0.685857 5:-0.878458 6:-0.112405 7:-0.397044 8:-0.382386 9:-0.659067 10:-0.635323 11:-0.349101 12:-0.307148 13:-0.643694 14:-0.724866 15:-0.35013 16:-0.344224 17:-0.633574 18:-0.737442 19:-0.0964283 20:-0.0689645 21:0.0635216 22:0.695353 23:-0.726431 24:0.290426 25:0.0726977 26:-0.781056 27:-0.227566 28:-0.597347 29:0.151589 30:-0.523725 31:-0.262558 32:-0.594813 33:0.143945 34:-0.608857 35:-0.236638 36:-0.615384 
1024 1:-0.767757 2:-0.404794 3:-0.510621 4:0.162031 5:-0.801982 6:-0.395508 7:-0.490459 8:-0.00711188 9:-0.770124 10:-0.559889 11:-0.367393 12:-0.0997558 13:-0.745454 14:-0.756712 15:-0.371487 16:-0.102871 17:-0.742039 18:-0.761222 19:-0.0876862 20:-0.0128797 21:0.0611686 22:0.303483 23:-0.530313 24:0.208706 25:0.106071 26:-0.208046 27:-0.372895 28:-0.233601 29:0.225475 30:-0.192214 31:-0.34422 32:-0.494218 33:0.215284 34:-0.332181 35:-0.29993 36:-0.527159 
-1024 1:-0.888849 2:-0.532384 3:-0.705806 4:-0.120374 5:-0.811527 6:-0.627998 7:-0.701352 8:-0.0518142 9:-0.800527 10:-0.630898 11:-0.623485 12:-0.190241 13:-0.776757 14:-0.833648 15:-0.626249 16:-0.177375 17:-0.775824 18:-0.835727 19:-0.443003 20:-0.275705 21:-0.230593 22:0.016428 23:-0.602313 24:-0.31077 25:-0.225273 26:-0.037458 27:-0.566824 28:-0.377324 29:-0.103188 30:-0.219425 31:-0.540041 32:-0.702814 33:-0.0929971 34:-0.208144 35:-0.547669 36:-0.703516 
-1024 1:-0.649148 2:-0.387394 3:-0.376254 4:0.0808329 5:-0.837535 6:-0.554677 7:-0.38289 8:0.0574265 9:-0.811876 10:-0.596692 11:-0.368918 12:0.125926 13:-0.771483 14:-0.70338 15:-0.369962 16:0.014243 17:-0.749569 18:-0.726235 19:0.0290816 20:-0.238176 21:-0.0282413 22:0.137786 23:-0.695673 24:-0.350787 25:-0.0250359 26:0.0153816 27:-0.641402 28:-0.441386 29:0.0471317 30:0.167468 31:-0.612325 32:-0.588624 33:0.0496795 34:0.131526 35:-0.602098 36:-0.594925 
1024 1:-0.741882 2:-0.42731 3:-0.497891 4:-0.0632822 5:-0.805829 6:-0.589801 7:-0.510275 8:0.382265 9:-0.87021 10:-0.481459 11:-0.493915 12:-0.162332 13:-0.715708 14:-0.752672 15:-0.495054 16:0.107818 17:-0.762477 18:-0.70613 19:-0.155128 20:-0.246742 21:-0.157652 22:-0.0655496 23:-0.573847 24:-0.353773 25:-0.153761 26:0.228752 27:-0.673224 28:-0.279208 29:-0.0598758 30:-0.20213 31:-0.482297 32:-0.641297 33:-0.0471368 34:-0.133928 35:-0.505488 36:-0.62907 
1024 1:-0.783282 2:-0.282008 3:-0.463947 4:0.264835 5:-0.77096 6:-0.240052 7:-0.452245 8:0.00954908 9:-0.716063 10:-0.45747 11:-0.339955 12:-0.182464 13:-0.674802 14:-0.709165 15:-0.340977 16:-0.188765 17:-0.671121 18:-0.715708 19:-0.305622 20:-0.0654392 21:-0.0517709 22:0.220962 23:-0.521568 24:0.115376 25:-0.0298035 26:-0.360615 27:-0.301492 28:-0.308571 29:0.110824 30:-0.571735 31:-0.25013 32:-0.611111 33:0.100633 34:-0.599287 35:-0.234438 36:-0.612741 
1024 1:-0.66488 2:-0.19442 3:-0.356452 4:0.368279 5:-0.738206 6:-0.0867588 7:-0.344675 8:0.114504 9:-0.667034 10:-0.296942 11:-0.20124 12:-0.1206 13:-0.616948 14:-0.614981 15:-0.199105 16:-0.110902 17:-0.616978 18:-0.619032 19:0.217646 20:0.265297 21:0.308227 22:0.14373 23:-0.266801 24:0.504277 25:0.330146 26:-0.282339 27:-0.0889488 28:0.128401 29:0.436939 30:-0.351992 31:0.0147769 32:-0.237436 33:0.421653 34:-0.321128 35:0.0143847 36:-0.220411 
-1024 1:-0.857801 2:-0.470628 3:-0.653475 4:-0.222053 5:-0.764516 6:-0.634407 7:-0.657476 8:-0.117869 9:-0.778859 10:-0.644136 11:-0.637204 12:-0.291899 13:-0.679744 14:-0.778641 15:-0.639978 16:-0.308971 17:-0.673574 18:-0.788704 19:-0.558528 20:-0.385857 21:-0.418827 22:-0.173965 23:-0.616744 24:-0.559347 25:-0.4565 26:-0.17558 27:-0.617928 28:-0.613441 29:-0.411467 30:-0.128858 31:-0.573051 32:-0.710727 33:-0.414014 34:-0.147738 35:-0.576236 36:-0.721889 
1024 1:-0.80067 2:-0.355122 3:-0.52618 4:0.119699 5:-0.76485 6:-0.35359 7:-0.524429 8:-0.00535168 9:-0.730299 10:-0.488735 11:-0.413125 12:-0.314812 13:-0.667665 14:-0.755495 15:-0.415728 16:-0.277051 17:-0.669821 18:-0.75214 19:-0.179481 20:-0.145965 21:-0.0188295 22:0.180666 23:-0.566262 24:-0.0351424 25:-0.0226521 26:-0.0691034 27:-0.491935 28:-0.277898 29:0.169423 30:-0.55353 31:-0.350001 32:-0.675753 33:0.154137 34:-0.493212 35:-0.35826 36:-0.65667 
1024 1:-0.873118 2:-0.473545 3:-0.674691 4:-0.138794 5:-0.753881 6:-0.547875 7:-0.664553 8:-0.0814736 9:-0.728877 10:-0.537347 11:-0.574705 12:-0.273427 13:-0.708757 14:-0.792833 15:-0.572855 16:-0.302623 17:-0.698593 18:-0.80181 19:-0.395545 20:-0.127348 21:-0.105889 22:-0.216573 23:-0.379527 24:-0.213766 25:-0.153761 26:-0.056933 27:-0.371377 28:-0.0720907 29:0.0496795 30:-0.543074 31:-0.295564 32:-0.63803 33:0.0267493 34:-0.453299 35:-0.316928 36:-0.614141 
-1024 1:-0.795495 2:-0.506426 3:-0.589826 4:0.280306 5:-0.904043 6:-0.51828 7:-0.582459 8:-0.28739 9:-0.769529 10:-0.734567 11:-0.567083 12:0.25366 13:-0.835176 14:-0.735991 15:-0.562176 16:-0.401427 17:-0.720291 18:-0.852964 19:-0.304374 20:-0.319992 21:-0.230593 22:0.200824 23:-0.72983 24:-0.343774 25:-0.256263 26:-0.47602 27:-0.471415 28:-0.660751 29:-0.22548 30:0.0572295 31:-0.598953 32:-0.634384 33:-0.184715 34:-0.286995 35:-0.530546 36:-0.728502 
-1024 1:-0.937077 2:-0.574217 3:-0.801985 4:-0.171961 5:-0.797211 6:-0.639829 7:-0.807506 8:-0.110117 9:-0.809669 10:-0.683421 11:-0.753055 12:-0.243503 13:-0.76017 14:-0.849728 15:-0.755918 16:-0.249231 17:-0.755026 18:-0.855408 19:-0.800185 20:-0.443531 21:-0.567061 22:-0.278051 23:-0.526183 24:-0.567695 25:-0.618596 26:-0.193128 27:-0.60217 28:-0.634316 29:-0.58981 30:-0.330041 31:-0.502137 32:-0.768931 33:-0.594905 34:-0.369369 35:-0.49536 36:-0.781773 
1024 1:-0.741468 2:-0.142955 3:-0.381912 4:0.263029 5:-0.695674 6:-0.0959757 7:-0.398459 8:0.34918 9:-0.70168 10:-0.155204 11:-0.304896 12:-0.202527 13:-0.539937 14:-0.569132 15:-0.305891 16:-0.228144 17:-0.527161 18:-0.576769 19:-0.0539651 20:0.153929 21:0.17411 22:-0.0264356 23:-0.234521 24:0.306232 25:0.163282 26:-0.1048 27:-0.26765 28:0.0582932 29:0.233118 30:-0.458243 31:-0.0153769 32:-0.343818 33:0.220379 34:-0.495889 35:0.011786 36:-0.344448 
-1024 1:-0.831512 2:-0.438267 3:-0.606799 4:-0.0684027 5:-0.746532 6:-0.479105 7:-0.602275 8:-0.0401156 9:-0.736033 10:-0.520167 11:-0.484768 12:-0.169648 13:-0.722297 14:-0.761893 15:-0.48285 16:-0.220386 17:-0.710735 18:-0.776341 19:-0.233185 20:-0.0472178 21:-0.044712 22:-0.0555687 23:-0.358326 24:0.0366081 25:-0.0321873 26:-0.14539 27:-0.321852 28:-0.0929015 29:0.11592 30:-0.1588 31:-0.339125 32:-0.476188 33:0.171971 34:-0.508634 35:-0.25261 36:-0.57794 
1024 1:-0.61831 2:-0.201216 3:-0.314022 4:0.836887 5:-0.877599 6:0.000969969 7:-0.249843 8:-0.495811 9:-0.59055 10:-0.608133 11:-0.228677 12:-0.34888 13:-0.570414 14:-0.660357 15:-0.241819 16:-0.410449 17:-0.552241 18:-0.677188 19:0.0996372 20:-0.0382921 21:0.13411 22:0.749662 23:-0.727701 24:0.353994 25:0.163282 26:-0.78218 27:-0.2321 28:-0.589562 29:0.273883 30:-0.512649 31:-0.250528 32:-0.571259 33:0.261144 34:-0.567613 35:-0.233505 36:-0.584789 
-1024 1:-0.884502 2:-0.689055 3:-0.749653 4:-0.0939503 5:-0.913532 6:-0.789606 7:-0.74523 8:-0.0070848 9:-0.903771 10:-0.779844 11:-0.702751 12:0.00854976 13:-0.889799 14:-0.893013 15:-0.702524 16:-0.00190533 17:-0.887378 18:-0.898767 19:-0.482969 20:-0.471012 21:-0.343533 22:-0.0276446 23:-0.746745 24:-0.616189 25:-0.384986 26:0.0676874 27:-0.732006 28:-0.557563 29:-0.317198 30:-0.0147132 31:-0.713614 32:-0.78393 33:-0.299366 34:-0.183249 35:-0.67997 36:-0.817109 
1024 1:-0.693031 2:-0.279576 3:-0.330994 4:0.510338 5:-0.806073 6:-0.115132 7:-0.285228 8:-0.394965 9:-0.644012 10:-0.617514 11:-0.175326 12:-0.517234 13:-0.611104 14:-0.758011 15:-0.188426 16:-0.38627 17:-0.628296 18:-0.738144 19:0.135852 20:-0.045348 21:0.24705 22:0.728635 23:-0.685014 24:0.427853 25:0.301541 26:-0.567326 27:-0.31445 28:-0.486165 29:0.50318 30:-0.882923 31:-0.214365 32:-0.692055 33:0.4828 34:-0.710619 35:-0.257974 36:-0.653757 
1024 1:-0.851798 2:-0.486307 3:-0.639331 4:-0.0284119 5:-0.78827 6:-0.515592 7:-0.620675 8:-0.115574 9:-0.766688 10:-0.624041 11:-0.519829 12:-0.200346 13:-0.750312 14:-0.803796 15:-0.52709 16:-0.18791 17:-0.7492 18:-0.806143 19:-0.334347 20:-0.120264 21:-0.134124 22:0.13508 23:-0.48664 24:0.0664749 25:-0.084631 26:-0.220902 27:-0.384843 28:-0.281982 29:0.0853486 30:-0.353233 31:-0.374682 32:-0.61036 33:0.0878964 34:-0.455475 35:-0.352294 36:-0.639333 
1024 1:-0.746229 2:-0.308545 3:-0.459704 4:-0.0570002 5:-0.69172 6:-0.3858 7:-0.462152 8:0.273247 9:-0.73619 10:-0.281894 11:-0.312518 12:-0.171543 13:-0.662534 14:-0.690487 15:-0.315044 16:-0.182818 17:-0.657022 18:-0.697187 19:0.0365741 20:0.146092 21:0.178816 22:-0.091615 23:-0.242519 24:0.197598 25:0.139444 26:0.17998 27:-0.284832 28:0.415604 29:0.385984 30:-0.446716 31:-0.0996721 32:-0.401107 33:0.37834 34:-0.574748 35:-0.0519409 36:-0.432059 
-1024 1:-0.883053 2:-0.435332 3:-0.676105 4:0.000522993 5:-0.768773 6:-0.445823 7:-0.658891 8:-0.127747 9:-0.728663 10:-0.572853 11:-0.568607 12:-0.29203 13:-0.704962 14:-0.795405 15:-0.571329 16:-0.268182 17:-0.706599 18:-0.796633 19:-0.49858 20:-0.171719 21:-0.25177 22:0.107827 23:-0.500344 24:0.00293648 25:-0.199051 26:-0.335791 27:-0.332933 28:-0.348145 29:-0.0522324 30:-0.611078 31:-0.314233 32:-0.691946 33:-0.0726148 34:-0.617499 35:-0.302445 36:-0.687767 
-1024 1:-0.716215 2:-0.452436 3:-0.475261 4:-0.0371812 5:-0.816365 6:-0.591374 7:-0.457906 8:0.257318 9:-0.85964 10:-0.555074 11:-0.384161 12:-0.160447 13:-0.772007 14:-0.806529 15:-0.39437 16:0.0692669 17:-0.803691 18:-0.77167 19:-0.0502186 20:-0.237081 21:-0.124712 22:0.0844889 23:-0.617088 24:-0.256081 25:-0.0345711 26:0.109902 27:-0.64079 28:-0.346173 29:0.0955373 30:-0.247739 31:-0.526099 32:-0.692922 33:0.0547751 34:-0.0966351 35:-0.549869 36:-0.649477 
1024 1:-0.749955 2:-0.292569 3:-0.435659 4:0.178912 5:-0.736243 6:-0.255021 7:-0.423936 8:-0.0177679 9:-0.695949 10:-0.445247 11:-0.283554 12:-0.333328 13:-0.636953 14:-0.724112 15:-0.292161 16:-0.269737 17:-0.641402 18:-0.713594 19:-0.115787 20:-0.0459857 21:0.042345 22:0.208382 23:-0.500635 24:0.136303 25:0.0655463 26:-0.127584 27:-0.405469 28:-0.198076 29:0.210188 30:-0.533706 31:-0.256088 32:-0.590183 33:0.194901 34:-0.456298 35:-0.270531 36:-0.565449 
-1024 1:-0.909962 2:-0.525804 3:-0.749653 4:-0.211739 5:-0.77148 6:-0.635591 7:-0.756553 8:-0.0238676 9:-0.81545 10:-0.630893 11:-0.722567 12:-0.286269 13:-0.707974 14:-0.814061 15:-0.726932 16:-0.312039 17:-0.69598 18:-0.822651 19:-0.712141 20:-0.442113 21:-0.524708 22:-0.26725 23:-0.564925 24:-0.598736 25:-0.578071 26:-0.156712 27:-0.628223 28:-0.627004 29:-0.551593 30:-0.181154 31:-0.563756 32:-0.741108 33:-0.556688 34:-0.206741 35:-0.562412 36:-0.751796 
1024 1:-0.805224 2:-0.307753 3:-0.527594 4:0.131794 5:-0.720869 6:-0.252034 7:-0.513106 8:-0.0915676 9:-0.667222 10:-0.451414 11:-0.384161 12:-0.368031 13:-0.627723 14:-0.734421 15:-0.386743 16:-0.296343 17:-0.637936 18:-0.725976 19:-0.186975 20:-0.0846962 21:-0.0094177 22:0.14234 23:-0.478865 24:0.0889076 25:0.0178726 26:-0.090528 27:-0.429048 28:-0.196995 29:0.194901 30:-0.596876 31:-0.277698 32:-0.637636 33:0.171971 34:-0.467221 35:-0.304806 36:-0.600568 
-1024 1:-0.704209 2:-0.202848 3:-0.36211 4:0.0770199 5:-0.660303 6:-0.214432 7:-0.355997 8:0.220191 9:-0.668147 10:-0.209302 11:-0.172277 12:-0.460705 13:-0.561793 14:-0.692067 15:-0.182324 16:-0.342609 17:-0.573164 18:-0.667242 19:0.105256 20:0.053034 21:0.221167 22:-0.0116027 23:-0.341028 24:0.136152 25:0.156131 26:0.151037 27:-0.33119 28:0.285324 29:0.52611 30:-0.989609 31:-0.0637468 32:-0.632393 33:0.487893 34:-0.667562 35:-0.142807 36:-0.546207 
-1024 1:-0.831305 2:-0.401933 3:-0.603971 4:-0.149023 5:-0.690415 6:-0.456394 7:-0.593782 8:0.106936 9:-0.763038 10:-0.452775 11:-0.486293 12:-0.305497 13:-0.679846 14:-0.76927 15:-0.484375 16:-0.368284 17:-0.665289 18:-0.786508 19:-0.206957 20:-0.0971498 21:-0.0258884 22:-0.0384776 23:-0.412652 24:-0.035037 25:-0.0560254 26:-0.105081 27:-0.372517 28:-0.126942 29:0.121015 30:-0.584165 31:-0.247364 32:-0.614026 33:0.136302 34:-0.754893 35:-0.208418 36:-0.661582 
995.0856589003339 1:-0.556218 2:-0.142732 3:-0.19097 4:0.477438 5:-0.76781 6:-0.0830328 7:-0.203136 8:0.514002 9:-0.762634 10:-0.178576 11:-0.0457555 12:0.0852282 13:-0.653287 14:-0.568336 15:-0.0557064 16:0.074513 17:-0.647774 18:-0.573109 19:0.473643 20:0.263244 21:0.491755 22:0.302423 23:-0.366062 24:0.537928 25:0.470788 26:0.100805 27:-0.292181 28:0.290007 29:0.554136 30:-0.393324 31:0.018646 32:-0.253152 33:0.577066 34:-0.418384 35:0.0191673 36:-0.26792 
1024 1:-0.848693 2:-0.427871 3:-0.596898 4:-0.164652 5:-0.727544 6:-0.530898 7:-0.616429 8:-0.00944076 9:-0.720082 10:-0.468046 11:-0.478671 12:-0.333701 13:-0.685659 14:-0.784352 15:-0.484375 16:-0.309706 17:-0.686262 18:-0.784983 19:-0.30812 20:-0.12157 21:-0.112948 22:0.0819697 23:-0.49602 24:-0.0269203 25:-0.0893986 26:0.0374299 27:-0.420615 28:-0.0331837 29:0.143945 30:-0.524933 31:-0.3344 32:-0.652898 33:0.16178 34:-0.622884 35:-0.316394 36:-0.680379 
-1024 1:-0.827373 2:-0.367392 3:-0.557297 4:0.128748 5:-0.773774 6:-0.357132 7:-0.548491 8:-0.0637226 9:-0.727659 10:-0.526561 11:-0.44361 12:-0.258813 13:-0.693008 14:-0.762167 15:-0.443186 16:-0.241499 17:-0.693449 18:-0.764225 19:-0.341841 20:-0.113394 21:-0.0894182 22:0.149391 23:-0.507958 24:0.0429479 25:-0.0560254 26:-0.342168 27:-0.330085 28:-0.331404 29:0.0878964 30:-0.601572 31:-0.281952 32:-0.651279 33:0.0828008 34:-0.621521 35:-0.276246 36:-0.656146 
1024 1:-0.728842 2:-0.417729 3:-0.47809 4:0.109865 5:-0.8245 6:-0.493642 7:-0.47489 8:0.219737 9:-0.827237 10:-0.509728 11:-0.355198 12:-0.00782859 13:-0.776152 14:-0.758972 15:-0.356232 16:0.000538278 17:-0.77502 18:-0.761169 19:0.0197158 20:-0.0962494 21:0.0823452 22:0.0775331 23:-0.569797 24:-0.174678 25:0.0679301 26:0.0811951 27:-0.551918 28:-0.213413 29:0.16178 30:-0.0737189 31:-0.438714 32:-0.526341 33:0.151589 34:-0.12951 35:-0.421264 36:-0.538489 
-1024 1:-0.873739 2:-0.515487 3:-0.670448 4:-0.193234 5:-0.768276 6:-0.617272 7:-0.674461 8:0.0166034 9:-0.792299 10:-0.567747 11:-0.567083 12:-0.270212 13:-0.748001 14:-0.82838 15:-0.568278 16:-0.243096 17:-0.749008 18:-0.827749 19:-0.474226 20:-0.15724 21:-0.178828 22:-0.218208 23:-0.391538 24:-0.241821 25:-0.265798 26:0.0554327 27:-0.4453 28:-0.0589208 29:-0.0369456 30:-0.533488 31:-0.331223 32:-0.668505 33:-0.0598758 34:-0.508634 35:-0.331935 36:-0.659321 
-1024 1:-0.776865 2:-0.366148 3:-0.510621 4:0.0832593 5:-0.794307 6:-0.449045 7:-0.507444 8:0.285318 9:-0.806998 10:-0.411906 11:-0.40093 12:-0.0725687 13:-0.73497 14:-0.735987 15:-0.406575 16:-0.0465824 17:-0.735209 18:-0.733755 19:-0.165743 20:-0.029698 21:0.0682275 22:-0.159852 23:-0.41095 24:-0.181364 25:-0.0345711 26:0.135715 27:-0.463148 28:0.0160639 29:0.11592 30:-0.314059 31:-0.292452 32:-0.516697 33:0.103181 34:-0.27928 35:-0.301284 36:-0.507055 
-1024 1:-0.488745 2:-0.0364925 3:-0.0891338 4:0.513318 5:-0.742994 6:-0.00577709 7:-0.0927354 8:0.589433 9:-0.734866 10:-0.0671523 11:-0.0244143 12:-0.0456421 13:-0.532806 14:-0.478803 15:-0.0267213 16:-0.0657724 17:-0.526894 18:-0.489803 19:0.509858 20:0.270687 21:0.451754 22:0.157876 23:-0.291253 24:0.474586 25:0.458869 26:0.00829061 27:-0.238727 28:0.264334 29:0.584709 30:-0.372397 31:0.0287967 32:-0.229264 33:0.599996 34:-0.382671 35:0.0235864 36:-0.241028 
-1024 1:-0.588712 2:-0.233308 3:-0.271589 4:0.20699 5:-0.759458 6:-0.302524 7:-0.273905 8:0.465102 9:-0.783188 10:-0.254836 11:-0.144838 12:-0.040594 13:-0.676118 14:-0.649518 15:-0.139609 16:-0.0330314 17:-0.677678 18:-0.655532 19:0.40184 20:0.138434 21:0.357639 22:0.00834849 23:-0.3303 24:0.185244 25:0.349217 26:0.25425 27:-0.420272 28:0.248141 29:0.495536 30:-0.343776 31:-0.14988 32:-0.382859 33:0.505727 34:-0.422882 35:-0.124143 36:-0.403643 
-1024 1:-0.76134 2:-0.308928 3:-0.473847 4:0.104714 5:-0.767574 6:-0.3818 7:-0.467813 8:0.1902 9:-0.741988 10:-0.362241 11:-0.361296 12:-0.128959 13:-0.683653 14:-0.698814 15:-0.365385 16:-0.167379 17:-0.665466 18:-0.702398 19:-0.0845635 20:-0.00169382 21:0.129404 22:-0.187936 23:-0.385931 24:-0.170863 25:0.0917681 26:-0.00141314 27:-0.390792 28:-0.0239837 29:0.202545 30:-0.37727 31:-0.241121 32:-0.49922 33:0.141398 34:-0.146561 35:-0.283006 36:-0.413992 
-1024 1:-0.626588 2:-0.175004 3:-0.346553 4:0.0645532 5:-0.682288 6:-0.269109 7:-0.334767 8:0.072747 9:-0.654584 10:-0.309281 11:-0.278981 12:-0.20065 13:-0.561478 14:-0.59069 15:-0.278431 16:-0.383014 17:-0.518571 18:-0.635401 19:0.197665 20:0.0107318 21:0.155287 22:0.0264089 23:-0.44969 24:-0.0128 25:0.103687 26:-0.0757786 27:-0.358385 28:-0.0590603 29:0.26624 30:-0.264269 31:-0.246999 32:-0.439757 33:0.312097 34:-0.447615 35:-0.220408 36:-0.511463 
-1024 1:-0.557667 2:-0.0991959 3:-0.207942 4:0.099758 5:-0.679985 6:-0.245915 7:-0.208797 8:0.361677 9:-0.705944 10:-0.182094 11:-0.166179 12:-0.0855149 13:-0.547301 14:-0.517733 15:-0.17012 16:-0.0295625 17:-0.553039 18:-0.506585 19:0.227636 20:0.141855 21:0.254109 22:-0.103156 23:-0.346429 24:0.00602355 25:0.230026 26:0.061119 27:-0.363448 28:0.105952 29:0.342671 30:-0.0770216 31:-0.202876 32:-0.28356 33:0.345219 34:-0.049297 35:-0.216469 36:-0.281374 
1024 1:-0.543592 2:-0.132826 3:-0.171168 4:0.5009 5:-0.772603 6:-0.075726 7:-0.18332 8:0.540723 9:-0.76556 10:-0.166079 11:-0.0335606 12:0.0850023 13:-0.646162 14:-0.559359 15:-0.0435021 16:0.076837 17:-0.642894 18:-0.565897 19:0.488629 20:0.26253 21:0.484696 22:0.293742 23:-0.363139 24:0.531272 25:0.475556 26:0.0912248 27:-0.286458 28:0.287905 29:0.564327 30:-0.355875 31:0.00639393 32:-0.24109 33:0.589805 34:-0.419182 35:0.0175206 36:-0.269261 
1024 1:-0.621414 2:-0.190259 3:-0.295634 4:0.182367 5:-0.715957 6:-0.231827 7:-0.292305 8:0.521564 9:-0.756917 10:-0.143108 11:-0.134168 12:0.00292812 13:-0.649678 14:-0.599749 15:-0.135033 16:-0.0270933 17:-0.643124 18:-0.612143 19:0.342523 20:0.238275 21:0.392933 22:-0.0423336 23:-0.263579 24:0.236711 25:0.33253 26:0.284125 27:-0.319928 28:0.492934 29:0.508275 30:-0.274806 31:-0.0469551 32:-0.244443 33:0.518466 34:-0.440432 35:0.00233018 36:-0.299538 
-1024 1:-0.644802 2:-0.19281 3:-0.338066 4:0.194961 5:-0.720849 6:-0.224059 7:-0.320613 8:0.07731 9:-0.692056 10:-0.372445 11:-0.260689 12:-0.404967 13:-0.5488 14:-0.66335 15:-0.270804 16:-0.24636 17:-0.572847 18:-0.631756 19:0.0859004 20:-0.0457408 21:0.0823452 22:0.0895166 23:-0.44821 24:0.0739893 25:0.158515 26:-0.223082 27:-0.372008 28:-0.244639 29:0.304454 30:-0.494702 31:-0.258699 32:-0.567399 33:0.253501 34:-0.359953 35:-0.278008 36:-0.519899 
1024 1:-0.746229 2:-0.308545 3:-0.459704 4:-0.0570002 5:-0.69172 6:-0.3858 7:-0.462152 8:0.273247 9:-0.73619 10:-0.281894 11:-0.312518 12:-0.171543 13:-0.662534 14:-0.690487 15:-0.315044 16:-0.182818 17:-0.657022 18:-0.697187 19:0.0365741 20:0.146092 21:0.178816 22:-0.091615 23:-0.242519 24:0.197598 25:0.139444 26:0.17998 27:-0.284832 28:0.415604 29:0.385984 30:-0.446716 31:-0.0996721 32:-0.401107 33:0.37834 34:-0.574748 35:-0.0519409 36:-0.432059 
-1024 1:-0.616654 2:-0.252241 3:-0.315436 4:0.430892 5:-0.830411 6:-0.258888 7:-0.289474 8:-0.0444552 9:-0.726411 10:-0.518686 11:-0.266786 12:-0.238872 13:-0.632293 14:-0.682561 15:-0.279957 16:0.0509313 17:-0.680035 18:-0.625467 19:0.212651 20:-0.0515315 21:0.152934 22:0.42965 23:-0.650388 24:0.100352 25:0.21334 26:-0.346916 27:-0.426673 28:-0.441241 29:0.299358 30:-0.272365 31:-0.356395 32:-0.543492 33:0.268787 34:-0.109969 35:-0.391976 36:-0.495706 
-1024 1:-0.83648 2:-0.40995 3:-0.605385 4:-0.0156412 5:-0.767936 6:-0.471016 7:-0.599444 8:0.123508 9:-0.770424 10:-0.452433 11:-0.496963 12:-0.159622 13:-0.720077 14:-0.756449 15:-0.501156 16:-0.120737 17:-0.72441 18:-0.754156 19:-0.331225 20:-0.00141577 21:-0.0635357 22:-0.0792481 23:-0.364249 24:-0.00720316 25:-0.0512578 26:0.00861088 27:-0.357198 28:0.0422094 29:0.0675141 30:-0.389982 31:-0.217336 32:-0.494604 33:0.0547751 34:-0.359163 35:-0.225892 36:-0.486289 
-1024 1:-0.863597 2:-0.546126 3:-0.683177 4:-0.0253044 5:-0.841868 6:-0.608568 7:-0.658891 8:-0.0268938 9:-0.835675 10:-0.676526 11:-0.608241 12:-0.133451 13:-0.799283 14:-0.836291 15:-0.609468 16:-0.133399 17:-0.796901 18:-0.840698 19:-0.439881 20:-0.391194 21:-0.345886 22:0.190417 23:-0.744831 24:-0.381898 25:-0.334928 26:-0.113807 27:-0.625886 28:-0.554709 29:-0.258601 30:-0.249914 31:-0.601081 32:-0.776532 33:-0.27134 34:-0.311776 35:-0.581983 36:-0.785922 
1024 1:-0.908927 2:-0.360169 3:-0.704392 4:0.20252 5:-0.802858 6:-0.297943 7:-0.692859 8:-0.0795915 9:-0.736975 10:-0.547644 11:-0.640253 12:-0.183437 13:-0.688569 14:-0.743379 15:-0.647606 16:-0.0984877 17:-0.700218 18:-0.728153 19:-0.67093 20:-0.136452 21:-0.371768 22:0.225356 23:-0.564417 24:0.0555121 25:-0.323009 26:-0.404194 27:-0.340873 28:-0.452907 29:-0.281532 30:-0.527108 31:-0.252713 32:-0.632829 33:-0.307007 34:-0.325054 35:-0.313651 36:-0.576566 
-1024 1:-0.667156 2:-0.415437 3:-0.4102 4:0.0850168 5:-0.847603 6:-0.569111 7:-0.415444 8:0.0668707 9:-0.823767 10:-0.610714 11:-0.403978 12:0.118558 13:-0.783574 14:-0.721863 15:-0.400473 16:0.0253759 17:-0.766326 18:-0.74254 19:0.0278327 20:-0.240576 21:-0.0329473 22:0.142036 23:-0.697936 24:-0.350611 25:-0.0298035 26:0.0222759 27:-0.644128 28:-0.439577 29:0.0420361 30:0.169667 31:-0.610625 32:-0.585672 33:0.0471317 34:0.130486 35:-0.602403 36:-0.595801 
