<?xml version="1.0"?>
<!--
    Stump-based 24x24 discrete(?) adaboost frontal face detector.
    Created by Rainer Lienhart.
    Minified by Satya Mallick (http://www.learnopencv.com)

////////////////////////////////////////////////////////////////////////////////////////

  IMPORTANT: READ BEFORE DOWNLOADING, COPYING, INSTALLING OR USING.

  By downloading, copying, installing or using the software you agree to this license.
  If you do not agree to this license, do not download, install,
  copy or use the software.


                        Intel License Agreement
                For Open Source Computer Vision Library

 Copyright (C) 2000, Intel Corporation, all rights reserved.
 Third party copyrights are property of their respective owners.

 Redistribution and use in source and binary forms, with or without modification,
 are permitted provided that the following conditions are met:

   * Redistribution's of source code must retain the above copyright notice,
     this list of conditions and the following disclaimer.

   * Redistribution's in binary form must reproduce the above copyright notice,
     this list of conditions and the following disclaimer in the documentation
     and/or other materials provided with the distribution.

   * The name of Intel Corporation may not be used to endorse or promote products
     derived from this software without specific prior written permission.

 This software is provided by the copyright holders and contributors "as is" and
 any express or implied warranties, including, but not limited to, the implied
 warranties of merchantability and fitness for a particular purpose are disclaimed.
 In no event shall the Intel Corporation or contributors be liable for any direct,
 indirect, incidental, special, exemplary, or consequential damages
 (including, but not limited to, procurement of substitute goods or services;
 loss of use, data, or profits; or business interruption) however caused
 and on any theory of liability, whether in contract, strict liability,
 or tort (including negligence or otherwise) arising in any way out of
 the use of this software, even if advised of the possibility of such damage.
-->
<opencv_storage><cascade type_id="opencv-cascade-classifier"><stageType>BOOST</stageType><featureType>HAAR</featureType><height>24</height><width>24</width><stageParams><maxWeakCount>211</maxWeakCount></stageParams><featureParams><maxCatCount>0</maxCatCount></featureParams><stageNum>25</stageNum><stages><_><maxWeakCount>9</maxWeakCount><stageThreshold>-5.0426E+00</stageThreshold><weakClassifiers><_><internalNodes>0 -1 0 -3.1512E-02</internalNodes><leafValues>2.0875E+00 -2.2172E+00</leafValues></_><_><internalNodes>0 -1 1 1.2396E-02</internalNodes><leafValues>-1.8634E+00 1.3272E+00</leafValues></_><_><internalNodes>0 -1 2 2.1928E-02</internalNodes><leafValues>-1.5105E+00 1.0626E+00</leafValues></_><_><internalNodes>0 -1 3 5.7530E-03</internalNodes><leafValues>-8.7464E-01 1.1760E+00</leafValues></_><_><internalNodes>0 -1 4 1.5014E-02</internalNodes><leafValues>-7.7946E-01 1.2608E+00</leafValues></_><_><internalNodes>0 -1 5 9.9371E-02</internalNodes><leafValues>5.5751E-01 -1.8743E+00</leafValues></_><_><internalNodes>0 -1 6 2.7340E-03</internalNodes><leafValues>-1.6912E+00 4.4010E-01</leafValues></_><_><internalNodes>0 -1 7 -1.8859E-02</internalNodes><leafValues>-1.4770E+00 4.4350E-01</leafValues></_><_><internalNodes>0 -1 8 5.9740E-03</internalNodes><leafValues>-8.5909E-01 8.5256E-01</leafValues></_></weakClassifiers></_><_><maxWeakCount>16</maxWeakCount><stageThreshold>-4.9842E+00</stageThreshold><weakClassifiers><_><internalNodes>0 -1 9 -2.1110E-02</internalNodes><leafValues>1.2436E+00 -1.5713E+00</leafValues></_><_><internalNodes>0 -1 10 2.0356E-02</internalNodes><leafValues>-1.6205E+00 1.1818E+00</leafValues></_><_><internalNodes>0 -1 11 2.1309E-02</internalNodes><leafValues>-1.9416E+00 7.0069E-01</leafValues></_><_><internalNodes>0 -1 12 9.1660E-02</internalNodes><leafValues>-5.5670E-01 1.7284E+00</leafValues></_><_><internalNodes>0 -1 13 3.6288E-02</internalNodes><leafValues>2.6764E-01 -2.1832E+00</leafValues></_><_><internalNodes>0 -1 14 -1.9110E-02</internalNodes><leafValues>-2.6730E+00 4.5671E-01</leafValues></_><_><internalNodes>0 -1 15 8.2540E-03</internalNodes><leafValues>-1.0853E+00 5.3564E-01</leafValues></_><_><internalNodes>0 -1 16 1.8355E-02</internalNodes><leafValues>-3.5200E-01 9.3339E-01</leafValues></_><_><internalNodes>0 -1 17 -7.0570E-03</internalNodes><leafValues>9.2782E-01 -6.6350E-01</leafValues></_><_><internalNodes>0 -1 18 -9.8770E-03</internalNodes><leafValues>1.1577E+00 -2.9775E-01</leafValues></_><_><internalNodes>0 -1 19 1.5814E-02</internalNodes><leafValues>-4.1961E-01 1.3576E+00</leafValues></_><_><internalNodes>0 -1 20 -2.0700E-02</internalNodes><leafValues>1.4590E+00 -1.9739E-01</leafValues></_><_><internalNodes>0 -1 21 -1.3761E-01</internalNodes><leafValues>1.1187E+00 -5.2916E-01</leafValues></_><_><internalNodes>0 -1 22 1.4319E-02</internalNodes><leafValues>-3.5127E-01 1.1441E+00</leafValues></_><_><internalNodes>0 -1 23 1.0253E-02</internalNodes><leafValues>-6.0851E-01 7.7099E-01</leafValues></_><_><internalNodes>0 -1 24 9.1508E-02</internalNodes><leafValues>3.8818E-01 -1.5123E+00</leafValues></_></weakClassifiers></_><_><maxWeakCount>27</maxWeakCount><stageThreshold>-4.6552E+00</stageThreshold><weakClassifiers><_><internalNodes>0 -1 25 6.9747E-02</internalNodes><leafValues>-1.0131E+00 1.4687E+00</leafValues></_><_><internalNodes>0 -1 26 3.1503E-02</internalNodes><leafValues>-1.6464E+00 1.0001E+00</leafValues></_><_><internalNodes>0 -1 27 1.4261E-02</internalNodes><leafValues>4.6480E-01 -1.5960E+00</leafValues></_><_><internalNodes>0 -1 28 1.4453E-02</internalNodes><leafValues>-6.5512E-01 8.3022E-01</leafValues></_><_><internalNodes>0 -1 29 -3.0510E-03</internalNodes><leafValues>-1.3982E+00 4.2551E-01</leafValues></_><_><internalNodes>0 -1 30 3.2723E-02</internalNodes><leafValues>-5.0703E-01 1.0526E+00</leafValues></_><_><internalNodes>0 -1 31 -7.2960E-03</internalNodes><leafValues>3.6357E-01 -1.3465E+00</leafValues></_><_><internalNodes>0 -1 32 5.0425E-02</internalNodes><leafValues>-3.0461E-01 1.4504E+00</leafValues></_><_><internalNodes>0 -1 33 4.6879E-02</internalNodes><leafValues>-4.0286E-01 1.2146E+00</leafValues></_><_><internalNodes>0 -1 34 -6.9359E-02</internalNodes><leafValues>1.0539E+00 -4.5720E-01</leafValues></_><_><internalNodes>0 -1 35 -4.9034E-02</internalNodes><leafValues>-1.6253E+00 1.5379E-01</leafValues></_><_><internalNodes>0 -1 36 8.4828E-02</internalNodes><leafValues>2.8403E-01 -1.5662E+00</leafValues></_><_><internalNodes>0 -1 37 -1.7230E-03</internalNodes><leafValues>-1.0147E+00 2.3295E-01</leafValues></_><_><internalNodes>0 -1 38 1.1562E-01</internalNodes><leafValues>-1.6733E-01 1.2804E+00</leafValues></_><_><internalNodes>0 -1 39 -5.1280E-02</internalNodes><leafValues>1.5162E+00 -3.0271E-01</leafValues></_><_><internalNodes>0 -1 40 -4.2707E-02</internalNodes><leafValues>1.7632E+00 -5.1832E-02</leafValues></_><_><internalNodes>0 -1 41 3.7178E-01</internalNodes><leafValues>-3.1389E-01 1.5358E+00</leafValues></_><_><internalNodes>0 -1 42 1.9413E-02</internalNodes><leafValues>-1.0018E-01 9.3655E-01</leafValues></_><_><internalNodes>0 -1 43 1.7439E-02</internalNodes><leafValues>-4.0380E-01 9.6293E-01</leafValues></_><_><internalNodes>0 -1 44 3.9639E-02</internalNodes><leafValues>1.7039E-01 -2.9603E+00</leafValues></_><_><internalNodes>0 -1 45 -9.1470E-03</internalNodes><leafValues>8.8787E-01 -4.3819E-01</leafValues></_><_><internalNodes>0 -1 46 1.7220E-03</internalNodes><leafValues>-3.7219E-01 4.0019E-01</leafValues></_><_><internalNodes>0 -1 47 3.0231E-02</internalNodes><leafValues>6.5924E-02 -2.6469E+00</leafValues></_><_><internalNodes>0 -1 48 -7.8796E-02</internalNodes><leafValues>-1.7491E+00 2.8475E-01</leafValues></_><_><internalNodes>0 -1 49 2.1110E-03</internalNodes><leafValues>-9.3908E-01 2.3205E-01</leafValues></_><_><internalNodes>0 -1 50 2.7091E-02</internalNodes><leafValues>-5.2664E-02 1.0757E+00</leafValues></_><_><internalNodes>0 -1 51 -4.4965E-02</internalNodes><leafValues>-1.8294E+00 9.9562E-02</leafValues></_></weakClassifiers></_><_><maxWeakCount>32</maxWeakCount><stageThreshold>-4.4532E+00</stageThreshold><weakClassifiers><_><internalNodes>0 -1 52 -6.5701E-02</internalNodes><leafValues>1.1559E+00 -1.0716E+00</leafValues></_><_><internalNodes>0 -1 53 1.5840E-02</internalNodes><leafValues>-1.5635E+00 7.6877E-01</leafValues></_><_><internalNodes>0 -1 54 1.4571E-01</internalNodes><leafValues>-5.7450E-01 1.3809E+00</leafValues></_><_><internalNodes>0 -1 55 6.1390E-03</internalNodes><leafValues>-1.4571E+00 5.1610E-01</leafValues></_><_><internalNodes>0 -1 56 6.7180E-03</internalNodes><leafValues>-8.3534E-01 5.8522E-01</leafValues></_><_><internalNodes>0 -1 57 1.8518E-02</internalNodes><leafValues>-3.1312E-01 1.1697E+00</leafValues></_><_><internalNodes>0 -1 58 1.9958E-02</internalNodes><leafValues>-4.3443E-01 9.5447E-01</leafValues></_><_><internalNodes>0 -1 59 -2.7755E-01</internalNodes><leafValues>1.4906E+00 -1.3816E-01</leafValues></_><_><internalNodes>0 -1 60 9.1860E-03</internalNodes><leafValues>-9.6362E-01 2.7665E-01</leafValues></_><_><internalNodes>0 -1 61 -3.7738E-02</internalNodes><leafValues>-2.4464E+00 2.3620E-01</leafValues></_><_><internalNodes>0 -1 62 1.8463E-02</internalNodes><leafValues>1.7539E-01 -1.3423E+00</leafValues></_><_><internalNodes>0 -1 63 -1.1115E-02</internalNodes><leafValues>4.8711E-01 -8.9852E-01</leafValues></_><_><internalNodes>0 -1 64 3.3928E-02</internalNodes><leafValues>1.7874E-01 -1.6342E+00</leafValues></_><_><internalNodes>0 -1 65 -3.5649E-02</internalNodes><leafValues>-1.9607E+00 1.8102E-01</leafValues></_><_><internalNodes>0 -1 66 -1.1438E-02</internalNodes><leafValues>9.9011E-01 -3.8103E-01</leafValues></_><_><internalNodes>0 -1 67 -6.5236E-02</internalNodes><leafValues>-2.5794E+00 2.4754E-01</leafValues></_><_><internalNodes>0 -1 68 -4.2272E-02</internalNodes><leafValues>1.4412E+00 -2.9508E-01</leafValues></_><_><internalNodes>0 -1 69 1.9220E-03</internalNodes><leafValues>-4.9609E-01 6.3174E-01</leafValues></_><_><internalNodes>0 -1 70 -1.2922E-01</internalNodes><leafValues>-2.3314E+00 5.4497E-02</leafValues></_><_><internalNodes>0 -1 71 2.2931E-02</internalNodes><leafValues>-8.4447E-01 3.8738E-01</leafValues></_><_><internalNodes>0 -1 72 -3.4120E-02</internalNodes><leafValues>-1.4432E+00 9.8423E-02</leafValues></_><_><internalNodes>0 -1 73 2.6223E-02</internalNodes><leafValues>1.8223E-01 -1.2587E+00</leafValues></_><_><internalNodes>0 -1 74 2.2237E-02</internalNodes><leafValues>6.9808E-02 -2.3821E+00</leafValues></_><_><internalNodes>0 -1 75 -5.8240E-03</internalNodes><leafValues>3.9333E-01 -2.7543E-01</leafValues></_><_><internalNodes>0 -1 76 4.3653E-02</internalNodes><leafValues>1.4833E-01 -1.1369E+00</leafValues></_><_><internalNodes>0 -1 77 5.7267E-02</internalNodes><leafValues>2.4628E-01 -1.2687E+00</leafValues></_><_><internalNodes>0 -1 78 2.3410E-03</internalNodes><leafValues>-7.5449E-01 2.7164E-01</leafValues></_><_><internalNodes>0 -1 79 1.2996E-02</internalNodes><leafValues>-3.6395E-01 7.0959E-01</leafValues></_><_><internalNodes>0 -1 80 -2.6517E-02</internalNodes><leafValues>-2.3222E+00 3.5744E-02</leafValues></_><_><internalNodes>0 -1 81 -5.8400E-03</internalNodes><leafValues>4.2194E-01 -4.8185E-02</leafValues></_><_><internalNodes>0 -1 82 -1.6569E-02</internalNodes><leafValues>1.1100E+00 -3.4850E-01</leafValues></_><_><internalNodes>0 -1 83 -6.8157E-02</internalNodes><leafValues>-3.3270E+00 2.1299E-01</leafValues></_></weakClassifiers></_><_><maxWeakCount>52</maxWeakCount><stageThreshold>-4.3865E+00</stageThreshold><weakClassifiers><_><internalNodes>0 -1 84 3.9974E-02</internalNodes><leafValues>-1.2173E+00 1.0827E+00</leafValues></_><_><internalNodes>0 -1 85 1.8820E-01</internalNodes><leafValues>-4.8289E-01 1.4045E+00</leafValues></_><_><internalNodes>0 -1 86 7.8027E-02</internalNodes><leafValues>-1.0782E+00 7.4040E-01</leafValues></_><_><internalNodes>0 -1 87 1.1900E-04</internalNodes><leafValues>-1.2020E+00 3.7749E-01</leafValues></_><_><internalNodes>0 -1 88 8.5057E-02</internalNodes><leafValues>-4.3939E-01 1.2647E+00</leafValues></_><_><internalNodes>0 -1 89 8.9720E-03</internalNodes><leafValues>-1.8440E-01 4.5726E-01</leafValues></_><_><internalNodes>0 -1 90 8.8120E-03</internalNodes><leafValues>3.0397E-01 -9.5991E-01</leafValues></_><_><internalNodes>0 -1 91 -2.3508E-02</internalNodes><leafValues>1.2488E+00 4.6228E-02</leafValues></_><_><internalNodes>0 -1 92 7.0040E-03</internalNodes><leafValues>-5.9442E-01 5.3963E-01</leafValues></_><_><internalNodes>0 -1 93 3.3852E-02</internalNodes><leafValues>2.8496E-01 -1.4895E+00</leafValues></_><_><internalNodes>0 -1 94 -3.2530E-03</internalNodes><leafValues>4.8121E-01 -5.2712E-01</leafValues></_><_><internalNodes>0 -1 95 2.9097E-02</internalNodes><leafValues>2.6744E-01 -1.6008E+00</leafValues></_><_><internalNodes>0 -1 96 -8.4790E-03</internalNodes><leafValues>-1.3108E+00 1.5243E-01</leafValues></_><_><internalNodes>0 -1 97 -1.0795E-02</internalNodes><leafValues>4.5614E-01 -7.2051E-01</leafValues></_><_><internalNodes>0 -1 98 -2.4620E-02</internalNodes><leafValues>-1.7321E+00 6.8363E-02</leafValues></_><_><internalNodes>0 -1 99 3.7380E-03</internalNodes><leafValues>-1.9303E-01 6.8243E-01</leafValues></_><_><internalNodes>0 -1 100 -1.2264E-02</internalNodes><leafValues>-1.6095E+00 7.5268E-02</leafValues></_><_><internalNodes>0 -1 101 -4.8670E-03</internalNodes><leafValues>7.4287E-01 -2.1510E-01</leafValues></_><_><internalNodes>0 -1 102 7.6726E-02</internalNodes><leafValues>-2.6835E-01 1.3094E+00</leafValues></_><_><internalNodes>0 -1 103 2.8578E-02</internalNodes><leafValues>-5.8793E-02 1.2196E+00</leafValues></_><_><internalNodes>0 -1 104 1.9694E-02</internalNodes><leafValues>-3.5143E-01 8.4927E-01</leafValues></_><_><internalNodes>0 -1 105 -2.9094E-02</internalNodes><leafValues>-1.0507E+00 2.9806E-01</leafValues></_><_><internalNodes>0 -1 106 -2.9144E-02</internalNodes><leafValues>8.2548E-01 -3.2687E-01</leafValues></_><_><internalNodes>0 -1 107 1.9741E-02</internalNodes><leafValues>2.0453E-01 -8.3760E-01</leafValues></_><_><internalNodes>0 -1 108 4.3300E-03</internalNodes><leafValues>2.0578E-01 -6.6830E-01</leafValues></_><_><internalNodes>0 -1 109 -3.5501E-02</internalNodes><leafValues>-1.2970E+00 1.3897E-01</leafValues></_><_><internalNodes>0 -1 110 -1.6173E-02</internalNodes><leafValues>-1.3111E+00 7.5752E-02</leafValues></_><_><internalNodes>0 -1 111 -2.2151E-02</internalNodes><leafValues>-1.0524E+00 1.9241E-01</leafValues></_><_><internalNodes>0 -1 112 -2.2707E-02</internalNodes><leafValues>-1.3735E+00 6.6781E-02</leafValues></_><_><internalNodes>0 -1 113 1.6608E-02</internalNodes><leafValues>-3.7136E-02 7.7846E-01</leafValues></_><_><internalNodes>0 -1 114 -1.3309E-02</internalNodes><leafValues>-9.9851E-01 1.2248E-01</leafValues></_><_><internalNodes>0 -1 115 -3.3732E-02</internalNodes><leafValues>1.4461E+00 1.3152E-02</leafValues></_><_><internalNodes>0 -1 116 1.6935E-02</internalNodes><leafValues>-3.7121E-01 5.2842E-01</leafValues></_><_><internalNodes>0 -1 117 3.3260E-03</internalNodes><leafValues>-5.7569E-01 3.9262E-01</leafValues></_><_><internalNodes>0 -1 118 8.3644E-02</internalNodes><leafValues>1.6116E-02 -2.1173E+00</leafValues></_><_><internalNodes>0 -1 119 2.5785E-01</internalNodes><leafValues>-8.1609E-02 9.8782E-01</leafValues></_><_><internalNodes>0 -1 120 -3.6567E-02</internalNodes><leafValues>-1.1512E+00 9.6459E-02</leafValues></_><_><internalNodes>0 -1 121 -1.6446E-02</internalNodes><leafValues>3.7315E-01 -1.4585E-01</leafValues></_><_><internalNodes>0 -1 122 -3.7520E-03</internalNodes><leafValues>2.6179E-01 -5.8157E-01</leafValues></_><_><internalNodes>0 -1 123 -6.3660E-03</internalNodes><leafValues>7.5477E-01 -1.7055E-01</leafValues></_><_><internalNodes>0 -1 124 -3.8500E-03</internalNodes><leafValues>2.2654E-01 -6.3876E-01</leafValues></_><_><internalNodes>0 -1 125 -4.5494E-02</internalNodes><leafValues>-1.2640E+00 2.5261E-01</leafValues></_><_><internalNodes>0 -1 126 -2.3941E-02</internalNodes><leafValues>8.7068E-01 -2.7105E-01</leafValues></_><_><internalNodes>0 -1 127 -7.7558E-02</internalNodes><leafValues>-1.3902E+00 2.3612E-01</leafValues></_><_><internalNodes>0 -1 128 2.3614E-02</internalNodes><leafValues>6.6140E-02 -1.2645E+00</leafValues></_><_><internalNodes>0 -1 129 -2.5750E-03</internalNodes><leafValues>-5.3842E-01 3.0379E-01</leafValues></_><_><internalNodes>0 -1 130 1.2011E-01</internalNodes><leafValues>-3.5343E-01 5.2866E-01</leafValues></_><_><internalNodes>0 -1 131 2.2900E-03</internalNodes><leafValues>-5.8702E-01 2.4061E-01</leafValues></_><_><internalNodes>0 -1 132 6.9717E-02</internalNodes><leafValues>-3.3349E-01 5.1916E-01</leafValues></_><_><internalNodes>0 -1 133 -4.6670E-02</internalNodes><leafValues>6.9795E-01 -1.4896E-02</leafValues></_><_><internalNodes>0 -1 134 -5.0129E-02</internalNodes><leafValues>8.6146E-01 -2.5986E-01</leafValues></_><_><internalNodes>0 -1 135 3.0148E-02</internalNodes><leafValues>1.9333E-01 -5.9131E-01</leafValues></_></weakClassifiers></_><_><maxWeakCount>53</maxWeakCount><stageThreshold>-4.1299E+00</stageThreshold><weakClassifiers><_><internalNodes>0 -1 136 9.1085E-02</internalNodes><leafValues>-8.9233E-01 1.0434E+00</leafValues></_><_><internalNodes>0 -1 137 1.2819E-02</internalNodes><leafValues>-1.2598E+00 5.5317E-01</leafValues></_><_><internalNodes>0 -1 138 1.5932E-02</internalNodes><leafValues>-8.6254E-01 6.3732E-01</leafValues></_><_><internalNodes>0 -1 139 2.2780E-03</internalNodes><leafValues>-7.4639E-01 5.3156E-01</leafValues></_><_><internalNodes>0 -1 140 3.1841E-02</internalNodes><leafValues>-1.2650E+00 3.6154E-01</leafValues></_><_><internalNodes>0 -1 141 2.6960E-03</internalNodes><leafValues>-9.8290E-01 3.6013E-01</leafValues></_><_><internalNodes>0 -1 142 -1.2055E-02</internalNodes><leafValues>6.4068E-01 -5.0125E-01</leafValues></_><_><internalNodes>0 -1 143 2.1325E-02</internalNodes><leafValues>-2.4035E-01 8.5448E-01</leafValues></_><_><internalNodes>0 -1 144 3.0486E-02</internalNodes><leafValues>-3.4274E-01 1.1429E+00</leafValues></_><_><internalNodes>0 -1 145 -4.5080E-02</internalNodes><leafValues>1.0977E+00 -1.7975E-01</leafValues></_><_><internalNodes>0 -1 146 -7.1701E-02</internalNodes><leafValues>1.5735E+00 -3.1433E-01</leafValues></_><_><internalNodes>0 -1 147 5.9218E-02</internalNodes><leafValues>-2.7582E-01 1.0449E+00</leafValues></_><_><internalNodes>0 -1 148 6.7010E-03</internalNodes><leafValues>-1.0974E+00 1.9801E-01</leafValues></_><_><internalNodes>0 -1 149 4.1047E-02</internalNodes><leafValues>3.0548E-01 -1.3288E+00</leafValues></_><_><internalNodes>0 -1 150 -8.5500E-04</internalNodes><leafValues>2.5807E-01 -7.0053E-01</leafValues></_><_><internalNodes>0 -1 151 -3.0360E-02</internalNodes><leafValues>-1.2306E+00 2.2609E-01</leafValues></_><_><internalNodes>0 -1 152 -1.2930E-02</internalNodes><leafValues>4.0759E-01 -5.1235E-01</leafValues></_><_><internalNodes>0 -1 153 3.7368E-02</internalNodes><leafValues>-9.4755E-02 6.1765E-01</leafValues></_><_><internalNodes>0 -1 154 2.4434E-02</internalNodes><leafValues>-4.1101E-01 4.7631E-01</leafValues></_><_><internalNodes>0 -1 155 5.7008E-02</internalNodes><leafValues>2.5249E-01 -6.8670E-01</leafValues></_><_><internalNodes>0 -1 156 -1.6314E-02</internalNodes><leafValues>-9.3928E-01 1.1448E-01</leafValues></_><_><internalNodes>0 -1 157 -1.7649E-01</internalNodes><leafValues>1.2451E+00 -5.6519E-02</leafValues></_><_><internalNodes>0 -1 158 1.7615E-01</internalNodes><leafValues>-3.2528E-01 8.2792E-01</leafValues></_><_><internalNodes>0 -1 159 -7.3910E-03</internalNodes><leafValues>3.4784E-01 -1.7929E-01</leafValues></_><_><internalNodes>0 -1 160 6.0891E-02</internalNodes><leafValues>5.5098E-02 -1.5481E+00</leafValues></_><_><internalNodes>0 -1 161 -2.9123E-02</internalNodes><leafValues>-1.0256E+00 2.4107E-01</leafValues></_><_><internalNodes>0 -1 162 -4.5649E-02</internalNodes><leafValues>1.0302E+00 -3.1672E-01</leafValues></_><_><internalNodes>0 -1 163 3.7333E-02</internalNodes><leafValues>2.1621E-01 -8.2590E-01</leafValues></_><_><internalNodes>0 -1 164 -2.4411E-02</internalNodes><leafValues>-1.5958E+00 5.1139E-02</leafValues></_><_><internalNodes>0 -1 165 -5.9807E-02</internalNodes><leafValues>-1.0312E+00 1.3092E-01</leafValues></_><_><internalNodes>0 -1 166 -3.0106E-02</internalNodes><leafValues>-1.4782E+00 3.7212E-02</leafValues></_><_><internalNodes>0 -1 167 7.4210E-03</internalNodes><leafValues>-2.4024E-01 4.9334E-01</leafValues></_><_><internalNodes>0 -1 168 -2.1910E-03</internalNodes><leafValues>2.8942E-01 -5.7260E-01</leafValues></_><_><internalNodes>0 -1 169 2.0861E-02</internalNodes><leafValues>-2.3148E-01 6.3766E-01</leafValues></_><_><internalNodes>0 -1 170 -6.6990E-03</internalNodes><leafValues>-1.2108E+00 6.4018E-02</leafValues></_><_><internalNodes>0 -1 171 1.8758E-02</internalNodes><leafValues>2.4461E-01 -9.9787E-01</leafValues></_><_><internalNodes>0 -1 172 -4.4323E-02</internalNodes><leafValues>-1.3699E+00 3.6052E-02</leafValues></_><_><internalNodes>0 -1 173 2.2860E-02</internalNodes><leafValues>2.1288E-01 -1.0398E+00</leafValues></_><_><internalNodes>0 -1 174 -9.8600E-04</internalNodes><leafValues>3.2444E-01 -5.4292E-01</leafValues></_><_><internalNodes>0 -1 175 1.7239E-02</internalNodes><leafValues>-2.8324E-01 4.4468E-01</leafValues></_><_><internalNodes>0 -1 176 -3.4531E-02</internalNodes><leafValues>-2.3107E+00 -3.1400E-03</leafValues></_><_><internalNodes>0 -1 177 6.7007E-02</internalNodes><leafValues>2.8716E-01 -6.4481E-01</leafValues></_><_><internalNodes>0 -1 178 2.3777E-01</internalNodes><leafValues>-2.7175E-01 8.0219E-01</leafValues></_><_><internalNodes>0 -1 179 -1.2903E-02</internalNodes><leafValues>-1.5318E+00 2.1424E-01</leafValues></_><_><internalNodes>0 -1 180 1.0515E-02</internalNodes><leafValues>7.7038E-02 -1.0581E+00</leafValues></_><_><internalNodes>0 -1 181 1.6969E-02</internalNodes><leafValues>1.4307E-01 -8.5828E-01</leafValues></_><_><internalNodes>0 -1 182 -7.2460E-03</internalNodes><leafValues>-1.1020E+00 6.4907E-02</leafValues></_><_><internalNodes>0 -1 183 1.0557E-02</internalNodes><leafValues>1.3964E-02 6.3601E-01</leafValues></_><_><internalNodes>0 -1 184 6.1380E-03</internalNodes><leafValues>-3.4546E-01 5.6297E-01</leafValues></_><_><internalNodes>0 -1 185 1.3158E-02</internalNodes><leafValues>1.9927E-01 -1.5040E+00</leafValues></_><_><internalNodes>0 -1 186 3.1310E-03</internalNodes><leafValues>-4.0904E-01 3.7796E-01</leafValues></_><_><internalNodes>0 -1 187 -1.0921E-01</internalNodes><leafValues>-2.2227E+00 1.2178E-01</leafValues></_><_><internalNodes>0 -1 188 8.1820E-03</internalNodes><leafValues>-2.8652E-01 6.7891E-01</leafValues></_></weakClassifiers></_><_><maxWeakCount>62</maxWeakCount><stageThreshold>-4.0218E+00</stageThreshold><weakClassifiers><_><internalNodes>0 -1 189 3.1347E-02</internalNodes><leafValues>-8.8885E-01 9.4937E-01</leafValues></_><_><internalNodes>0 -1 190 3.1918E-02</internalNodes><leafValues>-1.1147E+00 4.8889E-01</leafValues></_><_><internalNodes>0 -1 191 6.5940E-03</internalNodes><leafValues>-1.0098E+00 4.9724E-01</leafValues></_><_><internalNodes>0 -1 192 2.6148E-02</internalNodes><leafValues>2.5991E-01 -1.2537E+00</leafValues></_><_><internalNodes>0 -1 193 1.2845E-02</internalNodes><leafValues>-5.7139E-01 5.9659E-01</leafValues></_><_><internalNodes>0 -1 194 2.6345E-02</internalNodes><leafValues>-5.5203E-01 3.0217E-01</leafValues></_><_><internalNodes>0 -1 195 -1.5083E-02</internalNodes><leafValues>-1.2871E+00 2.2354E-01</leafValues></_><_><internalNodes>0 -1 196 -3.8887E-02</internalNodes><leafValues>1.7425E+00 -9.9747E-02</leafValues></_><_><internalNodes>0 -1 197 -5.7030E-03</internalNodes><leafValues>-1.0523E+00 1.8363E-01</leafValues></_><_><internalNodes>0 -1 198 -1.4860E-03</internalNodes><leafValues>5.6784E-01 -4.6742E-01</leafValues></_><_><internalNodes>0 -1 199 -2.8486E-02</internalNodes><leafValues>1.3083E+00 -2.6461E-01</leafValues></_><_><internalNodes>0 -1 200 6.6225E-02</internalNodes><leafValues>-4.6211E-01 4.1750E-01</leafValues></_><_><internalNodes>0 -1 201 8.8570E-03</internalNodes><leafValues>-4.1475E-01 5.9205E-01</leafValues></_><_><internalNodes>0 -1 202 1.1356E-02</internalNodes><leafValues>3.6103E-01 -4.5781E-01</leafValues></_><_><internalNodes>0 -1 203 -2.7680E-03</internalNodes><leafValues>-8.9239E-01 1.4199E-01</leafValues></_><_><internalNodes>0 -1 204 1.1247E-02</internalNodes><leafValues>2.9353E-01 -9.7331E-01</leafValues></_><_><internalNodes>0 -1 205 7.1970E-03</internalNodes><leafValues>-7.9335E-01 1.8313E-01</leafValues></_><_><internalNodes>0 -1 206 3.1769E-02</internalNodes><leafValues>1.5523E-01 -1.3246E+00</leafValues></_><_><internalNodes>0 -1 207 2.5174E-02</internalNodes><leafValues>3.4215E-02 -2.0948E+00</leafValues></_><_><internalNodes>0 -1 208 7.5360E-03</internalNodes><leafValues>-3.9451E-01 5.1334E-01</leafValues></_><_><internalNodes>0 -1 209 3.2873E-02</internalNodes><leafValues>8.8373E-02 -1.2814E+00</leafValues></_><_><internalNodes>0 -1 210 -2.7380E-03</internalNodes><leafValues>5.5287E-01 -4.6385E-01</leafValues></_><_><internalNodes>0 -1 211 -3.8075E-02</internalNodes><leafValues>-1.8497E+00 4.5944E-02</leafValues></_><_><internalNodes>0 -1 212 -3.8984E-02</internalNodes><leafValues>-4.8224E-01 3.4761E-01</leafValues></_><_><internalNodes>0 -1 213 2.8030E-03</internalNodes><leafValues>-4.5155E-01 4.2806E-01</leafValues></_><_><internalNodes>0 -1 214 -5.4146E-02</internalNodes><leafValues>-8.4521E-01 1.6675E-01</leafValues></_><_><internalNodes>0 -1 215 -8.3280E-03</internalNodes><leafValues>3.5348E-01 -4.7163E-01</leafValues></_><_><internalNodes>0 -1 216 3.3778E-02</internalNodes><leafValues>1.8463E-01 -1.6687E+00</leafValues></_><_><internalNodes>0 -1 217 -1.1238E-01</internalNodes><leafValues>-1.2522E+00 3.5992E-02</leafValues></_><_><internalNodes>0 -1 218 -1.0408E-02</internalNodes><leafValues>-8.1620E-01 2.3429E-01</leafValues></_><_><internalNodes>0 -1 219 -4.9440E-03</internalNodes><leafValues>-9.2585E-01 1.0035E-01</leafValues></_><_><internalNodes>0 -1 220 -9.3030E-03</internalNodes><leafValues>5.6499E-01 -1.8882E-01</leafValues></_><_><internalNodes>0 -1 221 -1.1750E-02</internalNodes><leafValues>8.0302E-01 -3.8277E-01</leafValues></_><_><internalNodes>0 -1 222 -2.3217E-02</internalNodes><leafValues>-8.4927E-01 1.9671E-01</leafValues></_><_><internalNodes>0 -1 223 1.6866E-02</internalNodes><leafValues>-4.0592E-01 5.0695E-01</leafValues></_><_><internalNodes>0 -1 224 -2.4031E-02</internalNodes><leafValues>-1.5298E+00 2.3345E-01</leafValues></_><_><internalNodes>0 -1 225 -3.6946E-02</internalNodes><leafValues>6.3008E-01 -3.1780E-01</leafValues></_><_><internalNodes>0 -1 226 -6.1564E-02</internalNodes><leafValues>5.8628E-01 -1.2108E-02</leafValues></_><_><internalNodes>0 -1 227 2.1661E-02</internalNodes><leafValues>-2.5624E-01 1.0410E+00</leafValues></_><_><internalNodes>0 -1 228 -3.6710E-03</internalNodes><leafValues>2.9171E-01 -8.3287E-01</leafValues></_><_><internalNodes>0 -1 229 4.4849E-02</internalNodes><leafValues>-3.9633E-01 4.5662E-01</leafValues></_><_><internalNodes>0 -1 230 5.7195E-02</internalNodes><leafValues>2.1024E-01 -1.5005E+00</leafValues></_><_><internalNodes>0 -1 231 -1.1342E-02</internalNodes><leafValues>4.4071E-01 -3.8654E-01</leafValues></_><_><internalNodes>0 -1 232 -1.2004E-02</internalNodes><leafValues>9.3955E-01 -1.0589E-01</leafValues></_><_><internalNodes>0 -1 233 2.2516E-02</internalNodes><leafValues>9.4480E-03 -1.6800E+00</leafValues></_><_><internalNodes>0 -1 234 -1.9809E-02</internalNodes><leafValues>-1.0134E+00 2.4147E-01</leafValues></_><_><internalNodes>0 -1 235 1.5891E-02</internalNodes><leafValues>-3.7508E-01 4.6614E-01</leafValues></_><_><internalNodes>0 -1 236 -9.1420E-03</internalNodes><leafValues>-8.0484E-01 1.7817E-01</leafValues></_><_><internalNodes>0 -1 237 -4.4740E-03</internalNodes><leafValues>-1.0562E+00 7.3305E-02</leafValues></_><_><internalNodes>0 -1 238 1.2743E-01</internalNodes><leafValues>2.0166E-01 -1.5468E+00</leafValues></_><_><internalNodes>0 -1 239 4.7703E-02</internalNodes><leafValues>-3.7938E-01 3.7886E-01</leafValues></_><_><internalNodes>0 -1 240 5.3608E-02</internalNodes><leafValues>2.1220E-01 -1.2400E+00</leafValues></_><_><internalNodes>0 -1 241 -3.9681E-02</internalNodes><leafValues>-1.0258E+00 5.1283E-02</leafValues></_><_><internalNodes>0 -1 242 -6.7327E-02</internalNodes><leafValues>-1.0305E+00 2.3005E-01</leafValues></_><_><internalNodes>0 -1 243 1.3338E-01</internalNodes><leafValues>-2.0869E-01 1.2273E+00</leafValues></_><_><internalNodes>0 -1 244 -2.0919E-01</internalNodes><leafValues>8.7930E-01 -4.4255E-02</leafValues></_><_><internalNodes>0 -1 245 -6.5589E-02</internalNodes><leafValues>1.0443E+00 -2.1682E-01</leafValues></_><_><internalNodes>0 -1 246 6.1883E-02</internalNodes><leafValues>1.3798E-01 -1.9009E+00</leafValues></_><_><internalNodes>0 -1 247 -2.5579E-02</internalNodes><leafValues>-1.6608E+00 5.8440E-03</leafValues></_><_><internalNodes>0 -1 248 -3.4827E-02</internalNodes><leafValues>7.9940E-01 -8.2407E-02</leafValues></_><_><internalNodes>0 -1 249 -1.8210E-02</internalNodes><leafValues>-9.6074E-01 6.6320E-02</leafValues></_><_><internalNodes>0 -1 250 1.5071E-02</internalNodes><leafValues>1.9899E-01 -7.6433E-01</leafValues></_></weakClassifiers></_><_><maxWeakCount>72</maxWeakCount><stageThreshold>-3.8832E+00</stageThreshold><weakClassifiers><_><internalNodes>0 -1 251 4.6325E-02</internalNodes><leafValues>-1.0363E+00 8.2201E-01</leafValues></_><_><internalNodes>0 -1 252 1.5407E-02</internalNodes><leafValues>-1.2328E+00 2.9648E-01</leafValues></_><_><internalNodes>0 -1 253 1.2809E-02</internalNodes><leafValues>-7.5852E-01 5.7986E-01</leafValues></_><_><internalNodes>0 -1 254 4.9151E-02</internalNodes><leafValues>-3.8984E-01 8.9680E-01</leafValues></_><_><internalNodes>0 -1 255 1.2621E-02</internalNodes><leafValues>-7.1799E-01 5.0441E-01</leafValues></_><_><internalNodes>0 -1 256 -1.8769E-02</internalNodes><leafValues>5.5148E-01 -7.0555E-01</leafValues></_><_><internalNodes>0 -1 257 4.1965E-02</internalNodes><leafValues>-4.4782E-01 7.0986E-01</leafValues></_><_><internalNodes>0 -1 258 -5.1402E-02</internalNodes><leafValues>-1.0932E+00 2.6702E-01</leafValues></_><_><internalNodes>0 -1 259 -7.0961E-02</internalNodes><leafValues>8.3618E-01 -3.8318E-01</leafValues></_><_><internalNodes>0 -1 260 1.6746E-02</internalNodes><leafValues>-2.5733E-01 2.5967E-01</leafValues></_><_><internalNodes>0 -1 261 -6.2400E-03</internalNodes><leafValues>3.1631E-01 -5.8797E-01</leafValues></_><_><internalNodes>0 -1 262 -3.9398E-02</internalNodes><leafValues>-1.0491E+00 1.6822E-01</leafValues></_><_><internalNodes>0 -1 263 0.</internalNodes><leafValues>1.6144E-01 -8.7877E-01</leafValues></_><_><internalNodes>0 -1 264 -2.2308E-02</internalNodes><leafValues>-6.9054E-01 2.3607E-01</leafValues></_><_><internalNodes>0 -1 265 1.8920E-03</internalNodes><leafValues>2.4989E-01 -5.6583E-01</leafValues></_><_><internalNodes>0 -1 266 1.0730E-03</internalNodes><leafValues>-5.0416E-01 3.8375E-01</leafValues></_><_><internalNodes>0 -1 267 3.9231E-02</internalNodes><leafValues>4.2619E-02 -1.3876E+00</leafValues></_><_><internalNodes>0 -1 268 6.2238E-02</internalNodes><leafValues>1.4119E-01 -1.0689E+00</leafValues></_><_><internalNodes>0 -1 269 2.1400E-03</internalNodes><leafValues>-8.9622E-01 1.9796E-01</leafValues></_><_><internalNodes>0 -1 270 9.1800E-04</internalNodes><leafValues>-4.5337E-01 4.3533E-01</leafValues></_><_><internalNodes>0 -1 271 -6.9170E-03</internalNodes><leafValues>3.3823E-01 -4.4793E-01</leafValues></_><_><internalNodes>0 -1 272 -2.3867E-02</internalNodes><leafValues>-7.8909E-01 2.2512E-01</leafValues></_><_><internalNodes>0 -1 273 -1.0263E-01</internalNodes><leafValues>-2.2831E+00 -5.3960E-03</leafValues></_><_><internalNodes>0 -1 274 -9.5240E-03</internalNodes><leafValues>3.9347E-01 -5.2242E-01</leafValues></_><_><internalNodes>0 -1 275 3.9877E-02</internalNodes><leafValues>3.2799E-02 -1.5079E+00</leafValues></_><_><internalNodes>0 -1 276 -1.3145E-02</internalNodes><leafValues>-1.0840E+00 1.8482E-01</leafValues></_><_><internalNodes>0 -1 277 -5.0591E-02</internalNodes><leafValues>-1.8822E+00 -2.2200E-03</leafValues></_><_><internalNodes>0 -1 278 2.4917E-02</internalNodes><leafValues>1.4593E-01 -2.2197E+00</leafValues></_><_><internalNodes>0 -1 279 -7.6370E-03</internalNodes><leafValues>-1.0165E+00 5.8797E-02</leafValues></_><_><internalNodes>0 -1 280 4.2912E-02</internalNodes><leafValues>1.5443E-01 -1.1844E+00</leafValues></_><_><internalNodes>0 -1 281 2.3000E-04</internalNodes><leafValues>-7.7306E-01 1.2190E-01</leafValues></_><_><internalNodes>0 -1 282 9.0930E-03</internalNodes><leafValues>-1.1450E-01 7.1091E-01</leafValues></_><_><internalNodes>0 -1 283 1.1145E-02</internalNodes><leafValues>7.0001E-02 -1.0535E+00</leafValues></_><_><internalNodes>0 -1 284 -5.2453E-02</internalNodes><leafValues>-1.7594E+00 1.9524E-01</leafValues></_><_><internalNodes>0 -1 285 -2.3021E-01</internalNodes><leafValues>9.5840E-01 -2.5046E-01</leafValues></_><_><internalNodes>0 -1 286 -1.6366E-02</internalNodes><leafValues>4.6732E-01 -2.1108E-01</leafValues></_><_><internalNodes>0 -1 287 -1.7208E-02</internalNodes><leafValues>7.0836E-01 -2.8018E-01</leafValues></_><_><internalNodes>0 -1 288 -3.6648E-02</internalNodes><leafValues>-1.1013E+00 2.4341E-01</leafValues></_><_><internalNodes>0 -1 289 -1.0305E-02</internalNodes><leafValues>-1.0933E+00 5.6259E-02</leafValues></_><_><internalNodes>0 -1 290 -1.3713E-02</internalNodes><leafValues>-2.6438E-01 1.9821E-01</leafValues></_><_><internalNodes>0 -1 291 2.9308E-02</internalNodes><leafValues>-2.2142E-01 1.0526E+00</leafValues></_><_><internalNodes>0 -1 292 2.4077E-02</internalNodes><leafValues>1.8486E-01 -1.7204E+00</leafValues></_><_><internalNodes>0 -1 293 6.1280E-03</internalNodes><leafValues>-9.2721E-01 5.8753E-02</leafValues></_><_><internalNodes>0 -1 294 -2.2378E-02</internalNodes><leafValues>1.9647E+00 2.7786E-02</leafValues></_><_><internalNodes>0 -1 295 -7.0440E-03</internalNodes><leafValues>2.1428E-01 -4.8408E-01</leafValues></_><_><internalNodes>0 -1 296 -4.0603E-02</internalNodes><leafValues>-1.1754E+00 1.6061E-01</leafValues></_><_><internalNodes>0 -1 297 -2.4466E-02</internalNodes><leafValues>-1.1240E+00 4.1110E-02</leafValues></_><_><internalNodes>0 -1 298 2.5310E-03</internalNodes><leafValues>-1.7170E-01 3.2179E-01</leafValues></_><_><internalNodes>0 -1 299 -1.9589E-02</internalNodes><leafValues>8.2720E-01 -2.6377E-01</leafValues></_><_><internalNodes>0 -1 300 -2.9636E-02</internalNodes><leafValues>-1.1525E+00 1.4999E-01</leafValues></_><_><internalNodes>0 -1 301 -1.5030E-02</internalNodes><leafValues>-1.0492E+00 4.0161E-02</leafValues></_><_><internalNodes>0 -1 302 -6.0715E-02</internalNodes><leafValues>-1.0904E+00 1.5331E-01</leafValues></_><_><internalNodes>0 -1 303 -1.2790E-02</internalNodes><leafValues>4.2249E-01 -4.2399E-01</leafValues></_><_><internalNodes>0 -1 304 -2.0248E-02</internalNodes><leafValues>-9.1867E-01 1.8486E-01</leafValues></_><_><internalNodes>0 -1 305 -3.0684E-02</internalNodes><leafValues>-1.5959E+00 2.5760E-03</leafValues></_><_><internalNodes>0 -1 306 -2.0718E-02</internalNodes><leafValues>-6.6300E-01 3.1037E-01</leafValues></_><_><internalNodes>0 -1 307 -1.7290E-03</internalNodes><leafValues>1.9183E-01 -6.5085E-01</leafValues></_><_><internalNodes>0 -1 308 -3.1394E-02</internalNodes><leafValues>-6.3643E-01 1.5408E-01</leafValues></_><_><internalNodes>0 -1 309 1.9003E-02</internalNodes><leafValues>-1.8919E-01 1.5295E+00</leafValues></_><_><internalNodes>0 -1 310 6.1770E-03</internalNodes><leafValues>-1.0598E-01 6.4860E-01</leafValues></_><_><internalNodes>0 -1 311 -1.0166E-02</internalNodes><leafValues>-1.0803E+00 3.7176E-02</leafValues></_><_><internalNodes>0 -1 312 -1.4170E-03</internalNodes><leafValues>3.4157E-01 -9.7738E-02</leafValues></_><_><internalNodes>0 -1 313 -4.0800E-03</internalNodes><leafValues>4.7625E-01 -3.4366E-01</leafValues></_><_><internalNodes>0 -1 314 -4.4097E-02</internalNodes><leafValues>9.7634E-01 -1.9173E-02</leafValues></_><_><internalNodes>0 -1 315 -6.0670E-02</internalNodes><leafValues>-2.1753E+00 -2.8926E-02</leafValues></_><_><internalNodes>0 -1 316 -3.2932E-02</internalNodes><leafValues>-6.4383E-01 1.6494E-01</leafValues></_><_><internalNodes>0 -1 317 -1.4723E-01</internalNodes><leafValues>-1.4746E+00 2.5840E-03</leafValues></_><_><internalNodes>0 -1 318 -1.1930E-02</internalNodes><leafValues>4.2441E-01 -1.7713E-01</leafValues></_><_><internalNodes>0 -1 319 1.4518E-01</internalNodes><leafValues>2.5445E-02 -1.2779E+00</leafValues></_><_><internalNodes>0 -1 320 5.1448E-02</internalNodes><leafValues>1.5678E-01 -1.5188E+00</leafValues></_><_><internalNodes>0 -1 321 3.1480E-03</internalNodes><leafValues>-4.0424E-01 3.2430E-01</leafValues></_><_><internalNodes>0 -1 322 -4.3600E-02</internalNodes><leafValues>-1.9932E+00 1.5019E-01</leafValues></_></weakClassifiers></_><_><maxWeakCount>83</maxWeakCount><stageThreshold>-3.8425E+00</stageThreshold><weakClassifiers><_><internalNodes>0 -1 323 1.2900E-01</internalNodes><leafValues>-6.2162E-01 1.1117E+00</leafValues></_><_><internalNodes>0 -1 324 -9.1262E-02</internalNodes><leafValues>1.0143E+00 -6.1335E-01</leafValues></_><_><internalNodes>0 -1 325 1.4272E-02</internalNodes><leafValues>-1.0262E+00 3.9780E-01</leafValues></_><_><internalNodes>0 -1 326 3.2890E-02</internalNodes><leafValues>-1.1386E+00 2.8691E-01</leafValues></_><_><internalNodes>0 -1 327 1.2590E-02</internalNodes><leafValues>-5.6646E-01 4.5172E-01</leafValues></_><_><internalNodes>0 -1 328 1.4661E-02</internalNodes><leafValues>3.0506E-01 -6.8130E-01</leafValues></_><_><internalNodes>0 -1 329 -3.3556E-02</internalNodes><leafValues>-1.7209E+00 6.1439E-02</leafValues></_><_><internalNodes>0 -1 330 1.4253E-01</internalNodes><leafValues>2.3192E-01 -1.7297E+00</leafValues></_><_><internalNodes>0 -1 331 -6.2080E-03</internalNodes><leafValues>-1.2163E+00 1.2160E-01</leafValues></_><_><internalNodes>0 -1 332 1.8179E-02</internalNodes><leafValues>3.2554E-01 -8.1004E-01</leafValues></_><_><internalNodes>0 -1 333 2.5037E-02</internalNodes><leafValues>-3.1699E-01 6.7361E-01</leafValues></_><_><internalNodes>0 -1 334 4.6561E-02</internalNodes><leafValues>-1.1090E-01 8.4083E-01</leafValues></_><_><internalNodes>0 -1 335 -9.0000E-03</internalNodes><leafValues>3.9575E-01 -4.7625E-01</leafValues></_><_><internalNodes>0 -1 336 4.0806E-02</internalNodes><leafValues>-1.8000E-04 9.4571E-01</leafValues></_><_><internalNodes>0 -1 337 -3.4222E-02</internalNodes><leafValues>7.5206E-01 -3.1532E-01</leafValues></_><_><internalNodes>0 -1 338 -3.9716E-02</internalNodes><leafValues>-8.3140E-01 1.7744E-01</leafValues></_><_><internalNodes>0 -1 339 2.5170E-03</internalNodes><leafValues>-5.9378E-01 2.4657E-01</leafValues></_><_><internalNodes>0 -1 340 2.7429E-02</internalNodes><leafValues>1.5998E-01 -4.2782E-01</leafValues></_><_><internalNodes>0 -1 341 3.4986E-02</internalNodes><leafValues>3.5056E-02 -1.5989E+00</leafValues></_><_><internalNodes>0 -1 342 4.4970E-03</internalNodes><leafValues>-5.2034E-01 3.7828E-01</leafValues></_><_><internalNodes>0 -1 343 2.7700E-03</internalNodes><leafValues>-5.3183E-01 2.4951E-01</leafValues></_><_><internalNodes>0 -1 344 3.5174E-02</internalNodes><leafValues>1.9983E-01 -1.4446E+00</leafValues></_><_><internalNodes>0 -1 345 2.5971E-02</internalNodes><leafValues>4.4427E-02 -1.3623E+00</leafValues></_><_><internalNodes>0 -1 346 -1.5784E-02</internalNodes><leafValues>-9.1020E-01 2.7190E-01</leafValues></_><_><internalNodes>0 -1 347 -7.5880E-03</internalNodes><leafValues>9.2065E-02 -8.1629E-01</leafValues></_><_><internalNodes>0 -1 348 2.0754E-02</internalNodes><leafValues>2.1186E-01 -7.4729E-01</leafValues></_><_><internalNodes>0 -1 349 5.9829E-02</internalNodes><leafValues>-2.7301E-01 8.0923E-01</leafValues></_><_><internalNodes>0 -1 350 3.9039E-02</internalNodes><leafValues>-1.0432E-01 8.6226E-01</leafValues></_><_><internalNodes>0 -1 351 2.1666E-02</internalNodes><leafValues>6.2709E-02 -9.8894E-01</leafValues></_><_><internalNodes>0 -1 352 -2.7497E-02</internalNodes><leafValues>-9.2691E-01 1.5586E-01</leafValues></_><_><internalNodes>0 -1 353 1.0462E-02</internalNodes><leafValues>1.3418E-01 -7.0386E-01</leafValues></_><_><internalNodes>0 -1 354 2.4871E-02</internalNodes><leafValues>1.9707E-01 -4.0263E-01</leafValues></_><_><internalNodes>0 -1 355 -1.6036E-02</internalNodes><leafValues>-1.1410E+00 7.3998E-02</leafValues></_><_><internalNodes>0 -1 356 4.8627E-02</internalNodes><leafValues>1.6990E-01 -7.2152E-01</leafValues></_><_><internalNodes>0 -1 357 1.2620E-03</internalNodes><leafValues>-4.7390E-01 2.6255E-01</leafValues></_><_><internalNodes>0 -1 358 -8.8035E-02</internalNodes><leafValues>-2.1607E+00 1.4555E-01</leafValues></_><_><internalNodes>0 -1 359 1.8357E-02</internalNodes><leafValues>4.4751E-02 -1.0766E+00</leafValues></_><_><internalNodes>0 -1 360 3.5275E-02</internalNodes><leafValues>-3.2919E-02 1.2154E+00</leafValues></_><_><internalNodes>0 -1 361 -2.0393E-01</internalNodes><leafValues>-1.3188E+00 1.5504E-02</leafValues></_><_><internalNodes>0 -1 362 -1.6619E-02</internalNodes><leafValues>3.6850E-01 -1.5284E-01</leafValues></_><_><internalNodes>0 -1 363 3.7739E-02</internalNodes><leafValues>-2.5728E-01 7.0655E-01</leafValues></_><_><internalNodes>0 -1 364 2.2720E-03</internalNodes><leafValues>-7.7603E-02 3.3368E-01</leafValues></_><_><internalNodes>0 -1 365 -1.4803E-02</internalNodes><leafValues>-7.8525E-01 7.6934E-02</leafValues></_><_><internalNodes>0 -1 366 -4.8319E-02</internalNodes><leafValues>1.7022E+00 4.9722E-02</leafValues></_><_><internalNodes>0 -1 367 -2.9539E-02</internalNodes><leafValues>7.7671E-01 -2.4534E-01</leafValues></_><_><internalNodes>0 -1 368 -4.6169E-02</internalNodes><leafValues>-1.4923E+00 1.2340E-01</leafValues></_><_><internalNodes>0 -1 369 -2.8065E-02</internalNodes><leafValues>-2.1345E+00 -2.5797E-02</leafValues></_><_><internalNodes>0 -1 370 -5.7340E-03</internalNodes><leafValues>5.6983E-01 -1.2057E-01</leafValues></_><_><internalNodes>0 -1 371 -1.0111E-02</internalNodes><leafValues>6.7911E-01 -2.6638E-01</leafValues></_><_><internalNodes>0 -1 372 1.1360E-02</internalNodes><leafValues>2.4790E-01 -6.4493E-01</leafValues></_><_><internalNodes>0 -1 373 5.1809E-02</internalNodes><leafValues>1.4716E-02 -1.2396E+00</leafValues></_><_><internalNodes>0 -1 374 3.3292E-02</internalNodes><leafValues>-8.2560E-03 1.0168E+00</leafValues></_><_><internalNodes>0 -1 375 -1.4494E-02</internalNodes><leafValues>4.5067E-01 -3.6251E-01</leafValues></_><_><internalNodes>0 -1 376 -3.4222E-02</internalNodes><leafValues>-9.5293E-01 2.0685E-01</leafValues></_><_><internalNodes>0 -1 377 -8.0654E-02</internalNodes><leafValues>-2.0140E+00 -2.3085E-02</leafValues></_><_><internalNodes>0 -1 378 -8.9400E-04</internalNodes><leafValues>3.9572E-01 -2.9351E-01</leafValues></_><_><internalNodes>0 -1 379 9.7162E-02</internalNodes><leafValues>-2.4980E-01 1.0859E+00</leafValues></_><_><internalNodes>0 -1 380 3.6614E-02</internalNodes><leafValues>-5.7844E-02 1.2162E+00</leafValues></_><_><internalNodes>0 -1 381 5.1694E-02</internalNodes><leafValues>4.3063E-02 -1.0636E+00</leafValues></_><_><internalNodes>0 -1 382 -2.4557E-02</internalNodes><leafValues>-4.8947E-01 1.7183E-01</leafValues></_><_><internalNodes>0 -1 383 3.2737E-01</internalNodes><leafValues>-2.9689E-01 5.1798E-01</leafValues></_><_><internalNodes>0 -1 384 7.6960E-03</internalNodes><leafValues>-5.9806E-01 2.4803E-01</leafValues></_><_><internalNodes>0 -1 385 1.6172E-01</internalNodes><leafValues>-2.9614E-02 -2.3163E+00</leafValues></_><_><internalNodes>0 -1 386 -4.7890E-03</internalNodes><leafValues>3.7458E-01 -3.2779E-01</leafValues></_><_><internalNodes>0 -1 387 -1.8403E-02</internalNodes><leafValues>-9.9693E-01 7.2948E-02</leafValues></_><_><internalNodes>0 -1 388 7.7665E-02</internalNodes><leafValues>1.4176E-01 -1.7239E+00</leafValues></_><_><internalNodes>0 -1 389 1.8921E-02</internalNodes><leafValues>-2.1273E-01 1.0165E+00</leafValues></_><_><internalNodes>0 -1 390 -7.9398E-02</internalNodes><leafValues>-1.3164E+00 1.4982E-01</leafValues></_><_><internalNodes>0 -1 391 -6.8037E-02</internalNodes><leafValues>4.9422E-01 -2.9091E-01</leafValues></_><_><internalNodes>0 -1 392 -6.1010E-03</internalNodes><leafValues>4.2430E-01 -3.3899E-01</leafValues></_><_><internalNodes>0 -1 393 3.1927E-02</internalNodes><leafValues>-3.1047E-02 -2.3460E+00</leafValues></_><_><internalNodes>0 -1 394 -2.9844E-02</internalNodes><leafValues>-7.8990E-01 1.5418E-01</leafValues></_><_><internalNodes>0 -1 395 -8.0542E-02</internalNodes><leafValues>-2.2509E+00 -3.0907E-02</leafValues></_><_><internalNodes>0 -1 396 3.8110E-03</internalNodes><leafValues>-2.5577E-01 2.3786E-01</leafValues></_><_><internalNodes>0 -1 397 3.3647E-02</internalNodes><leafValues>-2.2541E-01 9.2307E-01</leafValues></_><_><internalNodes>0 -1 398 8.2810E-03</internalNodes><leafValues>-2.8896E-01 3.1046E-01</leafValues></_><_><internalNodes>0 -1 399 1.0104E-01</internalNodes><leafValues>-3.4864E-02 -2.7103E+00</leafValues></_><_><internalNodes>0 -1 400 -1.0009E-02</internalNodes><leafValues>5.9715E-01 -3.3831E-02</leafValues></_><_><internalNodes>0 -1 401 7.1920E-03</internalNodes><leafValues>-4.7738E-01 2.2686E-01</leafValues></_><_><internalNodes>0 -1 402 2.4969E-02</internalNodes><leafValues>2.2878E-01 -1.0436E+00</leafValues></_><_><internalNodes>0 -1 403 2.7908E-01</internalNodes><leafValues>-2.5818E-01 7.6780E-01</leafValues></_><_><internalNodes>0 -1 404 -4.4213E-02</internalNodes><leafValues>-5.9798E-01 2.8040E-01</leafValues></_><_><internalNodes>0 -1 405 -1.4137E-02</internalNodes><leafValues>7.0987E-01 -2.5645E-01</leafValues></_></weakClassifiers></_><_><maxWeakCount>91</maxWeakCount><stageThreshold>-3.6479E+00</stageThreshold><weakClassifiers><_><internalNodes>0 -1 406 1.3771E-01</internalNodes><leafValues>-5.5871E-01 1.0954E+00</leafValues></_><_><internalNodes>0 -1 407 3.4461E-02</internalNodes><leafValues>-7.1172E-01 5.2900E-01</leafValues></_><_><internalNodes>0 -1 408 1.8580E-02</internalNodes><leafValues>-1.1158E+00 4.0594E-01</leafValues></_><_><internalNodes>0 -1 409 2.5042E-02</internalNodes><leafValues>-4.0892E-01 7.4130E-01</leafValues></_><_><internalNodes>0 -1 410 5.7179E-02</internalNodes><leafValues>-3.8054E-01 7.3648E-01</leafValues></_><_><internalNodes>0 -1 411 1.4932E-02</internalNodes><leafValues>-6.9946E-01 3.7951E-01</leafValues></_><_><internalNodes>0 -1 412 8.8900E-03</internalNodes><leafValues>-5.4559E-01 3.6332E-01</leafValues></_><_><internalNodes>0 -1 413 3.0436E-02</internalNodes><leafValues>-1.0125E-01 7.9586E-01</leafValues></_><_><internalNodes>0 -1 414 -4.4160E-02</internalNodes><leafValues>8.4411E-01 -3.2976E-01</leafValues></_><_><internalNodes>0 -1 415 1.8461E-02</internalNodes><leafValues>2.6327E-01 -9.6737E-01</leafValues></_><_><internalNodes>0 -1 416 1.0615E-02</internalNodes><leafValues>1.5252E-01 -1.0590E+00</leafValues></_><_><internalNodes>0 -1 417 -4.5974E-02</internalNodes><leafValues>-1.9918E+00 1.3629E-01</leafValues></_><_><internalNodes>0 -1 418 8.2900E-02</internalNodes><leafValues>-3.2037E-01 6.0304E-01</leafValues></_><_><internalNodes>0 -1 419 -8.9130E-03</internalNodes><leafValues>5.9587E-01 -2.1140E-01</leafValues></_><_><internalNodes>0 -1 420 4.2814E-02</internalNodes><leafValues>2.2925E-02 -1.4679E+00</leafValues></_><_><internalNodes>0 -1 421 -8.7140E-03</internalNodes><leafValues>-4.3990E-01 2.0440E-01</leafValues></_><_><internalNodes>0 -1 422 -4.3390E-03</internalNodes><leafValues>-8.9067E-01 1.0470E-01</leafValues></_><_><internalNodes>0 -1 423 8.0750E-03</internalNodes><leafValues>2.1164E-01 -4.0232E-01</leafValues></_><_><internalNodes>0 -1 424 9.6739E-02</internalNodes><leafValues>1.3320E-02 -1.6085E+00</leafValues></_><_><internalNodes>0 -1 425 -3.0537E-02</internalNodes><leafValues>1.0064E+00 -1.3413E-01</leafValues></_><_><internalNodes>0 -1 426 -6.0856E-02</internalNodes><leafValues>-1.4690E+00 9.4240E-03</leafValues></_><_><internalNodes>0 -1 427 -3.8162E-02</internalNodes><leafValues>-8.1636E-01 2.6171E-01</leafValues></_><_><internalNodes>0 -1 428 -9.6960E-03</internalNodes><leafValues>1.1562E-01 -7.1693E-01</leafValues></_><_><internalNodes>0 -1 429 4.8903E-02</internalNodes><leafValues>1.3050E-01 -1.6448E+00</leafValues></_><_><internalNodes>0 -1 430 -4.1612E-02</internalNodes><leafValues>-1.1796E+00 2.5017E-02</leafValues></_><_><internalNodes>0 -1 431 -2.0188E-02</internalNodes><leafValues>6.3188E-01 -1.0490E-01</leafValues></_><_><internalNodes>0 -1 432 -9.7900E-04</internalNodes><leafValues>1.8508E-01 -5.3566E-01</leafValues></_><_><internalNodes>0 -1 433 -3.3622E-02</internalNodes><leafValues>-9.3128E-01 2.0072E-01</leafValues></_><_><internalNodes>0 -1 434 1.9456E-02</internalNodes><leafValues>3.8029E-02 -1.0112E+00</leafValues></_><_><internalNodes>0 -1 435 -3.1800E-04</internalNodes><leafValues>3.6458E-01 -2.7611E-01</leafValues></_><_><internalNodes>0 -1 436 -3.8900E-04</internalNodes><leafValues>1.9666E-01 -5.3411E-01</leafValues></_><_><internalNodes>0 -1 437 -9.3496E-02</internalNodes><leafValues>-1.6772E+00 2.0727E-01</leafValues></_><_><internalNodes>0 -1 438 -7.7878E-02</internalNodes><leafValues>-3.0761E+00 -3.5804E-02</leafValues></_><_><internalNodes>0 -1 439 1.6948E-02</internalNodes><leafValues>2.1447E-01 -7.1376E-01</leafValues></_><_><internalNodes>0 -1 440 -2.1459E-02</internalNodes><leafValues>-1.1468E+00 1.5856E-02</leafValues></_><_><internalNodes>0 -1 441 -1.2866E-02</internalNodes><leafValues>8.3812E-01 -6.5944E-02</leafValues></_><_><internalNodes>0 -1 442 7.8220E-03</internalNodes><leafValues>-2.8027E-01 7.9377E-01</leafValues></_><_><internalNodes>0 -1 443 1.0294E-01</internalNodes><leafValues>1.7832E-01 -6.8412E-01</leafValues></_><_><internalNodes>0 -1 444 -3.7488E-02</internalNodes><leafValues>9.6190E-01 -2.1736E-01</leafValues></_><_><internalNodes>0 -1 445 2.5506E-02</internalNodes><leafValues>1.0104E-02 1.2461E+00</leafValues></_><_><internalNodes>0 -1 446 6.6700E-04</internalNodes><leafValues>-5.3488E-01 1.4746E-01</leafValues></_><_><internalNodes>0 -1 447 -2.8868E-01</internalNodes><leafValues>8.2173E-01 -1.4948E-02</leafValues></_><_><internalNodes>0 -1 448 9.1295E-02</internalNodes><leafValues>-1.9605E-01 1.0803E+00</leafValues></_><_><internalNodes>0 -1 449 1.2057E-01</internalNodes><leafValues>-2.3849E-02 1.1393E+00</leafValues></_><_><internalNodes>0 -1 450 -7.3775E-02</internalNodes><leafValues>-1.3584E+00 -4.2040E-03</leafValues></_><_><internalNodes>0 -1 451 -3.3128E-02</internalNodes><leafValues>-6.4483E-01 2.4142E-01</leafValues></_><_><internalNodes>0 -1 452 -4.3937E-02</internalNodes><leafValues>8.4285E-01 -2.0625E-01</leafValues></_><_><internalNodes>0 -1 453 1.8110E-01</internalNodes><leafValues>1.9212E-01 -1.2222E+00</leafValues></_><_><internalNodes>0 -1 454 -1.1851E-02</internalNodes><leafValues>-7.2677E-01 5.2688E-02</leafValues></_><_><internalNodes>0 -1 455 4.5920E-03</internalNodes><leafValues>-3.6305E-01 2.9224E-01</leafValues></_><_><internalNodes>0 -1 456 7.0620E-03</internalNodes><leafValues>5.8116E-02 -6.7162E-01</leafValues></_><_><internalNodes>0 -1 457 -2.3715E-02</internalNodes><leafValues>4.7142E-01 1.8580E-02</leafValues></_><_><internalNodes>0 -1 458 -6.7172E-02</internalNodes><leafValues>-1.1332E+00 2.3781E-02</leafValues></_><_><internalNodes>0 -1 459 -6.5310E-02</internalNodes><leafValues>9.8254E-01 2.8362E-02</leafValues></_><_><internalNodes>0 -1 460 2.2791E-02</internalNodes><leafValues>-2.8214E-01 5.8993E-01</leafValues></_><_><internalNodes>0 -1 461 -1.9038E-02</internalNodes><leafValues>-6.3712E-01 2.6515E-01</leafValues></_><_><internalNodes>0 -1 462 -6.8690E-03</internalNodes><leafValues>3.7487E-01 -3.3232E-01</leafValues></_><_><internalNodes>0 -1 463 -4.0146E-02</internalNodes><leafValues>-1.3049E+00 1.5724E-01</leafValues></_><_><internalNodes>0 -1 464 -4.0531E-02</internalNodes><leafValues>-2.0458E+00 -2.6926E-02</leafValues></_><_><internalNodes>0 -1 465 -1.2254E-02</internalNodes><leafValues>7.7649E-01 -4.2971E-02</leafValues></_><_><internalNodes>0 -1 466 -2.7220E-02</internalNodes><leafValues>1.7424E-01 -4.4601E-01</leafValues></_><_><internalNodes>0 -1 467 -8.8366E-02</internalNodes><leafValues>-1.5036E+00 1.4290E-01</leafValues></_><_><internalNodes>0 -1 468 -7.9160E-03</internalNodes><leafValues>2.8667E-01 -3.7924E-01</leafValues></_><_><internalNodes>0 -1 469 -4.1960E-02</internalNodes><leafValues>1.3847E+00 6.5027E-02</leafValues></_><_><internalNodes>0 -1 470 4.5663E-02</internalNodes><leafValues>-2.2452E-01 7.9521E-01</leafValues></_><_><internalNodes>0 -1 471 -1.4091E-01</internalNodes><leafValues>-1.5879E+00 1.1359E-01</leafValues></_><_><internalNodes>0 -1 472 -5.9216E-02</internalNodes><leafValues>-1.1946E+00 -7.1640E-03</leafValues></_><_><internalNodes>0 -1 473 4.3390E-03</internalNodes><leafValues>-1.5529E-01 4.0664E-01</leafValues></_><_><internalNodes>0 -1 474 -2.0370E-03</internalNodes><leafValues>2.5928E-01 -3.8368E-01</leafValues></_><_><internalNodes>0 -1 475 2.7516E-01</internalNodes><leafValues>-8.8498E-02 7.6788E-01</leafValues></_><_><internalNodes>0 -1 476 -2.6602E-02</internalNodes><leafValues>7.5024E-01 -2.2622E-01</leafValues></_><_><internalNodes>0 -1 477 4.0906E-02</internalNodes><leafValues>1.2159E-01 -1.4567E+00</leafValues></_><_><internalNodes>0 -1 478 5.5320E-03</internalNodes><leafValues>-3.6612E-01 2.5969E-01</leafValues></_><_><internalNodes>0 -1 479 3.1879E-02</internalNodes><leafValues>-7.5019E-02 4.8485E-01</leafValues></_><_><internalNodes>0 -1 480 -4.1482E-02</internalNodes><leafValues>7.8220E-01 -2.1992E-01</leafValues></_><_><internalNodes>0 -1 481 -9.6131E-02</internalNodes><leafValues>-8.9456E-01 1.4681E-01</leafValues></_><_><internalNodes>0 -1 482 -1.1569E-02</internalNodes><leafValues>8.2714E-01 -2.0276E-01</leafValues></_><_><internalNodes>0 -1 483 1.8313E-02</internalNodes><leafValues>1.6368E-02 2.7307E-01</leafValues></_><_><internalNodes>0 -1 484 -3.4166E-02</internalNodes><leafValues>1.1307E+00 -1.8811E-01</leafValues></_><_><internalNodes>0 -1 485 -2.4477E-02</internalNodes><leafValues>-5.7791E-01 1.5812E-01</leafValues></_><_><internalNodes>0 -1 486 4.8957E-02</internalNodes><leafValues>-2.2565E-02 -1.6373E+00</leafValues></_><_><internalNodes>0 -1 487 -2.0703E-02</internalNodes><leafValues>-5.4512E-01 2.4087E-01</leafValues></_><_><internalNodes>0 -1 488 -2.3002E-02</internalNodes><leafValues>-1.2237E+00 -7.3440E-03</leafValues></_><_><internalNodes>0 -1 489 6.4585E-02</internalNodes><leafValues>1.4696E-01 -4.4967E-01</leafValues></_><_><internalNodes>0 -1 490 1.2666E-02</internalNodes><leafValues>-2.7874E-01 4.3877E-01</leafValues></_><_><internalNodes>0 -1 491 -1.2003E-02</internalNodes><leafValues>-2.4289E-01 2.5350E-01</leafValues></_><_><internalNodes>0 -1 492 -2.6444E-02</internalNodes><leafValues>-8.5865E-01 2.6026E-02</leafValues></_><_><internalNodes>0 -1 493 -2.5548E-02</internalNodes><leafValues>6.9288E-01 -2.1160E-03</leafValues></_><_><internalNodes>0 -1 494 3.9115E-02</internalNodes><leafValues>-1.6589E-01 1.5209E+00</leafValues></_><_><internalNodes>0 -1 495 -6.0330E-03</internalNodes><leafValues>4.3857E-01 -2.1614E-01</leafValues></_><_><internalNodes>0 -1 496 -3.3937E-02</internalNodes><leafValues>-9.7998E-01 2.2133E-02</leafValues></_></weakClassifiers></_><_><maxWeakCount>99</maxWeakCount><stageThreshold>-3.8700E+00</stageThreshold><weakClassifiers><_><internalNodes>0 -1 497 4.0673E-02</internalNodes><leafValues>-9.0475E-01 6.4411E-01</leafValues></_><_><internalNodes>0 -1 498 2.5610E-02</internalNodes><leafValues>-7.9217E-01 5.7490E-01</leafValues></_><_><internalNodes>0 -1 499 1.9960E-01</internalNodes><leafValues>-3.0100E-01 1.3144E+00</leafValues></_><_><internalNodes>0 -1 500 1.2405E-02</internalNodes><leafValues>-8.9883E-01 2.9206E-01</leafValues></_><_><internalNodes>0 -1 501 3.9208E-02</internalNodes><leafValues>-4.1955E-01 5.3463E-01</leafValues></_><_><internalNodes>0 -1 502 -3.0844E-02</internalNodes><leafValues>4.5793E-01 -4.4629E-01</leafValues></_><_><internalNodes>0 -1 503 -3.5523E-02</internalNodes><leafValues>9.1311E-01 -2.7373E-01</leafValues></_><_><internalNodes>0 -1 504 -6.1650E-02</internalNodes><leafValues>-1.4698E+00 2.0364E-01</leafValues></_><_><internalNodes>0 -1 505 -1.1740E-02</internalNodes><leafValues>-1.0483E+00 6.7802E-02</leafValues></_><_><internalNodes>0 -1 506 6.6934E-02</internalNodes><leafValues>2.9274E-01 -5.2283E-01</leafValues></_><_><internalNodes>0 -1 507 -2.0631E-02</internalNodes><leafValues>-1.2855E+00 4.4551E-02</leafValues></_><_><internalNodes>0 -1 508 -2.2357E-02</internalNodes><leafValues>-8.5754E-01 1.8434E-01</leafValues></_><_><internalNodes>0 -1 509 1.1500E-03</internalNodes><leafValues>1.6406E-01 -6.9125E-01</leafValues></_><_><internalNodes>0 -1 510 3.5873E-02</internalNodes><leafValues>1.5756E-01 -8.4263E-01</leafValues></_><_><internalNodes>0 -1 511 3.0660E-02</internalNodes><leafValues>2.1637E-02 -1.3635E+00</leafValues></_><_><internalNodes>0 -1 512 5.5560E-03</internalNodes><leafValues>-1.6737E-01 2.5888E-01</leafValues></_><_><internalNodes>0 -1 513 -6.1160E-03</internalNodes><leafValues>-9.7272E-01 6.6100E-02</leafValues></_><_><internalNodes>0 -1 514 -3.0317E-02</internalNodes><leafValues>9.8474E-01 -1.6448E-02</leafValues></_><_><internalNodes>0 -1 515 -9.7200E-03</internalNodes><leafValues>4.7605E-01 -3.2517E-01</leafValues></_><_><internalNodes>0 -1 516 -5.7127E-02</internalNodes><leafValues>-9.5921E-01 1.9938E-01</leafValues></_><_><internalNodes>0 -1 517 4.0060E-03</internalNodes><leafValues>-5.2613E-01 2.2429E-01</leafValues></_><_><internalNodes>0 -1 518 3.3734E-02</internalNodes><leafValues>1.7070E-01 -1.0738E+00</leafValues></_><_><internalNodes>0 -1 519 -3.4642E-02</internalNodes><leafValues>-1.1343E+00 3.6540E-02</leafValues></_><_><internalNodes>0 -1 520 4.6923E-02</internalNodes><leafValues>2.5832E-01 -7.1536E-01</leafValues></_><_><internalNodes>0 -1 521 -8.7660E-03</internalNodes><leafValues>1.9641E-01 -5.3355E-01</leafValues></_><_><internalNodes>0 -1 522 6.5628E-02</internalNodes><leafValues>-5.1195E-02 9.7611E-01</leafValues></_><_><internalNodes>0 -1 523 -4.4165E-02</internalNodes><leafValues>1.0632E+00 -2.3463E-01</leafValues></_><_><internalNodes>0 -1 524 1.7305E-02</internalNodes><leafValues>-1.8583E-01 4.5890E-01</leafValues></_><_><internalNodes>0 -1 525 3.3136E-02</internalNodes><leafValues>-2.9382E-02 -2.6651E+00</leafValues></_><_><internalNodes>0 -1 526 -2.1030E-02</internalNodes><leafValues>9.9980E-01 2.4937E-02</leafValues></_><_><internalNodes>0 -1 527 2.9784E-02</internalNodes><leafValues>-2.9606E-02 -2.1696E+00</leafValues></_><_><internalNodes>0 -1 528 5.5292E-02</internalNodes><leafValues>-7.5600E-04 7.4652E-01</leafValues></_><_><internalNodes>0 -1 529 -3.3598E-02</internalNodes><leafValues>-1.5274E+00 1.1060E-02</leafValues></_><_><internalNodes>0 -1 530 1.9603E-02</internalNodes><leafValues>3.3575E-02 9.9526E-01</leafValues></_><_><internalNodes>0 -1 531 -2.0787E-02</internalNodes><leafValues>7.6613E-01 -2.4671E-01</leafValues></_><_><internalNodes>0 -1 532 3.2536E-02</internalNodes><leafValues>1.6263E-01 -6.1134E-01</leafValues></_><_><internalNodes>0 -1 533 -1.0788E-02</internalNodes><leafValues>-9.7840E-01 2.8970E-02</leafValues></_><_><internalNodes>0 -1 534 -9.9560E-03</internalNodes><leafValues>4.6146E-01 -1.3510E-01</leafValues></_><_><internalNodes>0 -1 535 -3.7490E-03</internalNodes><leafValues>2.5458E-01 -5.1956E-01</leafValues></_><_><internalNodes>0 -1 536 -4.1780E-02</internalNodes><leafValues>-8.0565E-01 1.5209E-01</leafValues></_><_><internalNodes>0 -1 537 -3.4221E-02</internalNodes><leafValues>-1.3138E+00 -3.5800E-03</leafValues></_><_><internalNodes>0 -1 538 1.0130E-02</internalNodes><leafValues>2.0176E-01 -6.1340E-01</leafValues></_><_><internalNodes>0 -1 539 -8.9849E-02</internalNodes><leafValues>9.7633E-01 -2.0885E-01</leafValues></_><_><internalNodes>0 -1 540 2.6098E-02</internalNodes><leafValues>-1.8808E-01 4.7706E-01</leafValues></_><_><internalNodes>0 -1 541 -3.7540E-03</internalNodes><leafValues>-6.7980E-01 1.1289E-01</leafValues></_><_><internalNodes>0 -1 542 3.1973E-02</internalNodes><leafValues>1.8952E-01 -1.4967E+00</leafValues></_><_><internalNodes>0 -1 543 1.9333E-02</internalNodes><leafValues>-2.3610E-01 8.1321E-01</leafValues></_><_><internalNodes>0 -1 544 1.9490E-03</internalNodes><leafValues>2.4830E-01 -6.9212E-02</leafValues></_><_><internalNodes>0 -1 545 -4.4147E-02</internalNodes><leafValues>-1.0419E+00 4.8053E-02</leafValues></_><_><internalNodes>0 -1 546 -4.4682E-02</internalNodes><leafValues>5.1346E-01 -7.3800E-03</leafValues></_><_><internalNodes>0 -1 547 -1.0757E-01</internalNodes><leafValues>1.6202E+00 -1.8668E-01</leafValues></_><_><internalNodes>0 -1 548 -1.2847E-01</internalNodes><leafValues>2.9869E+00 9.5428E-02</leafValues></_><_><internalNodes>0 -1 549 -4.4758E-02</internalNodes><leafValues>6.0405E-01 -2.7059E-01</leafValues></_><_><internalNodes>0 -1 550 -4.3991E-02</internalNodes><leafValues>-6.1791E-01 1.5997E-01</leafValues></_><_><internalNodes>0 -1 551 -1.2269E-01</internalNodes><leafValues>6.6327E-01 -2.3637E-01</leafValues></_><_><internalNodes>0 -1 552 -1.9983E-02</internalNodes><leafValues>-1.1229E+00 1.9617E-01</leafValues></_><_><internalNodes>0 -1 553 -1.5528E-02</internalNodes><leafValues>-1.0770E+00 2.0693E-02</leafValues></_><_><internalNodes>0 -1 554 -4.8971E-02</internalNodes><leafValues>8.1168E-01 -1.7252E-02</leafValues></_><_><internalNodes>0 -1 555 5.5976E-02</internalNodes><leafValues>-2.2529E-02 -1.7357E+00</leafValues></_><_><internalNodes>0 -1 556 -9.8580E-03</internalNodes><leafValues>6.7881E-01 -5.8180E-02</leafValues></_><_><internalNodes>0 -1 557 1.3481E-02</internalNodes><leafValues>5.7848E-02 -7.7255E-01</leafValues></_><_><internalNodes>0 -1 558 6.5610E-03</internalNodes><leafValues>-1.3147E-01 6.7056E-01</leafValues></_><_><internalNodes>0 -1 559 7.1150E-03</internalNodes><leafValues>-3.7881E-01 3.0979E-01</leafValues></_><_><internalNodes>0 -1 560 4.8160E-03</internalNodes><leafValues>-5.8470E-01 2.5602E-01</leafValues></_><_><internalNodes>0 -1 561 9.5320E-03</internalNodes><leafValues>-3.0217E-01 4.1253E-01</leafValues></_><_><internalNodes>0 -1 562 -2.7475E-02</internalNodes><leafValues>5.9155E-01 1.7964E-02</leafValues></_><_><internalNodes>0 -1 563 -3.9520E-02</internalNodes><leafValues>9.6913E-01 -2.1020E-01</leafValues></_><_><internalNodes>0 -1 564 -3.0659E-02</internalNodes><leafValues>9.1156E-01 4.0550E-02</leafValues></_><_><internalNodes>0 -1 565 -1.4680E-03</internalNodes><leafValues>-6.0490E-01 1.6961E-01</leafValues></_><_><internalNodes>0 -1 566 1.9078E-01</internalNodes><leafValues>4.3515E-02 8.1893E-01</leafValues></_><_><internalNodes>0 -1 567 5.1790E-03</internalNodes><leafValues>-9.3617E-01 2.4937E-02</leafValues></_><_><internalNodes>0 -1 568 2.4126E-02</internalNodes><leafValues>1.8176E-01 -3.4186E-01</leafValues></_><_><internalNodes>0 -1 569 -2.6384E-02</internalNodes><leafValues>-1.2913E+00 -3.4280E-03</leafValues></_><_><internalNodes>0 -1 570 5.4140E-03</internalNodes><leafValues>-4.6292E-02 2.5270E-01</leafValues></_><_><internalNodes>0 -1 571 5.4216E-02</internalNodes><leafValues>-1.2848E-02 -1.4305E+00</leafValues></_><_><internalNodes>0 -1 572 2.3800E-04</internalNodes><leafValues>-2.6677E-01 3.3588E-01</leafValues></_><_><internalNodes>0 -1 573 1.5217E-02</internalNodes><leafValues>-5.1367E-01 1.3005E-01</leafValues></_><_><internalNodes>0 -1 574 1.7008E-02</internalNodes><leafValues>4.1576E-01 -3.1241E-01</leafValues></_><_><internalNodes>0 -1 575 3.0497E-02</internalNodes><leafValues>-2.4821E-01 7.0828E-01</leafValues></_><_><internalNodes>0 -1 576 6.5430E-03</internalNodes><leafValues>-2.2637E-01 1.9185E-01</leafValues></_><_><internalNodes>0 -1 577 1.4164E-01</internalNodes><leafValues>6.5227E-02 -8.8810E-01</leafValues></_><_><internalNodes>0 -1 578 1.9338E-02</internalNodes><leafValues>1.8891E-01 -2.7398E-01</leafValues></_><_><internalNodes>0 -1 579 -1.7324E-02</internalNodes><leafValues>-9.4867E-01 2.4197E-02</leafValues></_><_><internalNodes>0 -1 580 -6.2070E-03</internalNodes><leafValues>3.6938E-01 -1.7495E-01</leafValues></_><_><internalNodes>0 -1 581 -1.6109E-02</internalNodes><leafValues>9.6159E-01 -2.0005E-01</leafValues></_><_><internalNodes>0 -1 582 -1.0123E-01</internalNodes><leafValues>-3.0699E+00 1.1364E-01</leafValues></_><_><internalNodes>0 -1 583 -7.5510E-03</internalNodes><leafValues>2.2921E-01 -4.5645E-01</leafValues></_><_><internalNodes>0 -1 584 4.4248E-02</internalNodes><leafValues>-3.1600E-04 3.9225E-01</leafValues></_><_><internalNodes>0 -1 585 -1.1636E-01</internalNodes><leafValues>9.5234E-01 -2.0202E-01</leafValues></_><_><internalNodes>0 -1 586 4.7360E-03</internalNodes><leafValues>-9.9177E-02 2.0370E-01</leafValues></_><_><internalNodes>0 -1 587 2.2459E-02</internalNodes><leafValues>8.7280E-03 -1.0217E+00</leafValues></_><_><internalNodes>0 -1 588 -1.2109E-02</internalNodes><leafValues>6.4813E-01 -9.0149E-02</leafValues></_><_><internalNodes>0 -1 589 5.6120E-02</internalNodes><leafValues>-3.6760E-02 -1.9276E+00</leafValues></_><_><internalNodes>0 -1 590 -8.7380E-03</internalNodes><leafValues>6.9261E-01 -6.8375E-02</leafValues></_><_><internalNodes>0 -1 591 6.6400E-03</internalNodes><leafValues>-4.0570E-01 1.8626E-01</leafValues></_><_><internalNodes>0 -1 592 -1.8132E-02</internalNodes><leafValues>-6.4518E-01 2.1976E-01</leafValues></_><_><internalNodes>0 -1 593 -2.2719E-02</internalNodes><leafValues>9.7776E-01 -1.8654E-01</leafValues></_><_><internalNodes>0 -1 594 1.2705E-02</internalNodes><leafValues>-1.0547E-01 3.7404E-01</leafValues></_><_><internalNodes>0 -1 595 -1.3683E-02</internalNodes><leafValues>6.1064E-01 -2.6881E-01</leafValues></_></weakClassifiers></_><_><maxWeakCount>115</maxWeakCount><stageThreshold>-3.7161E+00</stageThreshold><weakClassifiers><_><internalNodes>0 -1 596 3.1358E-02</internalNodes><leafValues>-1.0184E+00 5.7529E-01</leafValues></_><_><internalNodes>0 -1 597 9.3050E-02</internalNodes><leafValues>-4.1298E-01 1.0091E+00</leafValues></_><_><internalNodes>0 -1 598 2.5950E-02</internalNodes><leafValues>-5.8588E-01 5.6606E-01</leafValues></_><_><internalNodes>0 -1 599 1.6472E-02</internalNodes><leafValues>-9.2857E-01 3.0924E-01</leafValues></_><_><internalNodes>0 -1 600 -1.8780E-03</internalNodes><leafValues>1.1951E-01 -1.1180E+00</leafValues></_><_><internalNodes>0 -1 601 -9.0130E-03</internalNodes><leafValues>-5.7850E-01 3.3154E-01</leafValues></_><_><internalNodes>0 -1 602 2.2548E-02</internalNodes><leafValues>-3.8325E-01 5.2462E-01</leafValues></_><_><internalNodes>0 -1 603 -3.7780E-02</internalNodes><leafValues>1.1791E+00 -3.4167E-02</leafValues></_><_><internalNodes>0 -1 604 -5.3800E-03</internalNodes><leafValues>-8.6266E-01 1.1868E-01</leafValues></_><_><internalNodes>0 -1 605 -2.3893E-02</internalNodes><leafValues>-7.4951E-01 2.1011E-01</leafValues></_><_><internalNodes>0 -1 606 -2.6522E-02</internalNodes><leafValues>9.2129E-01 -2.8253E-01</leafValues></_><_><internalNodes>0 -1 607 1.2280E-02</internalNodes><leafValues>2.6663E-01 -7.0014E-01</leafValues></_><_><internalNodes>0 -1 608 9.6595E-02</internalNodes><leafValues>-2.8454E-01 7.3169E-01</leafValues></_><_><internalNodes>0 -1 609 -2.7415E-02</internalNodes><leafValues>-6.1493E-01 1.5576E-01</leafValues></_><_><internalNodes>0 -1 610 -1.5767E-02</internalNodes><leafValues>5.7551E-01 -3.4362E-01</leafValues></_><_><internalNodes>0 -1 611 -2.1100E-03</internalNodes><leafValues>3.2600E-01 -1.3008E-01</leafValues></_><_><internalNodes>0 -1 612 1.2007E-02</internalNodes><leafValues>8.9323E-02 -9.6026E-01</leafValues></_><_><internalNodes>0 -1 613 -1.5422E-02</internalNodes><leafValues>3.4449E-01 -4.6712E-01</leafValues></_><_><internalNodes>0 -1 614 -4.1580E-03</internalNodes><leafValues>2.3696E-01 -5.2563E-01</leafValues></_><_><internalNodes>0 -1 615 -2.1186E-02</internalNodes><leafValues>-7.4268E-01 2.1702E-01</leafValues></_><_><internalNodes>0 -1 616 -1.7077E-02</internalNodes><leafValues>-9.0472E-01 6.6012E-02</leafValues></_><_><internalNodes>0 -1 617 -4.0850E-02</internalNodes><leafValues>-3.4447E-01 2.1504E-01</leafValues></_><_><internalNodes>0 -1 618 -8.1930E-03</internalNodes><leafValues>-9.3389E-01 5.0471E-02</leafValues></_><_><internalNodes>0 -1 619 -1.9238E-02</internalNodes><leafValues>-5.3204E-01 1.7241E-01</leafValues></_><_><internalNodes>0 -1 620 -4.4192E-02</internalNodes><leafValues>9.2075E-01 -2.2149E-01</leafValues></_><_><internalNodes>0 -1 621 -6.2392E-02</internalNodes><leafValues>-7.1054E-01 1.8324E-01</leafValues></_><_><internalNodes>0 -1 622 -1.0080E-03</internalNodes><leafValues>-8.7063E-01 5.5330E-02</leafValues></_><_><internalNodes>0 -1 623 2.3870E-02</internalNodes><leafValues>-2.2854E-01 5.2416E-01</leafValues></_><_><internalNodes>0 -1 624 2.1391E-02</internalNodes><leafValues>-3.0326E-01 5.5861E-01</leafValues></_><_><internalNodes>0 -1 625 2.0255E-02</internalNodes><leafValues>2.6902E-01 -7.0262E-01</leafValues></_><_><internalNodes>0 -1 626 -2.8772E-02</internalNodes><leafValues>-1.1835E+00 4.6512E-02</leafValues></_><_><internalNodes>0 -1 627 3.4200E-03</internalNodes><leafValues>-5.4652E-01 2.5962E-01</leafValues></_><_><internalNodes>0 -1 628 5.6983E-02</internalNodes><leafValues>-2.6983E-01 5.8171E-01</leafValues></_><_><internalNodes>0 -1 629 -9.3892E-02</internalNodes><leafValues>-9.1046E-01 1.9678E-01</leafValues></_><_><internalNodes>0 -1 630 1.7700E-02</internalNodes><leafValues>-4.4003E-01 2.1350E-01</leafValues></_><_><internalNodes>0 -1 631 2.2844E-01</internalNodes><leafValues>2.3605E-02 7.7172E-01</leafValues></_><_><internalNodes>0 -1 632 -1.8288E-01</internalNodes><leafValues>7.9229E-01 -2.4645E-01</leafValues></_><_><internalNodes>0 -1 633 -6.9892E-02</internalNodes><leafValues>8.0268E-01 -3.6072E-02</leafValues></_><_><internalNodes>0 -1 634 1.5297E-02</internalNodes><leafValues>-2.0072E-01 1.1031E+00</leafValues></_><_><internalNodes>0 -1 635 6.7500E-03</internalNodes><leafValues>-4.5968E-02 7.2095E-01</leafValues></_><_><internalNodes>0 -1 636 -1.5983E-02</internalNodes><leafValues>-9.0357E-01 4.4988E-02</leafValues></_><_><internalNodes>0 -1 637 1.3088E-02</internalNodes><leafValues>3.5297E-01 -3.7711E-01</leafValues></_><_><internalNodes>0 -1 638 1.3061E-02</internalNodes><leafValues>-1.9584E-01 1.1199E+00</leafValues></_><_><internalNodes>0 -1 639 -3.9907E-02</internalNodes><leafValues>-1.3998E+00 1.9145E-01</leafValues></_><_><internalNodes>0 -1 640 1.5027E-02</internalNodes><leafValues>2.3600E-03 -1.1611E+00</leafValues></_><_><internalNodes>0 -1 641 -2.0518E-02</internalNodes><leafValues>-4.8908E-01 1.6743E-01</leafValues></_><_><internalNodes>0 -1 642 -2.2359E-02</internalNodes><leafValues>-1.2203E+00 -1.1976E-02</leafValues></_><_><internalNodes>0 -1 643 -7.9150E-03</internalNodes><leafValues>3.7228E-01 -8.5063E-02</leafValues></_><_><internalNodes>0 -1 644 1.5258E-02</internalNodes><leafValues>-2.9413E-01 5.9406E-01</leafValues></_><_><internalNodes>0 -1 645 -3.1666E-02</internalNodes><leafValues>-1.4396E+00 1.3579E-01</leafValues></_><_><internalNodes>0 -1 646 -3.0774E-02</internalNodes><leafValues>-2.2545E+00 -3.3971E-02</leafValues></_><_><internalNodes>0 -1 647 -1.5483E-02</internalNodes><leafValues>3.7701E-01 1.5848E-02</leafValues></_><_><internalNodes>0 -1 648 3.5167E-02</internalNodes><leafValues>-2.9446E-01 5.3159E-01</leafValues></_><_><internalNodes>0 -1 649 -1.7906E-02</internalNodes><leafValues>-9.9788E-01 1.6236E-01</leafValues></_><_><internalNodes>0 -1 650 -3.1800E-03</internalNodes><leafValues>4.7657E-02 -7.5250E-01</leafValues></_><_><internalNodes>0 -1 651 1.5720E-02</internalNodes><leafValues>1.4874E-01 -6.5375E-01</leafValues></_><_><internalNodes>0 -1 652 2.9864E-02</internalNodes><leafValues>-1.4952E-02 -1.2275E+00</leafValues></_><_><internalNodes>0 -1 653 2.9900E-03</internalNodes><leafValues>-1.4264E-01 4.3273E-01</leafValues></_><_><internalNodes>0 -1 654 8.4750E-02</internalNodes><leafValues>-1.9281E-02 -1.1946E+00</leafValues></_><_><internalNodes>0 -1 655 -5.8725E-02</internalNodes><leafValues>-1.7328E+00 1.4375E-01</leafValues></_><_><internalNodes>0 -1 656 4.4756E-02</internalNodes><leafValues>-2.4141E-01 5.4020E-01</leafValues></_><_><internalNodes>0 -1 657 4.0369E-02</internalNodes><leafValues>5.7680E-03 5.6578E-01</leafValues></_><_><internalNodes>0 -1 658 3.7736E-02</internalNodes><leafValues>3.8181E-02 -7.9370E-01</leafValues></_><_><internalNodes>0 -1 659 6.0753E-02</internalNodes><leafValues>7.6453E-02 1.4813E+00</leafValues></_><_><internalNodes>0 -1 660 -1.9832E-02</internalNodes><leafValues>-1.6972E+00 -2.7370E-02</leafValues></_><_><internalNodes>0 -1 661 -1.6593E-01</internalNodes><leafValues>6.2976E-01 3.1763E-02</leafValues></_><_><internalNodes>0 -1 662 6.9015E-02</internalNodes><leafValues>-3.3463E-01 3.0077E-01</leafValues></_><_><internalNodes>0 -1 663 1.1358E-02</internalNodes><leafValues>2.2741E-01 -3.8225E-01</leafValues></_><_><internalNodes>0 -1 664 1.7000E-03</internalNodes><leafValues>1.9224E-01 -5.2735E-01</leafValues></_><_><internalNodes>0 -1 665 7.9769E-02</internalNodes><leafValues>9.1492E-02 2.1049E+00</leafValues></_><_><internalNodes>0 -1 666 -5.7144E-02</internalNodes><leafValues>-1.7452E+00 -4.0910E-02</leafValues></_><_><internalNodes>0 -1 667 7.3830E-03</internalNodes><leafValues>-2.4215E-01 3.5578E-01</leafValues></_><_><internalNodes>0 -1 668 -1.8041E-02</internalNodes><leafValues>1.1780E+00 -1.7677E-01</leafValues></_><_><internalNodes>0 -1 669 9.4503E-02</internalNodes><leafValues>1.3936E-01 -1.2994E+00</leafValues></_><_><internalNodes>0 -1 670 5.4210E-03</internalNodes><leafValues>-5.4609E-01 1.3916E-01</leafValues></_><_><internalNodes>0 -1 671 7.0290E-03</internalNodes><leafValues>-2.1597E-01 3.9258E-01</leafValues></_><_><internalNodes>0 -1 672 3.4516E-02</internalNodes><leafValues>6.3189E-02 -7.2108E-01</leafValues></_><_><internalNodes>0 -1 673 -5.1925E-02</internalNodes><leafValues>6.8668E-01 6.3273E-02</leafValues></_><_><internalNodes>0 -1 674 -6.9162E-02</internalNodes><leafValues>1.7412E+00 -1.6619E-01</leafValues></_><_><internalNodes>0 -1 675 -5.5230E-03</internalNodes><leafValues>3.0695E-01 -1.6663E-01</leafValues></_><_><internalNodes>0 -1 676 6.8600E-02</internalNodes><leafValues>-2.1405E-01 7.3185E-01</leafValues></_><_><internalNodes>0 -1 677 -6.7039E-02</internalNodes><leafValues>-7.9361E-01 2.0526E-01</leafValues></_><_><internalNodes>0 -1 678 -2.1005E-02</internalNodes><leafValues>3.7344E-01 -2.9619E-01</leafValues></_><_><internalNodes>0 -1 679 2.0279E-02</internalNodes><leafValues>-1.5200E-02 4.0555E-01</leafValues></_><_><internalNodes>0 -1 680 -4.7108E-02</internalNodes><leafValues>1.2117E+00 -1.7464E-01</leafValues></_><_><internalNodes>0 -1 681 1.8768E-01</internalNodes><leafValues>-2.2909E-02 6.9646E-01</leafValues></_><_><internalNodes>0 -1 682 -4.3229E-02</internalNodes><leafValues>-1.0602E+00 -5.5600E-04</leafValues></_><_><internalNodes>0 -1 683 2.0004E-02</internalNodes><leafValues>-3.2751E-02 5.3805E-01</leafValues></_><_><internalNodes>0 -1 684 8.0880E-03</internalNodes><leafValues>3.7548E-02 -7.4769E-01</leafValues></_><_><internalNodes>0 -1 685 2.7101E-02</internalNodes><leafValues>-8.1790E-02 3.3387E-01</leafValues></_><_><internalNodes>0 -1 686 -9.1746E-02</internalNodes><leafValues>-1.9214E+00 -3.8953E-02</leafValues></_><_><internalNodes>0 -1 687 -1.2455E-02</internalNodes><leafValues>4.8361E-01 1.8168E-02</leafValues></_><_><internalNodes>0 -1 688 1.4649E-02</internalNodes><leafValues>-1.9907E-01 7.2815E-01</leafValues></_><_><internalNodes>0 -1 689 2.9102E-02</internalNodes><leafValues>1.9871E-01 -4.9217E-01</leafValues></_><_><internalNodes>0 -1 690 8.7800E-03</internalNodes><leafValues>-1.9500E-01 7.7317E-01</leafValues></_><_><internalNodes>0 -1 691 -5.4740E-02</internalNodes><leafValues>1.8087E+00 6.8323E-02</leafValues></_><_><internalNodes>0 -1 692 -1.4798E-02</internalNodes><leafValues>7.8065E-01 -1.8710E-01</leafValues></_><_><internalNodes>0 -1 693 2.5013E-02</internalNodes><leafValues>1.5285E-01 -1.6021E+00</leafValues></_><_><internalNodes>0 -1 694 4.6548E-02</internalNodes><leafValues>-1.6738E-01 1.1902E+00</leafValues></_><_><internalNodes>0 -1 695 1.7624E-02</internalNodes><leafValues>-1.0285E-01 3.9176E-01</leafValues></_><_><internalNodes>0 -1 696 1.6320E-01</internalNodes><leafValues>-3.5624E-02 -1.6098E+00</leafValues></_><_><internalNodes>0 -1 697 1.3138E-02</internalNodes><leafValues>-5.6359E-02 5.4159E-01</leafValues></_><_><internalNodes>0 -1 698 -1.5665E-02</internalNodes><leafValues>2.8063E-01 -3.1709E-01</leafValues></_><_><internalNodes>0 -1 699 8.0554E-02</internalNodes><leafValues>1.2640E-01 -1.0298E+00</leafValues></_><_><internalNodes>0 -1 700 3.5364E-02</internalNodes><leafValues>2.0753E-02 -7.9106E-01</leafValues></_><_><internalNodes>0 -1 701 3.2987E-02</internalNodes><leafValues>1.9057E-01 -8.3840E-01</leafValues></_><_><internalNodes>0 -1 702 1.2195E-02</internalNodes><leafValues>7.3729E-02 -6.2781E-01</leafValues></_><_><internalNodes>0 -1 703 4.3066E-02</internalNodes><leafValues>4.7385E-02 1.5713E+00</leafValues></_><_><internalNodes>0 -1 704 3.0327E-02</internalNodes><leafValues>-2.7315E-01 3.8572E-01</leafValues></_><_><internalNodes>0 -1 705 3.5493E-02</internalNodes><leafValues>5.4594E-02 5.2583E-01</leafValues></_><_><internalNodes>0 -1 706 -1.4597E-02</internalNodes><leafValues>3.8153E-01 -2.8332E-01</leafValues></_><_><internalNodes>0 -1 707 1.2607E-02</internalNodes><leafValues>1.5455E-01 -3.0501E-01</leafValues></_><_><internalNodes>0 -1 708 1.0172E-02</internalNodes><leafValues>2.3637E-02 -8.7218E-01</leafValues></_><_><internalNodes>0 -1 709 2.8843E-02</internalNodes><leafValues>1.6091E-01 -2.0278E-01</leafValues></_><_><internalNodes>0 -1 710 5.5100E-04</internalNodes><leafValues>-6.1545E-01 8.0936E-02</leafValues></_></weakClassifiers></_><_><maxWeakCount>127</maxWeakCount><stageThreshold>-3.5645E+00</stageThreshold><weakClassifiers><_><internalNodes>0 -1 711 4.8344E-02</internalNodes><leafValues>-8.4905E-01 5.6974E-01</leafValues></_><_><internalNodes>0 -1 712 3.2460E-02</internalNodes><leafValues>-8.1417E-01 4.4782E-01</leafValues></_><_><internalNodes>0 -1 713 3.3340E-02</internalNodes><leafValues>-3.6424E-01 6.7937E-01</leafValues></_><_><internalNodes>0 -1 714 6.4020E-03</internalNodes><leafValues>-1.1885E+00 1.9239E-01</leafValues></_><_><internalNodes>0 -1 715 -5.6890E-03</internalNodes><leafValues>3.3085E-01 -7.1334E-01</leafValues></_><_><internalNodes>0 -1 716 1.2698E-02</internalNodes><leafValues>-5.0991E-01 1.1376E-01</leafValues></_><_><internalNodes>0 -1 717 6.0550E-03</internalNodes><leafValues>-1.0471E+00 2.0223E-01</leafValues></_><_><internalNodes>0 -1 718 2.6420E-03</internalNodes><leafValues>-5.0559E-01 3.6441E-01</leafValues></_><_><internalNodes>0 -1 719 -1.6926E-02</internalNodes><leafValues>-9.9542E-01 1.2602E-01</leafValues></_><_><internalNodes>0 -1 720 2.8236E-02</internalNodes><leafValues>-9.4138E-02 5.7780E-01</leafValues></_><_><internalNodes>0 -1 721 1.0429E-02</internalNodes><leafValues>2.3273E-01 -5.2570E-01</leafValues></_><_><internalNodes>0 -1 722 9.8860E-03</internalNodes><leafValues>-1.0316E-01 4.7658E-01</leafValues></_><_><internalNodes>0 -1 723 2.6015E-02</internalNodes><leafValues>-1.0920E-03 -1.5582E+00</leafValues></_><_><internalNodes>0 -1 724 -2.5538E-02</internalNodes><leafValues>-6.5451E-01 1.8843E-01</leafValues></_><_><internalNodes>0 -1 725 -3.5310E-03</internalNodes><leafValues>2.8141E-01 -4.4575E-01</leafValues></_><_><internalNodes>0 -1 726 9.2450E-03</internalNodes><leafValues>1.5612E-01 -2.1371E-01</leafValues></_><_><internalNodes>0 -1 727 2.1031E-02</internalNodes><leafValues>-2.9170E-01 5.2234E-01</leafValues></_><_><internalNodes>0 -1 728 -5.1063E-02</internalNodes><leafValues>1.3661E+00 3.0466E-02</leafValues></_><_><internalNodes>0 -1 729 -6.2330E-02</internalNodes><leafValues>1.2207E+00 -2.2434E-01</leafValues></_><_><internalNodes>0 -1 730 -3.2963E-02</internalNodes><leafValues>-8.2017E-01 1.4532E-01</leafValues></_><_><internalNodes>0 -1 731 -3.7418E-02</internalNodes><leafValues>-1.2218E+00 1.9449E-02</leafValues></_><_><internalNodes>0 -1 732 1.2403E-01</internalNodes><leafValues>1.2082E-01 -9.8729E-01</leafValues></_><_><internalNodes>0 -1 733 -8.9230E-03</internalNodes><leafValues>-1.1688E+00 2.1105E-02</leafValues></_><_><internalNodes>0 -1 734 -5.9880E-02</internalNodes><leafValues>-1.0689E+00 1.9860E-01</leafValues></_><_><internalNodes>0 -1 735 6.2620E-03</internalNodes><leafValues>-3.6230E-01 3.8001E-01</leafValues></_><_><internalNodes>0 -1 736 -1.7673E-02</internalNodes><leafValues>4.9094E-01 -1.4607E-01</leafValues></_><_><internalNodes>0 -1 737 1.7579E-02</internalNodes><leafValues>5.8728E-01 -2.7774E-01</leafValues></_><_><internalNodes>0 -1 738 5.1560E-03</internalNodes><leafValues>-7.5195E-02 6.0193E-01</leafValues></_><_><internalNodes>0 -1 739 -1.0600E-02</internalNodes><leafValues>2.7637E-01 -3.7794E-01</leafValues></_><_><internalNodes>0 -1 740 2.0884E-01</internalNodes><leafValues>-5.3600E-03 1.0318E+00</leafValues></_><_><internalNodes>0 -1 741 -2.6413E-02</internalNodes><leafValues>8.2336E-01 -2.2481E-01</leafValues></_><_><internalNodes>0 -1 742 5.8892E-02</internalNodes><leafValues>1.3098E-01 -1.1854E+00</leafValues></_><_><internalNodes>0 -1 743 -1.1579E-02</internalNodes><leafValues>-9.0668E-01 4.4127E-02</leafValues></_><_><internalNodes>0 -1 744 4.5988E-02</internalNodes><leafValues>1.0144E-02 1.0741E+00</leafValues></_><_><internalNodes>0 -1 745 -2.2838E-02</internalNodes><leafValues>1.7792E+00 -1.7315E-01</leafValues></_><_><internalNodes>0 -1 746 -8.1710E-03</internalNodes><leafValues>5.7386E-01 -7.4106E-02</leafValues></_><_><internalNodes>0 -1 747 3.5360E-03</internalNodes><leafValues>-3.2073E-01 4.0183E-01</leafValues></_><_><internalNodes>0 -1 748 4.9445E-02</internalNodes><leafValues>1.9288E-01 -1.2167E+00</leafValues></_><_><internalNodes>0 -1 749 3.5140E-03</internalNodes><leafValues>6.9568E-02 -7.1324E-01</leafValues></_><_><internalNodes>0 -1 750 -3.0996E-02</internalNodes><leafValues>-3.8862E-01 1.8099E-01</leafValues></_><_><internalNodes>0 -1 751 8.6453E-02</internalNodes><leafValues>-2.5793E-02 -1.5453E+00</leafValues></_><_><internalNodes>0 -1 752 -1.3653E-01</internalNodes><leafValues>-1.9199E+00 1.6613E-01</leafValues></_><_><internalNodes>0 -1 753 -5.7690E-03</internalNodes><leafValues>-1.2823E+00 -1.5908E-02</leafValues></_><_><internalNodes>0 -1 754 -1.7900E-02</internalNodes><leafValues>-4.0410E-01 2.3592E-01</leafValues></_><_><internalNodes>0 -1 755 -1.9970E-02</internalNodes><leafValues>-7.2892E-01 5.6235E-02</leafValues></_><_><internalNodes>0 -1 756 -5.7493E-02</internalNodes><leafValues>5.7831E-01 -1.5796E-02</leafValues></_><_><internalNodes>0 -1 757 -8.3056E-02</internalNodes><leafValues>9.1512E-01 -2.1121E-01</leafValues></_><_><internalNodes>0 -1 758 -5.3771E-02</internalNodes><leafValues>-5.1931E-01 1.8576E-01</leafValues></_><_><internalNodes>0 -1 759 -8.3670E-03</internalNodes><leafValues>2.4110E-01 -3.9649E-01</leafValues></_><_><internalNodes>0 -1 760 5.5407E-02</internalNodes><leafValues>1.6771E-01 -2.5665E+00</leafValues></_><_><internalNodes>0 -1 761 -6.7181E-02</internalNodes><leafValues>-1.3659E+00 -1.4232E-02</leafValues></_><_><internalNodes>0 -1 762 -2.3900E-02</internalNodes><leafValues>-1.7085E+00 1.6508E-01</leafValues></_><_><internalNodes>0 -1 763 5.5950E-03</internalNodes><leafValues>-3.1374E-01 3.2838E-01</leafValues></_><_><internalNodes>0 -1 764 2.1295E-02</internalNodes><leafValues>1.4953E-01 -4.8580E-01</leafValues></_><_><internalNodes>0 -1 765 -2.4613E-02</internalNodes><leafValues>7.4346E-01 -2.2305E-01</leafValues></_><_><internalNodes>0 -1 766 -1.9626E-02</internalNodes><leafValues>-4.0918E-01 1.8893E-01</leafValues></_><_><internalNodes>0 -1 767 -5.3266E-02</internalNodes><leafValues>8.1382E-01 -2.0854E-01</leafValues></_><_><internalNodes>0 -1 768 7.1290E-03</internalNodes><leafValues>3.2996E-01 -5.9937E-01</leafValues></_><_><internalNodes>0 -1 769 -2.2487E-02</internalNodes><leafValues>-1.2552E+00 -2.0413E-02</leafValues></_><_><internalNodes>0 -1 770 -8.2311E-02</internalNodes><leafValues>1.3821E+00 5.9309E-02</leafValues></_><_><internalNodes>0 -1 771 1.3097E-01</internalNodes><leafValues>-3.5844E-02 -1.5396E+00</leafValues></_><_><internalNodes>0 -1 772 1.4293E-02</internalNodes><leafValues>-1.8475E-01 3.7455E-01</leafValues></_><_><internalNodes>0 -1 773 6.3480E-03</internalNodes><leafValues>-4.4901E-01 1.3877E-01</leafValues></_><_><internalNodes>0 -1 774 -4.6055E-02</internalNodes><leafValues>6.7833E-01 -1.7072E-02</leafValues></_><_><internalNodes>0 -1 775 5.7694E-02</internalNodes><leafValues>-1.1956E-02 -1.2261E+00</leafValues></_><_><internalNodes>0 -1 776 -6.0610E-03</internalNodes><leafValues>3.3959E-01 6.2800E-04</leafValues></_><_><internalNodes>0 -1 777 -5.2163E-02</internalNodes><leafValues>-1.0621E+00 -1.3780E-02</leafValues></_><_><internalNodes>0 -1 778 4.6573E-02</internalNodes><leafValues>1.4539E-01 -1.2385E+00</leafValues></_><_><internalNodes>0 -1 779 7.5310E-03</internalNodes><leafValues>-2.4468E-01 5.1377E-01</leafValues></_><_><internalNodes>0 -1 780 2.1615E-02</internalNodes><leafValues>1.3073E-01 -7.0997E-01</leafValues></_><_><internalNodes>0 -1 781 -1.7864E-02</internalNodes><leafValues>-1.0475E+00 4.9600E-04</leafValues></_><_><internalNodes>0 -1 782 -3.7195E-02</internalNodes><leafValues>-1.5127E+00 1.4801E-01</leafValues></_><_><internalNodes>0 -1 783 -3.1100E-04</internalNodes><leafValues>1.3972E-01 -4.6867E-01</leafValues></_><_><internalNodes>0 -1 784 2.5043E-02</internalNodes><leafValues>2.8632E-01 -4.1795E-01</leafValues></_><_><internalNodes>0 -1 785 9.3450E-03</internalNodes><leafValues>-2.7336E-01 4.3445E-01</leafValues></_><_><internalNodes>0 -1 786 3.2364E-02</internalNodes><leafValues>1.8439E-01 -9.5019E-01</leafValues></_><_><internalNodes>0 -1 787 -6.2300E-03</internalNodes><leafValues>3.2582E-01 -3.0816E-01</leafValues></_><_><internalNodes>0 -1 788 5.1489E-02</internalNodes><leafValues>1.1416E-01 -1.9795E+00</leafValues></_><_><internalNodes>0 -1 789 -2.6449E-02</internalNodes><leafValues>-1.1067E+00 -8.5520E-03</leafValues></_><_><internalNodes>0 -1 790 -1.5420E-02</internalNodes><leafValues>8.0139E-01 -3.2035E-02</leafValues></_><_><internalNodes>0 -1 791 1.9457E-02</internalNodes><leafValues>-2.6449E-01 3.8754E-01</leafValues></_><_><internalNodes>0 -1 792 3.3621E-02</internalNodes><leafValues>1.6052E-02 5.8841E-01</leafValues></_><_><internalNodes>0 -1 793 2.8906E-02</internalNodes><leafValues>1.5216E-02 -9.4724E-01</leafValues></_><_><internalNodes>0 -1 794 2.0300E-04</internalNodes><leafValues>-3.0766E-01 2.1236E-01</leafValues></_><_><internalNodes>0 -1 795 -4.9142E-02</internalNodes><leafValues>-1.6059E+00 -3.1095E-02</leafValues></_><_><internalNodes>0 -1 796 7.6426E-02</internalNodes><leafValues>7.4759E-02 1.1639E+00</leafValues></_><_><internalNodes>0 -1 797 2.3898E-02</internalNodes><leafValues>-6.4320E-03 -1.1151E+00</leafValues></_><_><internalNodes>0 -1 798 3.8970E-03</internalNodes><leafValues>-2.4106E-01 2.0859E-01</leafValues></_><_><internalNodes>0 -1 799 -8.9445E-02</internalNodes><leafValues>1.9158E+00 -1.5721E-01</leafValues></_><_><internalNodes>0 -1 800 -1.5009E-02</internalNodes><leafValues>-2.5174E-01 1.8180E-01</leafValues></_><_><internalNodes>0 -1 801 -1.1146E-02</internalNodes><leafValues>-6.9349E-01 4.4928E-02</leafValues></_><_><internalNodes>0 -1 802 9.4579E-02</internalNodes><leafValues>1.8102E-01 -7.4979E-01</leafValues></_><_><internalNodes>0 -1 803 5.5039E-01</internalNodes><leafValues>-3.0974E-02 -1.6746E+00</leafValues></_><_><internalNodes>0 -1 804 4.1381E-02</internalNodes><leafValues>6.3910E-02 7.6561E-01</leafValues></_><_><internalNodes>0 -1 805 2.4772E-02</internalNodes><leafValues>1.1380E-02 -8.8559E-01</leafValues></_><_><internalNodes>0 -1 806 5.0999E-02</internalNodes><leafValues>1.4890E-01 -2.4634E+00</leafValues></_><_><internalNodes>0 -1 807 -1.6894E-02</internalNodes><leafValues>3.8871E-01 -2.9880E-01</leafValues></_><_><internalNodes>0 -1 808 -1.2162E-01</internalNodes><leafValues>-1.5543E+00 1.6301E-01</leafValues></_><_><internalNodes>0 -1 809 -3.6050E-03</internalNodes><leafValues>2.1843E-01 -3.7312E-01</leafValues></_><_><internalNodes>0 -1 810 1.1575E-01</internalNodes><leafValues>-4.7061E-02 5.9404E-01</leafValues></_><_><internalNodes>0 -1 811 3.6904E-02</internalNodes><leafValues>-2.5509E-01 5.5397E-01</leafValues></_><_><internalNodes>0 -1 812 1.1484E-02</internalNodes><leafValues>-1.8129E-01 4.0683E-01</leafValues></_><_><internalNodes>0 -1 813 -2.0234E-02</internalNodes><leafValues>5.4311E-01 -2.3822E-01</leafValues></_><_><internalNodes>0 -1 814 -2.8765E-02</internalNodes><leafValues>-6.9172E-01 1.5943E-01</leafValues></_><_><internalNodes>0 -1 815 -5.8320E-03</internalNodes><leafValues>2.9448E-01 -3.4006E-01</leafValues></_><_><internalNodes>0 -1 816 -5.5469E-02</internalNodes><leafValues>9.2201E-01 9.4093E-02</leafValues></_><_><internalNodes>0 -1 817 -1.4801E-02</internalNodes><leafValues>-7.9540E-01 3.1522E-02</leafValues></_><_><internalNodes>0 -1 818 -7.0940E-03</internalNodes><leafValues>3.3096E-01 -5.0887E-02</leafValues></_><_><internalNodes>0 -1 819 -4.5124E-02</internalNodes><leafValues>-1.3720E+00 -2.1409E-02</leafValues></_><_><internalNodes>0 -1 820 6.4377E-02</internalNodes><leafValues>6.3902E-02 9.1478E-01</leafValues></_><_><internalNodes>0 -1 821 -1.4727E-02</internalNodes><leafValues>3.6051E-01 -2.8615E-01</leafValues></_><_><internalNodes>0 -1 822 4.5007E-02</internalNodes><leafValues>-1.5620E-01 5.3160E-01</leafValues></_><_><internalNodes>0 -1 823 -1.1330E-03</internalNodes><leafValues>1.3423E-01 -4.4359E-01</leafValues></_><_><internalNodes>0 -1 824 4.9451E-02</internalNodes><leafValues>1.0572E-01 -2.5589E+00</leafValues></_><_><internalNodes>0 -1 825 2.9103E-02</internalNodes><leafValues>-1.0088E-02 -1.1074E+00</leafValues></_><_><internalNodes>0 -1 826 3.4786E-02</internalNodes><leafValues>-2.7720E-03 5.6701E-01</leafValues></_><_><internalNodes>0 -1 827 -6.1310E-03</internalNodes><leafValues>-4.6889E-01 1.2636E-01</leafValues></_><_><internalNodes>0 -1 828 1.5525E-02</internalNodes><leafValues>-8.4280E-03 8.7469E-01</leafValues></_><_><internalNodes>0 -1 829 2.9250E-03</internalNodes><leafValues>-3.4434E-01 2.0852E-01</leafValues></_><_><internalNodes>0 -1 830 -5.3571E-02</internalNodes><leafValues>1.4983E+00 5.7328E-02</leafValues></_><_><internalNodes>0 -1 831 -1.9218E-02</internalNodes><leafValues>-9.9234E-01 -9.3920E-03</leafValues></_><_><internalNodes>0 -1 832 -5.5283E-02</internalNodes><leafValues>-5.7682E-01 1.6861E-01</leafValues></_><_><internalNodes>0 -1 833 5.6336E-02</internalNodes><leafValues>-3.3775E-02 -1.3890E+00</leafValues></_><_><internalNodes>0 -1 834 -2.3824E-02</internalNodes><leafValues>4.0182E-01 1.8360E-03</leafValues></_><_><internalNodes>0 -1 835 1.7810E-03</internalNodes><leafValues>1.8146E-01 -4.1743E-01</leafValues></_><_><internalNodes>0 -1 836 -3.7689E-02</internalNodes><leafValues>5.4683E-01 1.8220E-02</leafValues></_><_><internalNodes>0 -1 837 -2.4145E-02</internalNodes><leafValues>6.8352E-01 -1.9650E-01</leafValues></_></weakClassifiers></_><_><maxWeakCount>135</maxWeakCount><stageThreshold>-3.7026E+00</stageThreshold><weakClassifiers><_><internalNodes>0 -1 838 2.7445E-02</internalNodes><leafValues>-8.9984E-01 5.1876E-01</leafValues></_><_><internalNodes>0 -1 839 1.1554E-01</internalNodes><leafValues>-5.6524E-01 7.0551E-01</leafValues></_><_><internalNodes>0 -1 840 -2.2297E-02</internalNodes><leafValues>3.6080E-01 -6.6865E-01</leafValues></_><_><internalNodes>0 -1 841 1.3325E-02</internalNodes><leafValues>-5.5573E-01 3.5790E-01</leafValues></_><_><internalNodes>0 -1 842 -3.8060E-03</internalNodes><leafValues>-1.0713E+00 1.8850E-01</leafValues></_><_><internalNodes>0 -1 843 -2.6820E-03</internalNodes><leafValues>-7.1584E-01 2.6344E-01</leafValues></_><_><internalNodes>0 -1 844 3.3820E-03</internalNodes><leafValues>-4.6931E-01 2.6658E-01</leafValues></_><_><internalNodes>0 -1 845 3.7643E-02</internalNodes><leafValues>2.1099E-01 -1.0804E+00</leafValues></_><_><internalNodes>0 -1 846 -1.3862E-02</internalNodes><leafValues>6.6912E-01 -2.7943E-01</leafValues></_><_><internalNodes>0 -1 847 -2.7350E-03</internalNodes><leafValues>-9.5332E-01 2.4051E-01</leafValues></_><_><internalNodes>0 -1 848 -3.8337E-02</internalNodes><leafValues>8.1433E-01 -2.4919E-01</leafValues></_><_><internalNodes>0 -1 849 -3.4698E-02</internalNodes><leafValues>1.2330E+00 6.8600E-03</leafValues></_><_><internalNodes>0 -1 850 2.3361E-02</internalNodes><leafValues>-3.0795E-01 7.0714E-01</leafValues></_><_><internalNodes>0 -1 851 3.5058E-02</internalNodes><leafValues>2.1206E-01 -1.4400E+00</leafValues></_><_><internalNodes>0 -1 852 -1.3257E-02</internalNodes><leafValues>-9.0261E-01 4.8610E-02</leafValues></_><_><internalNodes>0 -1 853 1.2740E-02</internalNodes><leafValues>2.2655E-01 -4.4644E-01</leafValues></_><_><internalNodes>0 -1 854 3.6400E-03</internalNodes><leafValues>-3.9818E-01 3.4665E-01</leafValues></_><_><internalNodes>0 -1 855 1.0065E-01</internalNodes><leafValues>1.8384E-01 -1.3411E+00</leafValues></_><_><internalNodes>0 -1 856 0.</internalNodes><leafValues>1.5536E-01 -5.1582E-01</leafValues></_><_><internalNodes>0 -1 857 1.1709E-02</internalNodes><leafValues>2.1651E-01 -7.2705E-01</leafValues></_><_><internalNodes>0 -1 858 -3.5965E-02</internalNodes><leafValues>-1.4790E+00 -2.4317E-02</leafValues></_><_><internalNodes>0 -1 859 -2.1236E-02</internalNodes><leafValues>-1.6844E-01 1.9527E-01</leafValues></_><_><internalNodes>0 -1 860 1.4874E-02</internalNodes><leafValues>3.7336E-02 -8.7557E-01</leafValues></_><_><internalNodes>0 -1 861 -5.1410E-03</internalNodes><leafValues>3.3467E-01 -2.4110E-01</leafValues></_><_><internalNodes>0 -1 862 2.3450E-02</internalNodes><leafValues>5.5320E-03 -1.2510E+00</leafValues></_><_><internalNodes>0 -1 863 -2.5062E-02</internalNodes><leafValues>4.5212E-01 -8.4470E-02</leafValues></_><_><internalNodes>0 -1 864 -7.7400E-04</internalNodes><leafValues>1.5250E-01 -4.8487E-01</leafValues></_><_><internalNodes>0 -1 865 -4.0484E-02</internalNodes><leafValues>-1.3025E+00 1.7984E-01</leafValues></_><_><internalNodes>0 -1 866 2.8171E-02</internalNodes><leafValues>-2.4411E-01 6.2271E-01</leafValues></_><_><internalNodes>0 -1 867 4.5693E-02</internalNodes><leafValues>2.8122E-02 9.2394E-01</leafValues></_><_><internalNodes>0 -1 868 3.9707E-02</internalNodes><leafValues>-2.2333E-01 7.7674E-01</leafValues></_><_><internalNodes>0 -1 869 5.0517E-02</internalNodes><leafValues>2.0320E-01 -1.0896E+00</leafValues></_><_><internalNodes>0 -1 870 -1.7267E-02</internalNodes><leafValues>6.8598E-01 -2.3304E-01</leafValues></_><_><internalNodes>0 -1 871 8.0186E-02</internalNodes><leafValues>-1.0292E-02 6.1881E-01</leafValues></_><_><internalNodes>0 -1 872 9.7676E-02</internalNodes><leafValues>-2.0070E-01 1.0088E+00</leafValues></_><_><internalNodes>0 -1 873 -1.5572E-02</internalNodes><leafValues>4.7615E-01 4.5624E-02</leafValues></_><_><internalNodes>0 -1 874 -1.5305E-02</internalNodes><leafValues>-1.1077E+00 4.5240E-03</leafValues></_><_><internalNodes>0 -1 875 -1.6485E-02</internalNodes><leafValues>1.0153E+00 1.6328E-02</leafValues></_><_><internalNodes>0 -1 876 -2.6142E-02</internalNodes><leafValues>4.1723E-01 -2.8646E-01</leafValues></_><_><internalNodes>0 -1 877 8.8680E-03</internalNodes><leafValues>2.1405E-01 -1.6773E-01</leafValues></_><_><internalNodes>0 -1 878 -2.6887E-02</internalNodes><leafValues>-1.1564E+00 -1.0324E-02</leafValues></_><_><internalNodes>0 -1 879 7.7790E-03</internalNodes><leafValues>3.5359E-01 -2.9611E-01</leafValues></_><_><internalNodes>0 -1 880 -1.5974E-02</internalNodes><leafValues>-1.5374E+00 -2.9958E-02</leafValues></_><_><internalNodes>0 -1 881 2.0867E-02</internalNodes><leafValues>2.0244E-01 -7.1270E-01</leafValues></_><_><internalNodes>0 -1 882 8.5482E-02</internalNodes><leafValues>-2.5933E-02 -1.5157E+00</leafValues></_><_><internalNodes>0 -1 883 2.3873E-02</internalNodes><leafValues>1.6803E-01 -3.8806E-01</leafValues></_><_><internalNodes>0 -1 884 -3.9105E-02</internalNodes><leafValues>-1.1958E+00 -2.0361E-02</leafValues></_><_><internalNodes>0 -1 885 -7.7947E-02</internalNodes><leafValues>-1.0899E+00 1.4530E-01</leafValues></_><_><internalNodes>0 -1 886 -1.6876E-02</internalNodes><leafValues>2.8050E-01 -4.1336E-01</leafValues></_><_><internalNodes>0 -1 887 1.1876E-01</internalNodes><leafValues>-4.3491E-02 4.1264E-01</leafValues></_><_><internalNodes>0 -1 888 1.5624E-01</internalNodes><leafValues>-2.6430E-01 5.5128E-01</leafValues></_><_><internalNodes>0 -1 889 -4.5908E-02</internalNodes><leafValues>6.0189E-01 1.8921E-02</leafValues></_><_><internalNodes>0 -1 890 -1.0310E-02</internalNodes><leafValues>3.8153E-01 -2.9508E-01</leafValues></_><_><internalNodes>0 -1 891 9.5769E-02</internalNodes><leafValues>1.3247E-01 -4.6267E-01</leafValues></_><_><internalNodes>0 -1 892 1.3687E-02</internalNodes><leafValues>1.1739E-01 -5.1664E-01</leafValues></_><_><internalNodes>0 -1 893 2.3990E-03</internalNodes><leafValues>-3.4008E-01 2.0954E-01</leafValues></_><_><internalNodes>0 -1 894 3.3265E-02</internalNodes><leafValues>-1.7053E-01 1.4367E+00</leafValues></_><_><internalNodes>0 -1 895 -3.3206E-02</internalNodes><leafValues>6.1296E-01 -4.1550E-02</leafValues></_><_><internalNodes>0 -1 896 2.7980E-03</internalNodes><leafValues>-4.8554E-01 1.3373E-01</leafValues></_><_><internalNodes>0 -1 897 -6.5792E-02</internalNodes><leafValues>-4.0258E+00 1.0877E-01</leafValues></_><_><internalNodes>0 -1 898 2.1430E-03</internalNodes><leafValues>-3.9180E-01 2.2427E-01</leafValues></_><_><internalNodes>0 -1 899 2.2364E-02</internalNodes><leafValues>-8.6430E-02 3.7785E-01</leafValues></_><_><internalNodes>0 -1 900 -5.7410E-02</internalNodes><leafValues>1.1454E+00 -1.9737E-01</leafValues></_><_><internalNodes>0 -1 901 6.6550E-03</internalNodes><leafValues>-2.1105E-02 5.8453E-01</leafValues></_><_><internalNodes>0 -1 902 1.2327E-02</internalNodes><leafValues>3.7817E-02 -6.6987E-01</leafValues></_><_><internalNodes>0 -1 903 -8.1870E-03</internalNodes><leafValues>5.6366E-01 -7.6878E-02</leafValues></_><_><internalNodes>0 -1 904 3.6681E-02</internalNodes><leafValues>-1.7343E-01 1.1670E+00</leafValues></_><_><internalNodes>0 -1 905 -4.0220E-01</internalNodes><leafValues>1.2641E+00 4.3399E-02</leafValues></_><_><internalNodes>0 -1 906 -2.2126E-02</internalNodes><leafValues>6.6978E-01 -2.1605E-01</leafValues></_><_><internalNodes>0 -1 907 -1.3157E-02</internalNodes><leafValues>-4.1199E-01 2.0215E-01</leafValues></_><_><internalNodes>0 -1 908 -1.2860E-02</internalNodes><leafValues>-9.1583E-01 3.9233E-02</leafValues></_><_><internalNodes>0 -1 909 2.1628E-02</internalNodes><leafValues>3.8720E-03 3.5668E-01</leafValues></_><_><internalNodes>0 -1 910 1.1896E-02</internalNodes><leafValues>-3.7304E-01 1.9235E-01</leafValues></_><_><internalNodes>0 -1 911 -1.9549E-02</internalNodes><leafValues>-4.2375E-01 2.4430E-01</leafValues></_><_><internalNodes>0 -1 912 6.4445E-02</internalNodes><leafValues>-1.6559E-01 1.2697E+00</leafValues></_><_><internalNodes>0 -1 913 1.0898E-01</internalNodes><leafValues>1.4894E-01 -2.1535E+00</leafValues></_><_><internalNodes>0 -1 914 -3.4078E-02</internalNodes><leafValues>1.3779E+00 -1.6198E-01</leafValues></_><_><internalNodes>0 -1 915 -3.7490E-03</internalNodes><leafValues>-3.3829E-01 2.1153E-01</leafValues></_><_><internalNodes>0 -1 916 -1.0972E-02</internalNodes><leafValues>7.6518E-01 -1.9693E-01</leafValues></_><_><internalNodes>0 -1 917 -1.1485E-02</internalNodes><leafValues>-6.9271E-01 2.1657E-01</leafValues></_><_><internalNodes>0 -1 918 2.5984E-02</internalNodes><leafValues>-1.1984E-02 